{"learner":{"attributes":{"scikit_learn":"{\"_estimator_type\": \"classifier\"}"},"feature_names":["atr_14","atr_pct","rsi_14","macd_hist","macd_hist_norm","bb_pct","bb_width","ema_short_dist","ema_long_dist","ema_cross","adx_14","plus_di","minus_di","di_diff","volume_ratio","volume_sma_ratio","returns_1","returns_5","returns_20","roc_10","high_low_range_pct","close_position","hour","day_of_week"],"feature_types":["float","float","float","float","float","float","float","float","float","float","float","float","float","float","float","float","float","float","float","float","float","float","float","float"],"gradient_booster":{"model":{"cats":{"enc":[],"feature_segments":[],"sorted_idx":[]},"gbtree_model_param":{"num_parallel_tree":"1","num_trees":"200"},"iteration_indptr":[0,1,2,3,4,5,6,7,8,9,10,11,12,13,14,15,16,17,18,19,20,21,22,23,24,25,26,27,28,29,30,31,32,33,34,35,36,37,38,39,40,41,42,43,44,45,46,47,48,49,50,51,52,53,54,55,56,57,58,59,60,61,62,63,64,65,66,67,68,69,70,71,72,73,74,75,76,77,78,79,80,81,82,83,84,85,86,87,88,89,90,91,92,93,94,95,96,97,98,99,100,101,102,103,104,105,106,107,108,109,110,111,112,113,114,115,116,117,118,119,120,121,122,123,124,125,126,127,128,129,130,131,132,133,134,135,136,137,138,139,140,141,142,143,144,145,146,147,148,149,150,151,152,153,154,155,156,157,158,159,160,161,162,163,164,165,166,167,168,169,170,171,172,173,174,175,176,177,178,179,180,181,182,183,184,185,186,187,188,189,190,191,192,193,194,195,196,197,198,199,200],"tree_info":[0,0,0,0,0,0,0,0,0,0,0,0,0,0,0,0,0,0,0,0,0,0,0,0,0,0,0,0,0,0,0,0,0,0,0,0,0,0,0,0,0,0,0,0,0,0,0,0,0,0,0,0,0,0,0,0,0,0,0,0,0,0,0,0,0,0,0,0,0,0,0,0,0,0,0,0,0,0,0,0,0,0,0,0,0,0,0,0,0,0,0,0,0,0,0,0,0,0,0,0,0,0,0,0,0,0,0,0,0,0,0,0,0,0,0,0,0,0,0,0,0,0,0,0,0,0,0,0,0,0,0,0,0,0,0,0,0,0,0,0,0,0,0,0,0,0,0,0,0,0,0,0,0,0,0,0,0,0,0,0,0,0,0,0,0,0,0,0,0,0,0,0,0,0,0,0,0,0,0,0,0,0,0,0,0,0,0,0,0,0,0,0,0,0,0,0,0,0,0,0],"trees":[{"base_weights":[-4.8807006E-2,6.0116124E-1,-1.8416326E-1,-7.4116397E-3,9.729698E-1,5.4873616E-1,-3.5151333E-1,1.1222885E-2,7.631823E-2,5.700462E-2,1.422258E-3,-1.6041882E-1,-1.0011461E0,-3.164707E-2,5.473127E-3,-1.1228892E-2,-7.181322E-2],"categories":[],"categories_nodes":[],"categories_segments":[],"categories_sizes":[],"default_left":[0,0,0,0,0,0,0,0,0,0,0,0,0,0,0,0,0],"id":0,"left_children":[1,3,5,-1,7,9,11,-1,-1,-1,-1,13,15,-1,-1,-1,-1],"loss_changes":[8.742887E0,4.991359E0,1.0290872E1,0E0,4.3083916E0,4.6548095E0,8.149691E0,0E0,0E0,0E0,0E0,6.9772816E0,4.6199446E0,0E0,0E0,0E0,0E0],"parents":[2147483647,0,0,1,1,2,2,4,4,5,5,6,6,11,11,12,12],"right_children":[2,4,6,-1,8,10,12,-1,-1,-1,-1,14,16,-1,-1,-1,-1],"split_conditions":[1.2069393E1,-3.1510755E-1,2.3227627E1,-7.4116397E-3,9.237634E-3,1.464143E0,4.326615E-3,1.1222885E-2,7.631823E-2,5.700462E-2,1.422258E-3,-2.5029446E-3,8.644743E-3,-3.164707E-2,5.473127E-3,-1.1228892E-2,-7.181322E-2],"split_indices":[11,4,10,0,20,0,16,0,0,0,0,16,19,0,0,0,0],"split_type":[0,0,0,0,0,0,0,0,0,0,0,0,0,0,0,0,0],"sum_hessian":[9.7592224E1,1.610024E1,8.149198E1,5.4493117E0,1.0650928E1,1.4614064E1,6.687792E1,5.201616E0,5.4493117E0,6.1924E0,8.421664E0,5.2759247E1,1.4118671E1,1.8824896E1,3.3934353E1,5.697008E0,8.421664E0],"tree_param":{"num_deleted":"0","num_feature":"24","num_nodes":"17","size_leaf_vector":"1"}},{"base_weights":[5.776316E-2,2.3334467E-1,-6.099226E-1,7.649173E-1,4.5606602E-2,6.397513E-3,-9.1524357E-1,3.124351E-3,6.261707E-2,1.5206395E-1,-4.100177E-2,-5.7952076E-2,-1.8120594E-2,3.9422598E-2,-1.9247277E-3],"categories":[],"categories_nodes":[],"categories_segments":[],"categories_sizes":[],"default_left":[0,0,0,0,0,0,0,0,0,0,0,0,0,0,0],"id":1,"left_children":[1,3,5,7,9,-1,11,-1,-1,13,-1,-1,-1,-1,-1],"loss_changes":[1.189383E1,7.914178E0,4.948654E0,6.911352E0,5.648536E0,0E0,1.4684429E0,0E0,0E0,6.7713866E0,0E0,0E0,0E0,0E0,0E0],"parents":[2147483647,0,0,1,1,2,2,3,3,4,4,6,6,9,9],"right_children":[2,4,6,8,10,-1,12,-1,-1,14,-1,-1,-1,-1,-1],"split_conditions":[2.2561671E-2,6.080782E-3,8.749348E-1,7.315786E-3,1.393525E0,6.397513E-3,8.891365E-3,3.124351E-3,6.261707E-2,1.2069393E1,-4.100177E-2,-5.7952076E-2,-1.8120594E-2,3.9422598E-2,-1.9247277E-3],"split_indices":[18,20,14,18,14,0,1,0,0,11,0,0,0,0,0],"split_type":[0,0,0,0,0,0,0,0,0,0,0,0,0,0,0],"sum_hessian":[9.95616E1,7.9464966E1,2.0096636E1,1.9798704E1,5.9666264E1,5.956031E0,1.4140605E1,8.656754E0,1.1141951E1,5.396897E1,5.6972923E0,8.926563E0,5.2140417E0,1.1834325E1,4.2134644E1],"tree_param":{"num_deleted":"0","num_feature":"24","num_nodes":"15","size_leaf_vector":"1"}},{"base_weights":[-4.1724306E-2,1.2496895E-1,-5.2347445E-1,4.3152828E-2,4.1894875E-2,1.2109956E-2,-7.6634914E-1,4.418262E-1,-5.173057E-2,-3.8036343E-3,-1.0974807E0,5.1127996E-2,-1.6103735E-2,-1.5221934E-2,1.4157894E-2,-8.347216E-2,-2.2172725E-2],"categories":[],"categories_nodes":[],"categories_segments":[],"categories_sizes":[],"default_left":[0,0,0,0,0,0,0,0,0,0,0,0,0,0,0,0,0],"id":2,"left_children":[1,3,5,-1,7,-1,9,11,13,-1,15,-1,-1,-1,-1,-1,-1],"loss_changes":[8.13585E0,4.46883E0,5.0831027E0,0E0,2.628193E0,0E0,4.397826E0,6.30348E0,4.8469725E0,0E0,4.0701237E0,0E0,0E0,0E0,0E0,0E0,0E0],"parents":[2147483647,0,0,1,1,2,2,4,4,6,6,7,7,8,8,10,10],"right_children":[2,4,6,-1,8,-1,10,12,14,-1,16,-1,-1,-1,-1,-1,-1],"split_conditions":[2.7078163E1,1.8324824E-2,8.2905956E-2,4.3152828E-2,1.08716135E1,1.2109956E-2,1.7383529E0,3.5313766E1,3E0,-3.8036343E-3,7.524251E1,5.1127996E-2,-1.6103735E-2,-1.5221934E-2,1.4157894E-2,-8.347216E-2,-2.2172725E-2],"split_indices":[11,6,3,0,11,0,8,12,23,0,2,0,0,0,0,0,0],"split_type":[0,0,0,0,0,0,0,0,0,0,0,0,0,0,0,0,0],"sum_hessian":[9.900163E1,7.394759E1,2.5054033E1,6.40939E0,6.753821E1,5.9349327E0,1.91191E1,1.2308805E1,5.52294E1,6.6948185E0,1.2424282E1,6.8747663E0,5.4340386E0,3.1698856E1,2.3530546E1,5.7181506E0,6.7061315E0],"tree_param":{"num_deleted":"0","num_feature":"24","num_nodes":"17","size_leaf_vector":"1"}},{"base_weights":[1.0802293E-2,7.647462E-1,-8.468252E-2,5.7945132E-2,1.2561972E-2,3.961123E-2,-5.4000545E-1,-1.6932325E-1,5.0325125E-1,-4.8155837E-2,-1.6043411E-1,-2.1721985E-2,1.1933069E-2,3.9820034E-2,1.6873581E-3,-2.8681695E-2,1.3931689E-2],"categories":[],"categories_nodes":[],"categories_segments":[],"categories_sizes":[],"default_left":[0,0,0,0,0,0,0,0,0,0,0,0,0,0,0,0,0],"id":3,"left_children":[1,3,5,-1,-1,7,9,11,13,-1,15,-1,-1,-1,-1,-1,-1],"loss_changes":[7.418489E0,1.9144459E0,5.1994224E0,0E0,0E0,7.087364E0,2.8923893E0,5.5520706E0,3.0210552E0,0E0,2.3108418E0,0E0,0E0,0E0,0E0,0E0,0E0],"parents":[2147483647,0,0,1,1,2,2,5,5,6,6,7,7,8,8,10,10],"right_children":[2,4,6,-1,-1,8,10,12,14,-1,16,-1,-1,-1,-1,-1,-1],"split_conditions":[4.5859874E-3,9.6897644E-1,2.3072727E-2,5.7945132E-2,1.2561972E-2,1.0220877E-2,8.891365E-3,1.0447832E-2,7.973287E-3,-4.8155837E-2,9.01051E-3,-2.1721985E-2,1.1933069E-2,3.9820034E-2,1.6873581E-3,-2.8681695E-2,1.3931689E-2],"split_indices":[20,15,18,0,0,18,1,1,20,0,17,0,0,0,0,0,0],"split_type":[0,0,0,0,0,0,0,0,0,0,0,0,0,0,0,0,0],"sum_hessian":[1.0020438E2,1.0593866E1,8.9610504E1,5.172211E0,5.4216557E0,7.0939E1,1.8671501E1,4.9190804E1,2.1748203E1,7.977776E0,1.0693726E1,2.9925129E1,1.9265675E1,1.2828859E1,8.919345E0,5.4685936E0,5.2251325E0],"tree_param":{"num_deleted":"0","num_feature":"24","num_nodes":"17","size_leaf_vector":"1"}},{"base_weights":[-2.0504497E-2,1.8763871E-1,-8.0231845E-1,2.7944162E-1,-3.7114367E-2,-5.816896E-2,-1.7933616E-2,8.7856466E-1,1.3736776E-1,6.271266E-2,1.4416598E-2,-3.3018521E-3,2.9075474E-2],"categories":[],"categories_nodes":[],"categories_segments":[],"categories_sizes":[],"default_left":[0,0,0,0,0,0,0,0,0,0,0,0,0],"id":4,"left_children":[1,3,5,7,-1,-1,-1,9,11,-1,-1,-1,-1],"loss_changes":[1.619079E1,6.841884E0,2.7841158E0,5.910546E0,0E0,0E0,0E0,2.4754906E0,5.470551E0,0E0,0E0,0E0,0E0],"parents":[2147483647,0,0,1,1,2,2,3,3,7,7,8,8],"right_children":[2,4,6,8,-1,-1,-1,10,12,-1,-1,-1,-1],"split_conditions":[2.2561671E-2,1.3875937E0,2.837687E-1,1.08716135E1,-3.7114367E-2,-5.816896E-2,-1.7933616E-2,1.0181632E0,1.1790528E-2,6.271266E-2,1.4416598E-2,-3.3018521E-3,2.9075474E-2],"split_indices":[18,14,3,11,0,0,0,14,18,0,0,0,0],"split_type":[0,0,0,0,0,0,0,0,0,0,0,0,0],"sum_hessian":[9.719238E1,7.725641E1,1.9935974E1,7.10494E1,6.207006E0,9.972307E0,9.963667E0,1.2490301E1,5.85591E1,6.841306E0,5.648995E0,4.059422E1,1.7964882E1],"tree_param":{"num_deleted":"0","num_feature":"24","num_nodes":"13","size_leaf_vector":"1"}},{"base_weights":[-4.365037E-2,9.2938244E-2,-5.1643336E-1,-3.751111E-2,1.9966169E-1,-8.841136E-1,-1.2027318E-1,-4.601757E-3,5.2027875E-1,-5.989721E-2,-2.0615464E-2,9.307909E-3,-2.300314E-2,7.1976683E-3,-2.4465324E-2,4.764888E-2,7.819048E-3],"categories":[],"categories_nodes":[],"categories_segments":[],"categories_sizes":[],"default_left":[0,0,0,0,0,0,0,0,0,0,0,0,0,0,0,0,0],"id":5,"left_children":[1,3,5,-1,7,9,11,13,15,-1,-1,-1,-1,-1,-1,-1,-1],"loss_changes":[6.539694E0,7.1287384E0,3.100061E0,0E0,4.656698E0,1.0457506E0,1.3850261E0,3.2538486E0,4.0780144E0,0E0,0E0,0E0,0E0,0E0,0E0,0E0,0E0],"parents":[2147483647,0,0,1,1,2,2,4,4,5,5,6,6,7,7,8,8],"right_children":[2,4,6,-1,8,10,12,14,16,-1,-1,-1,-1,-1,-1,-1,-1],"split_conditions":[2.2561671E-2,7.45869E-1,8.537607E-3,-3.751111E-2,1.0487262E0,2.9042096E0,2.2189147E-3,1.0988389E0,9.799492E-1,-5.989721E-2,-2.0615464E-2,9.307909E-3,-2.300314E-2,7.1976683E-3,-2.4465324E-2,4.764888E-2,7.819048E-3],"split_indices":[18,14,1,0,8,8,16,15,14,0,0,0,0,0,0,0,0],"split_type":[0,0,0,0,0,0,0,0,0,0,0,0,0,0,0,0,0],"sum_hessian":[9.8871025E1,7.716865E1,2.1702375E1,7.8874955E0,6.928115E1,1.0486043E1,1.12163315E1,4.2731125E1,2.6550026E1,5.24572E0,5.2403226E0,5.9806547E0,5.235677E0,3.3087097E1,9.64403E0,1.1263437E1,1.5286588E1],"tree_param":{"num_deleted":"0","num_feature":"24","num_nodes":"17","size_leaf_vector":"1"}},{"base_weights":[5.9441794E-2,6.2239325E-1,-7.212828E-2,5.5718478E-2,-0E0,8.687638E-2,-7.31259E-1,4.1353992E-1,-1.4689036E-1,9.235027E-3,-6.335494E-2,-6.8809437E-3,3.223898E-2,3.9729415E-3,-2.6238902E-2],"categories":[],"categories_nodes":[],"categories_segments":[],"categories_sizes":[],"default_left":[0,0,0,0,0,0,0,0,0,0,0,0,0,0,0],"id":6,"left_children":[1,3,5,-1,-1,7,9,11,13,-1,-1,-1,-1,-1,-1],"loss_changes":[7.3989134E0,5.785863E0,8.578267E0,0E0,0E0,5.106773E0,8.145449E0,3.6899376E0,3.4111547E0,0E0,0E0,0E0,0E0,0E0,0E0],"parents":[2147483647,0,0,1,1,2,2,5,5,6,6,7,7,8,8],"right_children":[2,4,6,-1,-1,8,10,12,14,-1,-1,-1,-1,-1,-1],"split_conditions":[2.3480991E1,2.0852506E-2,5.2437983E-3,5.5718478E-2,-0E0,9.669902E-1,5.59008E1,-1.8897845E-3,1.5370685E0,9.235027E-3,-6.335494E-2,-6.8809437E-3,3.223898E-2,3.9729415E-3,-2.6238902E-2],"split_indices":[10,4,16,0,0,14,2,16,8,0,0,0,0,0,0],"split_type":[0,0,0,0,0,0,0,0,0,0,0,0,0,0,0],"sum_hessian":[9.754509E1,1.7916208E1,7.962888E1,9.559908E0,8.3563E0,6.473024E1,1.4898646E1,2.685794E1,3.7872295E1,5.6718764E0,9.226769E0,7.9297724E0,1.892817E1,2.4013601E1,1.3858696E1],"tree_param":{"num_deleted":"0","num_feature":"24","num_nodes":"15","size_leaf_vector":"1"}},{"base_weights":[-5.558363E-2,4.5298034E-1,-1.7246358E-1,7.77746E-1,-1.4393684E-2,-4.6424847E-2,-1.0352519E-1,5.537009E-2,1.2222536E-2,2.7361894E-1,-2.2177902E-1,3.8624E-2,-2.8044397E-3,-4.5472465E-2,-5.6405E-3],"categories":[],"categories_nodes":[],"categories_segments":[],"categories_sizes":[],"default_left":[0,0,0,0,0,0,0,0,0,0,0,0,0,0,0],"id":7,"left_children":[1,3,5,7,-1,-1,9,-1,-1,11,13,-1,-1,-1,-1],"loss_changes":[6.0774245E0,4.8600287E0,4.144102E0,1.9883299E0,0E0,0E0,3.517181E0,0E0,0E0,3.2028337E0,4.279627E0,0E0,0E0,0E0,0E0],"parents":[2147483647,0,0,1,1,2,2,3,3,6,6,9,9,10,10],"right_children":[2,4,6,8,-1,-1,10,-1,-1,12,14,-1,-1,-1,-1],"split_conditions":[1.2069393E1,1.2058682E0,-3.5471532E-1,-6.156713E-1,-1.4393684E-2,-4.6424847E-2,-8.623401E-4,5.537009E-2,1.2222536E-2,2E0,1.5845824E1,3.8624E-2,-2.8044397E-3,-4.5472465E-2,-5.6405E-3],"split_indices":[11,15,3,7,0,0,19,0,0,23,11,0,0,0,0],"split_type":[0,0,0,0,0,0,0,0,0,0,0,0,0,0,0],"sum_hessian":[1.0040072E2,1.806514E1,8.233558E1,1.2618703E1,5.4464355E0,5.7171946E0,7.6618385E1,7.0170712E0,5.601632E0,1.7773695E1,5.8844692E1,6.6588945E0,1.11148E1,6.918775E0,5.192592E1],"tree_param":{"num_deleted":"0","num_feature":"24","num_nodes":"15","size_leaf_vector":"1"}},{"base_weights":[7.038229E-2,4.8020154E-2,-0E0,7.413161E-2,-3.353054E-2,3.8207957E-1,-1.0130971E-1,5.3608026E-2,5.9523E-3,1.939465E-2,-1.4549518E-2],"categories":[],"categories_nodes":[],"categories_segments":[],"categories_sizes":[],"default_left":[0,0,0,0,0,0,0,0,0,0,0],"id":8,"left_children":[1,-1,3,5,-1,7,9,-1,-1,-1,-1],"loss_changes":[6.481053E0,0E0,4.8509316E0,4.7528286E0,0E0,5.5428743E0,5.2846384E0,0E0,0E0,0E0,0E0],"parents":[2147483647,0,0,2,2,3,3,5,5,6,6],"right_children":[2,-1,4,6,-1,8,10,-1,-1,-1,-1],"split_conditions":[1.8324824E-2,4.8020154E-2,3.3993617E-2,6.7986962E-3,-3.353054E-2,9.0301806E-1,1.3394312E1,5.3608026E-2,5.9523E-3,1.939465E-2,-1.4549518E-2],"split_indices":[6,0,18,20,0,15,11,0,0,0,0],"split_type":[0,0,0,0,0,0,0,0,0,0,0],"sum_hessian":[1.0103673E2,6.5744843E0,9.446225E1,8.573555E1,8.726694E0,3.089626E1,5.4839294E1,7.572675E0,2.3323584E1,1.4882882E1,3.9956413E1],"tree_param":{"num_deleted":"0","num_feature":"24","num_nodes":"11","size_leaf_vector":"1"}},{"base_weights":[-1.7389316E-2,4.4959345E-1,-1.4388864E-1,7.0875144E-1,-1.48858605E-2,4.2657572E-1,-2.4524972E-1,7.4469163E-3,5.545467E-2,3.902143E-2,-1.59119E-3,-5.1910996E-2,-1.5477286E-1,-1.6459687E-2,1.6715843E-2],"categories":[],"categories_nodes":[],"categories_segments":[],"categories_sizes":[],"default_left":[0,0,0,0,0,0,0,0,0,0,0,0,0,0,0],"id":9,"left_children":[1,3,5,7,-1,9,11,-1,-1,-1,-1,-1,13,-1,-1],"loss_changes":[5.954626E0,4.403724E0,4.700009E0,3.3647614E0,0E0,2.0873718E0,4.6369534E0,0E0,0E0,0E0,0E0,0E0,5.4670906E0,0E0,0E0],"parents":[2147483647,0,0,1,1,2,2,3,3,5,5,6,6,12,12],"right_children":[2,4,6,8,-1,10,12,-1,-1,-1,-1,-1,14,-1,-1],"split_conditions":[1.3394312E1,5.8691554E-2,6.973651E-3,9.36256E-3,-1.48858605E-2,4.0670887E-2,-2.963251E-1,7.4469163E-3,5.545467E-2,3.902143E-2,-1.59119E-3,-5.1910996E-2,1.0730712E0,-1.6459687E-2,1.6715843E-2],"split_indices":[11,6,1,20,0,3,3,0,0,0,0,0,15,0,0],"split_type":[0,0,0,0,0,0,0,0,0,0,0,0,0,0,0],"sum_hessian":[9.9223526E1,2.0436363E1,7.878716E1,1.5311824E1,5.124539E0,1.125402E1,6.753314E1,7.0605736E0,8.25125E0,6.0779243E0,5.176096E0,5.730331E0,6.180281E1,4.5948048E1,1.5854765E1],"tree_param":{"num_deleted":"0","num_feature":"24","num_nodes":"15","size_leaf_vector":"1"}},{"base_weights":[4.8104078E-2,2.0826438E-1,-2.2052343E-1,5.4663396E-1,1.4618885E-2,-3.6832765E-1,2.8406039E-2,1.2206215E-3,8.35752E-1,-4.1413274E-2,2.0984954E-1,1.1469252E-2,-5.812783E-1,6.548251E-2,2.0212179E-2,4.0490326E-2,4.473837E-5,-1.8307315E-2,-5.1270943E-2],"categories":[],"categories_nodes":[],"categories_segments":[],"categories_sizes":[],"default_left":[0,0,0,0,0,0,0,0,0,0,0,0,0,0,0,0,0,0,0],"id":10,"left_children":[1,3,5,7,9,11,-1,-1,13,-1,15,-1,17,-1,-1,-1,-1,-1,-1],"loss_changes":[4.477517E0,4.2142854E0,4.7046604E0,3.4494162E0,7.145842E0,4.4117036E0,0E0,0E0,2.3676662E0,0E0,4.3811464E0,0E0,1.8727484E0,0E0,0E0,0E0,0E0,0E0,0E0],"parents":[2147483647,0,0,1,1,2,2,3,3,4,4,5,5,8,8,10,10,12,12],"right_children":[2,4,6,8,10,12,-1,-1,14,-1,16,-1,18,-1,-1,-1,-1,-1,-1],"split_conditions":[3.6429096E1,9.4710547E-1,3.7323032E1,2.5853132E1,9.838836E-1,6.1521595E-3,2.8406039E-2,1.2206215E-3,1.4865293E-1,-4.1413274E-2,-7.392527E-1,1.1469252E-2,1.1173416E-2,6.548251E-2,2.0212179E-2,4.0490326E-2,4.473837E-5,-1.8307315E-2,-5.1270943E-2],"split_indices":[10,15,12,10,15,20,0,0,3,0,8,0,20,0,0,0,0,0,0],"split_type":[0,0,0,0,0,0,0,0,0,0,0,0,0,0,0,0,0,0,0],"sum_hessian":[1.02032524E2,6.429545E1,3.7737076E1,2.255112E1,4.174433E1,3.2336475E1,5.400599E0,8.545702E0,1.4005418E1,7.1444283E0,3.4599903E1,8.35074E0,2.3985735E1,5.5945187E0,8.410899E0,8.071293E0,2.6528608E1,1.7539518E1,6.4462156E0],"tree_param":{"num_deleted":"0","num_feature":"24","num_nodes":"19","size_leaf_vector":"1"}},{"base_weights":[-1.4421581E-2,3.8441535E-2,-1.0031318E-1,5.409881E-1,-1.9147941E-1,-1.4227346E-2,6.159227E-2,2.783925E-1,-3.1204173E-1,-2.7855689E-2,4.2599015E-2,1.9309905E-3,-2.6712855E-2],"categories":[],"categories_nodes":[],"categories_segments":[],"categories_sizes":[],"default_left":[0,0,0,0,0,0,0,0,0,0,0,0,0],"id":11,"left_children":[1,-1,3,5,7,-1,-1,9,11,-1,-1,-1,-1],"loss_changes":[6.9583383E0,0E0,5.5685697E0,7.194236E0,4.8056073E0,0E0,0E0,8.821684E0,5.281862E0,0E0,0E0,0E0,0E0],"parents":[2147483647,0,0,2,2,3,3,4,4,7,7,8,8],"right_children":[2,-1,4,6,8,-1,-1,10,12,-1,-1,-1,-1],"split_conditions":[4.5706406E-3,3.8441535E-2,1.0180578E1,-6.601267E-1,2.3369059E1,-1.4227346E-2,6.159227E-2,2.3120702E-3,9.4710547E-1,-2.7855689E-2,4.2599015E-2,1.9309905E-3,-2.6712855E-2],"split_indices":[20,0,11,3,10,0,0,19,15,0,0,0,0],"split_type":[0,0,0,0,0,0,0,0,0,0,0,0,0],"sum_hessian":[1.0227889E2,9.206713E0,9.3072174E1,1.0833543E1,8.223863E1,5.137683E0,5.69586E0,1.6355844E1,6.588279E1,6.598556E0,9.757288E0,2.5701443E1,4.0181347E1],"tree_param":{"num_deleted":"0","num_feature":"24","num_nodes":"13","size_leaf_vector":"1"}},{"base_weights":[-3.0526707E-2,9.672351E-2,-5.528018E-1,-4.5207095E-1,1.87304E-1,-1.5826054E-1,-5.7750702E-2,-4.2295463E-2,1.6533717E-3,6.2292993E-1,-4.3525226E-2,-2.5213135E-2,1.5391166E-2,5.2765895E-2,-1.6511374E-3,-9.4555905E-3,2.7917549E-2],"categories":[],"categories_nodes":[],"categories_segments":[],"categories_sizes":[],"default_left":[0,0,0,0,0,0,0,0,0,0,0,0,0,0,0,0,0],"id":12,"left_children":[1,3,5,7,9,11,-1,-1,-1,13,15,-1,-1,-1,-1,-1,-1],"loss_changes":[6.84084E0,4.1475954E0,4.479778E0,2.3621266E0,7.272126E0,2.343773E0,0E0,0E0,0E0,7.219393E0,4.2311473E0,0E0,0E0,0E0,0E0,0E0,0E0],"parents":[2147483647,0,0,1,1,2,2,3,3,4,4,5,5,9,9,10,10],"right_children":[2,4,6,8,10,12,-1,-1,-1,14,16,-1,-1,-1,-1,-1,-1],"split_conditions":[2.2561671E-2,7.624812E-1,2.8031776E-3,1.0262173E-2,9.7538584E-1,8.891365E-3,-5.7750702E-2,-4.2295463E-2,1.6533717E-3,5.4585725E-2,8.073063E-2,-2.5213135E-2,1.5391166E-2,5.2765895E-2,-1.6511374E-3,-9.4555905E-3,2.7917549E-2],"split_indices":[18,14,16,1,14,1,0,0,0,4,4,0,0,0,0,0,0],"split_type":[0,0,0,0,0,0,0,0,0,0,0,0,0,0,0,0,0],"sum_hessian":[1.004415E2,8.126495E1,1.9176546E1,1.0791054E1,7.04739E1,1.2449241E1,6.7273054E0,5.65929E0,5.131764E0,2.3970608E1,4.6503292E1,7.22117E0,5.2280707E0,1.41722355E1,9.798373E0,3.813165E1,8.371643E0],"tree_param":{"num_deleted":"0","num_feature":"24","num_nodes":"17","size_leaf_vector":"1"}},{"base_weights":[-8.209527E-2,4.6524614E-1,-1.8222536E-1,-8.123211E-3,4.1736186E-2,-4.4930626E-2,-1.1462589E-1,2.7318843E-2,-5.4293954E-1,-1.1021987E-2,1.7824149E-2,-4.133872E-2,-1.0241573E-2],"categories":[],"categories_nodes":[],"categories_segments":[],"categories_sizes":[],"default_left":[0,0,0,0,0,0,0,0,0,0,0,0,0],"id":13,"left_children":[1,3,5,-1,-1,-1,7,9,11,-1,-1,-1,-1],"loss_changes":[5.447802E0,3.7605786E0,3.865132E0,0E0,0E0,0E0,4.812213E0,4.937002E0,1.6135721E0,0E0,0E0,0E0,0E0],"parents":[2147483647,0,0,1,1,2,2,6,6,7,7,8,8],"right_children":[2,4,6,-1,-1,-1,8,10,12,-1,-1,-1,-1],"split_conditions":[1.08716135E1,-3.1510755E-1,-3.5471532E-1,-8.123211E-3,4.1736186E-2,-4.4930626E-2,2.3072727E-2,9.3892235E-3,8.891365E-3,-1.1021987E-2,1.7824149E-2,-4.133872E-2,-1.0241573E-2],"split_indices":[11,4,3,0,0,0,18,18,1,0,0,0,0],"split_type":[0,0,0,0,0,0,0,0,0,0,0,0,0],"sum_hessian":[9.737224E1,1.4340053E1,8.303219E1,5.420584E0,8.919468E0,5.9719367E0,7.706025E1,5.8406773E1,1.8653479E1,3.3339195E1,2.5067577E1,9.194133E0,9.459346E0],"tree_param":{"num_deleted":"0","num_feature":"24","num_nodes":"13","size_leaf_vector":"1"}},{"base_weights":[2.8961843E-2,-2.592381E-1,1.801087E-1,2.6714557E-1,-5.1529634E-1,-2.6309056E-2,5.8722436E-1,3.3043575E-2,-8.566875E-3,-6.312903E-2,1.897729E-2,-2.0239331E-1,2.8691063E-2,5.6369383E-2,3.3583286E-1,3.3464577E-2,-1.9791577E-2,3.3203937E-2,-2.1505136E-2,4.419006E-2,-2.0155986E-3],"categories":[],"categories_nodes":[],"categories_segments":[],"categories_sizes":[],"default_left":[0,0,0,0,0,0,0,0,0,0,0,0,0,0,0,0,0,0,0,0,0],"id":14,"left_children":[1,3,5,7,9,11,13,-1,-1,-1,15,17,-1,-1,19,-1,-1,-1,-1,-1,-1],"loss_changes":[4.4737854E0,4.9080524E0,5.7527056E0,2.243032E0,9.7925415E0,4.9033484E0,2.5915875E0,0E0,0E0,0E0,4.336573E0,7.3977194E0,0E0,0E0,3.6676974E0,0E0,0E0,0E0,0E0,0E0,0E0],"parents":[2147483647,0,0,1,1,2,2,3,3,4,4,5,5,6,6,10,10,11,11,14,14],"right_children":[2,4,6,8,10,12,14,-1,-1,-1,16,18,-1,-1,20,-1,-1,-1,-1,-1,-1],"split_conditions":[1.4232231E1,2.3888628E1,8.230452E-3,7.733743E-1,1.923331E1,8.3540374E-1,2.3369059E1,3.3043575E-2,-8.566875E-3,-6.312903E-2,2.3245744E-2,-2.6231606E-2,2.8691063E-2,5.6369383E-2,-2.092297E-3,3.3464577E-2,-1.9791577E-2,3.3203937E-2,-2.1505136E-2,4.419006E-2,-2.0155986E-3],"split_indices":[12,11,18,5,13,21,10,0,0,0,18,19,0,0,17,0,0,0,0,0,0],"split_type":[0,0,0,0,0,0,0,0,0,0,0,0,0,0,0,0,0,0,0,0,0],"sum_hessian":[1.0081256E2,3.4208534E1,6.660402E1,1.1052948E1,2.3155588E1,4.4653393E1,2.195063E1,5.6766305E0,5.376318E0,9.163155E0,1.3992433E1,3.516501E1,9.488384E0,5.7383347E0,1.6212296E1,5.304271E0,8.688162E0,6.8279657E0,2.8337042E1,6.1578116E0,1.0054484E1],"tree_param":{"num_deleted":"0","num_feature":"24","num_nodes":"21","size_leaf_vector":"1"}},{"base_weights":[2.835939E-2,1.6556334E-1,-5.065964E-1,2.3473132E-1,-2.219279E-2,3.9642504E-3,-8.020222E-1,7.4355286E-1,1.3301049E-1,-2.0139312E-2,-5.0938785E-2,1.5496145E-2,5.051976E-2,-1.2258134E-2,2.0560076E-2],"categories":[],"categories_nodes":[],"categories_segments":[],"categories_sizes":[],"default_left":[0,0,0,0,0,0,0,0,0,0,0,0,0,0,0],"id":15,"left_children":[1,3,5,7,-1,-1,9,11,13,-1,-1,-1,-1,-1,-1],"loss_changes":[7.419916E0,3.489982E0,3.7004213E0,3.6115646E0,0E0,0E0,6.498461E-1,9.253545E-1,6.6967096E0,0E0,0E0,0E0,0E0,0E0,0E0],"parents":[2147483647,0,0,1,1,2,2,3,3,6,6,7,7,8,8],"right_children":[2,4,6,8,-1,-1,10,12,14,-1,-1,-1,-1,-1,-1],"split_conditions":[2.2561671E-2,1.3347495E0,9.032133E-1,-2.3409408E-2,-2.219279E-2,3.9642504E-3,9.399659E0,-3.552183E-2,5.3175133E1,-2.0139312E-2,-5.0938785E-2,1.5496145E-2,5.051976E-2,-1.2258134E-2,2.0560076E-2],"split_indices":[18,14,14,18,0,0,12,18,2,0,0,0,0,0,0],"split_type":[0,0,0,0,0,0,0,0,0,0,0,0,0,0,0],"sum_hessian":[9.941337E1,7.9819046E1,1.9594324E1,7.238267E1,7.436383E0,6.700058E0,1.2894265E1,1.0844444E1,6.153822E1,5.70532E0,7.1889453E0,5.0973067E0,5.7471375E0,2.5980104E1,3.5558117E1],"tree_param":{"num_deleted":"0","num_feature":"24","num_nodes":"15","size_leaf_vector":"1"}},{"base_weights":[-1.0622443E-2,4.9050114E-1,-8.23652E-2,-7.6548173E-3,5.2151572E-2,-1.697317E-1,2.6332378E-1,1.1066087E-1,-4.5356962E-1,-1.385799E-2,5.850352E-1,2.6325444E-2,-6.2129404E-3,-1.2433353E-2,-6.3086145E-2,5.067522E-2,4.401471E-3],"categories":[],"categories_nodes":[],"categories_segments":[],"categories_sizes":[],"default_left":[0,0,0,0,0,0,0,0,0,0,0,0,0,0,0,0,0],"id":16,"left_children":[1,3,5,-1,-1,7,9,11,13,-1,15,-1,-1,-1,-1,-1,-1],"loss_changes":[3.617152E0,4.7188735E0,2.7248368E0,0E0,0E0,5.8086987E0,3.3447955E0,3.701519E0,5.515788E0,0E0,2.313562E0,0E0,0E0,0E0,0E0,0E0,0E0],"parents":[2147483647,0,0,1,1,2,2,5,5,6,6,7,7,8,8,10,10],"right_children":[2,4,6,-1,-1,8,10,12,14,-1,16,-1,-1,-1,-1,-1,-1],"split_conditions":[1.0180578E1,2.7805218E1,4E0,-7.6548173E-3,5.2151572E-2,2E0,7.945105E-3,7.934294E-3,1.2598873E-2,-1.385799E-2,8.290139E-3,2.6325444E-2,-6.2129404E-3,-1.2433353E-2,-6.3086145E-2,5.067522E-2,4.401471E-3],"split_indices":[11,2,23,0,0,23,1,1,17,0,20,0,0,0,0,0,0],"split_type":[0,0,0,0,0,0,0,0,0,0,0,0,0,0,0,0,0],"sum_hessian":[9.962212E1,1.15706E1,8.805152E1,5.5951724E0,5.975427E0,7.092486E1,1.7126665E1,3.5808666E1,3.511619E1,6.326174E0,1.0800491E1,1.2632114E1,2.3176552E1,2.9155437E1,5.960755E0,5.1340213E0,5.66647E0],"tree_param":{"num_deleted":"0","num_feature":"24","num_nodes":"17","size_leaf_vector":"1"}},{"base_weights":[4.0993314E-2,1.5756017E-1,-4.2061037E-1,3.3308464E-1,-1.0022324E-1,-7.485744E-1,5.6816414E-3,7.728718E-1,3.4517456E-2,-5.9887554E-2,1.3252628E-1,-5.4656804E-2,-1.74631E-2,1.4977712E-3,5.113088E-2,2.4601372E-2,-1.0714397E-2,-4.2088884E-3,3.2560106E-2],"categories":[],"categories_nodes":[],"categories_segments":[],"categories_sizes":[],"default_left":[0,0,0,0,0,0,0,0,0,0,0,0,0,0,0,0,0,0,0],"id":17,"left_children":[1,3,5,7,9,11,-1,13,15,-1,17,-1,-1,-1,-1,-1,-1,-1,-1],"loss_changes":[5.562491E0,3.805066E0,3.7915814E0,6.424623E0,8.974987E0,1.2806325E0,0E0,3.5626335E0,3.6406693E0,0E0,3.366089E0,0E0,0E0,0E0,0E0,0E0,0E0,0E0,0E0],"parents":[2147483647,0,0,1,1,2,2,3,3,4,4,5,5,7,7,8,8,10,10],"right_children":[2,4,6,8,10,12,-1,14,16,-1,18,-1,-1,-1,-1,-1,-1,-1,-1],"split_conditions":[2.2561671E-2,3.1190966E-3,3E0,9.6589595E-1,7.8114575E-1,1.5636712E-1,5.6816414E-3,-2.7483355E-3,1.2717651E1,-5.9887554E-2,1.9611697E0,-5.4656804E-2,-1.74631E-2,1.4977712E-3,5.113088E-2,2.4601372E-2,-1.0714397E-2,-4.2088884E-3,3.2560106E-2],"split_indices":[18,17,23,14,14,4,0,16,11,0,0,0,0,0,0,0,0,0,0],"split_type":[0,0,0,0,0,0,0,0,0,0,0,0,0,0,0,0,0,0,0],"sum_hessian":[1.0163449E2,8.184246E1,1.979203E1,4.8746693E1,3.3095764E1,1.2130989E1,7.6610417E0,1.8933807E1,2.9812885E1,5.140298E0,2.7955467E1,5.4447803E0,6.686209E0,5.146101E0,1.3787706E1,1.0299061E1,1.9513826E1,2.0172327E1,7.78314E0],"tree_param":{"num_deleted":"0","num_feature":"24","num_nodes":"19","size_leaf_vector":"1"}},{"base_weights":[-1.568433E-2,-2.0157146E-1,2.4578717E-1,-4.058176E-2,-6.500614E-2,-3.0187178E-1,4.67351E-1,3.875851E-1,-2.6614583E-1,2.4817724E-2,-5.895402E-2,8.493099E-1,1.2770203E-1,4.2186253E-2,-5.0265235E-3,-2.5302384E-2,1.8356781E-2,8.890223E-3,6.43756E-2,2.4816172E-2,-2.014094E-2],"categories":[],"categories_nodes":[],"categories_segments":[],"categories_sizes":[],"default_left":[0,0,0,0,0,0,0,0,0,0,0,0,0,0,0,0,0,0,0,0,0],"id":18,"left_children":[1,3,5,-1,7,9,11,13,15,-1,-1,17,19,-1,-1,-1,-1,-1,-1,-1,-1],"loss_changes":[4.7829247E0,4.670625E0,5.0999775E0,0E0,4.497512E0,9.202766E0,3.6237097E0,3.531688E0,5.404279E0,0E0,0E0,3.6204367E0,3.5224228E0,0E0,0E0,0E0,0E0,0E0,0E0,0E0,0E0],"parents":[2147483647,0,0,1,1,2,2,4,4,5,5,6,6,7,7,8,8,11,11,12,12],"right_children":[2,4,6,-1,8,10,12,14,16,-1,-1,18,20,-1,-1,-1,-1,-1,-1,-1,-1],"split_conditions":[3E0,2.90463E-1,4.473228E1,-4.058176E-2,5.6026363E-1,3.6793854E1,9.669902E-1,9.573214E-3,2.4880075E1,2.4817724E-2,-5.895402E-2,8.2918566E-1,1.738105E-2,4.2186253E-2,-5.0265235E-3,-2.5302384E-2,1.8356781E-2,8.890223E-3,6.43756E-2,2.4816172E-2,-2.014094E-2],"split_indices":[23,21,2,0,21,2,14,1,12,0,0,14,18,0,0,0,0,0,0,0,0],"split_type":[0,0,0,0,0,0,0,0,0,0,0,0,0,0,0,0,0,0,0,0,0],"sum_hessian":[9.647726E1,5.6746315E1,3.973094E1,9.341331E0,4.7404984E1,1.12095375E1,2.8521404E1,1.4147378E1,3.3257607E1,6.0366163E0,5.172921E0,1.2579692E1,1.5941713E1,7.042528E0,7.10485E0,2.4380516E1,8.8770895E0,5.612698E0,6.966994E0,9.555338E0,6.386375E0],"tree_param":{"num_deleted":"0","num_feature":"24","num_nodes":"21","size_leaf_vector":"1"}},{"base_weights":[-3.7470303E-2,5.668769E-1,-1.22529656E-1,4.56467E-3,4.8138946E-2,2.6371006E-2,-4.2721158E-1,3.5789487E-1,-1.5058468E-1,-3.8776272E-3,-8.6866087E-1,4.373668E-2,-3.6581946E-3,-1.681641E-2,2.5100986E-2,3.4727424E-2,-2.4864806E-2,-6.499392E-2,-4.4402415E-3],"categories":[],"categories_nodes":[],"categories_segments":[],"categories_sizes":[],"default_left":[0,0,0,0,0,0,0,0,0,0,0,0,0,0,0,0,0,0,0],"id":19,"left_children":[1,3,5,-1,-1,7,9,11,13,15,17,-1,-1,-1,-1,-1,-1,-1,-1],"loss_changes":[5.0608554E0,2.0885959E0,3.9912171E0,0E0,0E0,3.539165E0,5.289176E0,4.832719E0,4.8811135E0,5.77589E0,4.4443226E0,0E0,0E0,0E0,0E0,0E0,0E0,0E0,0E0],"parents":[2147483647,0,0,1,1,2,2,5,5,6,6,7,7,8,8,9,9,10,10],"right_children":[2,4,6,-1,-1,8,10,12,14,16,18,-1,-1,-1,-1,-1,-1,-1,-1],"split_conditions":[1.0180578E1,-2.4614377E-1,3.7201786E1,4.56467E-3,4.8138946E-2,9.496274E-1,6.159795E-1,1.0972065E-1,4.6803832E-2,1.9269726E1,7.3689964E1,4.373668E-2,-3.6581946E-3,-1.681641E-2,2.5100986E-2,3.4727424E-2,-2.4864806E-2,-6.499392E-2,-4.4402415E-3],"split_indices":[11,4,10,0,0,15,7,3,6,12,2,0,0,0,0,0,0,0,0],"split_type":[0,0,0,0,0,0,0,0,0,0,0,0,0,0,0,0,0,0,0],"sum_hessian":[9.6963104E1,1.111942E1,8.584369E1,5.7251625E0,5.3942575E0,5.805631E1,2.7787376E1,2.0044964E1,3.8011345E1,1.4815324E1,1.2972053E1,8.752933E0,1.1292032E1,3.0086132E1,7.925212E0,5.880821E0,8.934504E0,7.8412337E0,5.130819E0],"tree_param":{"num_deleted":"0","num_feature":"24","num_nodes":"19","size_leaf_vector":"1"}},{"base_weights":[-7.1964976E-3,7.527555E-2,-4.859663E-1,-4.9747434E-1,1.6021256E-1,1.9405993E-3,-4.6203952E-2,-4.14723E-2,-3.1992593E-3,5.042054E-2,7.039574E-2,1.5496008E-2,-1.3311858E-2],"categories":[],"categories_nodes":[],"categories_segments":[],"categories_sizes":[],"default_left":[0,0,0,0,0,0,0,0,0,0,0,0,0],"id":20,"left_children":[1,3,5,7,9,-1,-1,-1,-1,-1,11,-1,-1],"loss_changes":[4.0515485E0,4.256021E0,3.5963707E0,1.4791143E0,5.631843E0,0E0,0E0,0E0,0E0,0E0,5.7433558E0,0E0,0E0],"parents":[2147483647,0,0,1,1,2,2,3,3,4,4,10,10],"right_children":[2,4,6,8,10,-1,-1,-1,-1,-1,12,-1,-1],"split_conditions":[5.9312177E-3,-7.070137E-3,2.1332186E1,-1.0653035E-2,-2.0581055E1,1.9405993E-3,-4.6203952E-2,-4.14723E-2,-3.1992593E-3,5.042054E-2,1.7768435E1,1.5496008E-2,-1.3311858E-2],"split_indices":[16,16,11,17,13,0,0,0,0,0,12,0,0],"split_type":[0,0,0,0,0,0,0,0,0,0,0,0,0],"sum_hessian":[9.9642914E1,8.554157E1,1.4101338E1,1.0267968E1,7.5273605E1,6.726905E0,7.374433E0,5.1669474E0,5.101021E0,6.121695E0,6.915191E1,4.062349E1,2.8528421E1],"tree_param":{"num_deleted":"0","num_feature":"24","num_nodes":"13","size_leaf_vector":"1"}},{"base_weights":[2.1826291E-2,1.075612E-1,-4.4368755E-2,1.762444E-1,-3.1269163E-2,4.5822352E-2,8.214623E-1,1.1242288E-2,-1.7797612E-2,1.1262794E-2,5.779318E-2],"categories":[],"categories_nodes":[],"categories_segments":[],"categories_sizes":[],"default_left":[0,0,0,0,0,0,0,0,0,0,0],"id":21,"left_children":[1,3,-1,5,-1,7,9,-1,-1,-1,-1],"loss_changes":[7.37052E0,4.454731E0,0E0,6.6605315E0,0E0,4.976566E0,2.2670135E0,0E0,0E0,0E0,0E0],"parents":[2147483647,0,0,1,1,3,3,5,5,6,6],"right_children":[2,4,-1,6,-1,8,10,-1,-1,-1,-1],"split_conditions":[3.3993617E-2,6.1207883E-2,-4.4368755E-2,4.6754774E-2,-3.1269163E-2,1.8570452E0,1.9502101E0,1.1242288E-2,-1.7797612E-2,1.1262794E-2,5.779318E-2],"split_indices":[18,6,0,6,0,0,0,0,0,0,0],"split_type":[0,0,0,0,0,0,0,0,0,0,0],"sum_hessian":[9.333004E1,8.61939E1,7.136138E0,7.9628044E1,6.5658565E0,6.725863E1,1.2369414E1,4.700384E1,2.025479E1,5.153628E0,7.215786E0],"tree_param":{"num_deleted":"0","num_feature":"24","num_nodes":"11","size_leaf_vector":"1"}},{"base_weights":[7.661764E-2,4.6784334E-2,1.0250066E-2,-2.7397707E-2,7.8035176E-2,-3.61593E-1,1.858304E-1,1.9853977E-2,-3.854967E-2,5.20914E-2,4.5723035E-3],"categories":[],"categories_nodes":[],"categories_segments":[],"categories_sizes":[],"default_left":[0,0,0,0,0,0,0,0,0,0,0],"id":22,"left_children":[1,-1,3,-1,5,7,9,-1,-1,-1,-1],"loss_changes":[5.276866E0,0E0,3.3531764E0,0E0,3.8482976E0,5.294834E0,5.060471E0,0E0,0E0,0E0,0E0],"parents":[2147483647,0,0,2,2,4,4,5,5,6,6],"right_children":[2,-1,4,-1,6,8,10,-1,-1,-1,-1],"split_conditions":[1.8324824E-2,4.6784334E-2,2.200308E-2,-2.7397707E-2,-9.975588E-3,-2.3796033E-2,3.711908E1,1.9853977E-2,-3.854967E-2,5.20914E-2,4.5723035E-3],"split_indices":[6,0,6,0,17,17,2,0,0,0,0],"split_type":[0,0,0,0,0,0,0,0,0,0,0],"sum_hessian":[9.338065E1,5.649365E0,8.773129E1,8.573159E0,7.9158134E1,1.4941032E1,6.42171E1,5.1616507E0,9.779382E0,5.2753987E0,5.89417E1],"tree_param":{"num_deleted":"0","num_feature":"24","num_nodes":"11","size_leaf_vector":"1"}},{"base_weights":[-6.78715E-2,4.824882E-2,-4.9458057E-1,-1.1636038E-1,3.130238E-1,-5.833816E-2,-2.1206471E-1,-4.196558E-2,-2.864762E-4,5.255721E-1,-2.713324E-2,2.1834105E-2,-2.9628947E-2,2.2600764E-2,-9.6355295E-3,3.5184246E-2,-2.9662342E-3],"categories":[],"categories_nodes":[],"categories_segments":[],"categories_sizes":[],"default_left":[0,0,0,0,0,0,0,0,0,0,0,0,0,0,0,0,0],"id":23,"left_children":[1,3,5,7,9,-1,11,-1,13,15,-1,-1,-1,-1,-1,-1,-1],"loss_changes":[5.075279E0,3.549701E0,3.7713666E0,4.1052337E0,5.9640265E0,0E0,4.406284E0,0E0,3.9025943E0,2.7752347E0,0E0,0E0,0E0,0E0,0E0,0E0,0E0],"parents":[2147483647,0,0,1,1,2,2,3,3,4,4,6,6,8,8,9,9],"right_children":[2,4,6,8,10,-1,12,-1,14,16,-1,-1,-1,-1,-1,-1,-1],"split_conditions":[2.2561671E-2,8.230452E-3,3.739171E-2,5.4022265E-3,3.0258837E-1,-5.833816E-2,1.58956E1,-4.196558E-2,2.8297258E1,6.36133E1,-2.713324E-2,2.1834105E-2,-2.9628947E-2,2.2600764E-2,-9.6355295E-3,3.5184246E-2,-2.9662342E-3],"split_indices":[18,18,6,20,3,0,13,0,10,2,0,0,0,0,0,0,0],"split_type":[0,0,0,0,0,0,0,0,0,0,0,0,0,0,0,0,0],"sum_hessian":[1.000459E2,7.915738E1,2.0888517E1,4.892427E1,3.0233107E1,5.150412E0,1.5738106E1,5.7871847E0,4.3137085E1,2.4620232E1,5.6128736E0,5.6665955E0,1.007151E1,1.23169E1,3.0820187E1,1.8848398E1,5.771835E0],"tree_param":{"num_deleted":"0","num_feature":"24","num_nodes":"17","size_leaf_vector":"1"}},{"base_weights":[-2.0883251E-2,1.3483877E-1,-2.664876E-1,-3.5111573E-2,5.597033E-1,2.6395718E-2,-4.2609847E-1,4.1516626E-1,-1.9123633E-1,8.457266E-1,-5.5859033E-3,-5.269722E-2,-1.3969164E-1,-5.4325094E-4,3.7550986E-2,-2.9223341E-2,6.3320794E-3,1.9951954E-2,5.6785114E-2,1.013356E-2,-2.6024813E-2],"categories":[],"categories_nodes":[],"categories_segments":[],"categories_sizes":[],"default_left":[0,0,0,0,0,0,0,0,0,0,0,0,0,0,0,0,0,0,0,0,0],"id":24,"left_children":[1,3,5,7,9,-1,11,13,15,17,-1,-1,19,-1,-1,-1,-1,-1,-1,-1,-1],"loss_changes":[3.9089391E0,4.5616484E0,5.254176E0,3.2334561E0,3.623166E0,0E0,5.8028984E0,1.7682354E0,4.4198856E0,1.0562868E0,0E0,0E0,3.3238046E0,0E0,0E0,0E0,0E0,0E0,0E0,0E0,0E0],"parents":[2147483647,0,0,1,1,2,2,3,3,4,4,6,6,7,7,8,8,9,9,12,12],"right_children":[2,4,6,8,10,-1,12,14,16,18,-1,-1,20,-1,-1,-1,-1,-1,-1,-1,-1],"split_conditions":[2.3480167E1,6.933207E-1,6.516077E-3,7.84064E-3,4.3471074E-3,2.6395718E-2,3.242255E-2,7.3623527E-3,1.0280623E-2,7.9099303E-1,-5.5859033E-3,-5.269722E-2,1.7383529E0,-5.4325094E-4,3.7550986E-2,-2.9223341E-2,6.3320794E-3,1.9951954E-2,5.6785114E-2,1.013356E-2,-2.6024813E-2],"split_indices":[11,5,1,1,16,0,6,1,1,5,0,0,8,0,0,0,0,0,0,0,0],"split_type":[0,0,0,0,0,0,0,0,0,0,0,0,0,0,0,0,0,0,0,0,0],"sum_hessian":[9.9921425E1,6.1176895E1,3.8744526E1,4.418458E1,1.6992315E1,5.9912653E0,3.275326E1,1.0783703E1,3.340088E1,1.1838489E1,5.153826E0,9.31167E0,2.3441591E1,5.048969E0,5.734734E0,1.4696511E1,1.8704367E1,5.7310963E0,6.1073923E0,1.2451887E1,1.0989703E1],"tree_param":{"num_deleted":"0","num_feature":"24","num_nodes":"21","size_leaf_vector":"1"}},{"base_weights":[4.4360965E-2,-1.6181323E-1,2.4281368E-1,-2.571887E-1,2.544925E-2,7.6109517E-1,2.1239202E-2,-3.7874635E-2,-9.9717446E-2,5.33244E-2,5.810018E-3,5.5037326E-1,-2.1278782E-1,-1.4590211E-2,2.1719618E-2,5.5287182E-2,-5.487988E-4,-3.0358637E-2,1.3936606E-2],"categories":[],"categories_nodes":[],"categories_segments":[],"categories_sizes":[],"default_left":[0,0,0,0,0,0,0,0,0,0,0,0,0,0,0,0,0,0,0],"id":25,"left_children":[1,3,5,7,-1,9,11,-1,13,-1,-1,15,17,-1,-1,-1,-1,-1,-1],"loss_changes":[4.105808E0,3.2407126E0,5.783946E0,3.2812884E0,0E0,2.7447186E0,4.7353725E0,0E0,3.6560438E0,0E0,0E0,3.78876E0,5.2923765E0,0E0,0E0,0E0,0E0,0E0,0E0],"parents":[2147483647,0,0,1,1,2,2,3,3,5,5,6,6,8,8,11,11,12,12],"right_children":[2,4,6,8,-1,10,12,-1,14,-1,-1,16,18,-1,-1,-1,-1,-1,-1],"split_conditions":[8.230452E-3,3.7323032E1,2.1945816E1,-2.0326918E-1,2.544925E-2,1.8356353E-2,5.8080265E-3,-3.7874635E-2,3.24168E-3,5.33244E-2,5.810018E-3,9.032133E-1,1.041406E0,-1.4590211E-2,2.1719618E-2,5.5287182E-2,-5.487988E-4,-3.0358637E-2,1.3936606E-2],"split_indices":[18,12,11,4,0,18,20,0,16,0,0,14,14,0,0,0,0,0,0],"split_type":[0,0,0,0,0,0,0,0,0,0,0,0,0,0,0,0,0,0,0],"sum_hessian":[9.8189415E1,4.8001247E1,5.018817E1,4.269627E1,5.3049755E0,1.4166132E1,3.602204E1,9.157254E0,3.3539017E1,9.064699E0,5.101433E0,1.0762845E1,2.5259193E1,2.5138954E1,8.400062E0,5.012288E0,5.7505574E0,1.39967E1,1.1262494E1],"tree_param":{"num_deleted":"0","num_feature":"24","num_nodes":"19","size_leaf_vector":"1"}},{"base_weights":[-1.5458387E-2,2.1010141E-1,-1.982333E-1,5.338218E-1,-1.6899851E-1,-3.7101588E-1,1.9255862E-1,7.5993216E-1,-6.321393E-3,-4.875749E-2,1.5717399E-1,-2.9716007E-2,-6.4483327E-1,-1.565092E-2,4.328214E-1,4.924749E-2,1.4613527E-2,-1.616503E-2,4.8505086E-2,-1.5494856E-2,2.8047536E-2,-9.822974E-3,-4.7230147E-2,4.2707942E-2,-6.1765867E-3],"categories":[],"categories_nodes":[],"categories_segments":[],"categories_sizes":[],"default_left":[0,0,0,0,0,0,0,0,0,0,0,0,0,0,0,0,0,0,0,0,0,0,0,0,0],"id":26,"left_children":[1,3,5,7,9,11,13,15,-1,-1,17,19,21,-1,23,-1,-1,-1,-1,-1,-1,-1,-1,-1,-1],"loss_changes":[4.1426334E0,5.6220946E0,3.8518689E0,3.8224626E0,5.820687E0,3.5729318E0,2.2810888E0,1.5346403E0,0E0,0E0,6.587315E0,3.233919E0,2.5923338E0,0E0,3.0994337E0,0E0,0E0,0E0,0E0,0E0,0E0,0E0,0E0,0E0,0E0],"parents":[2147483647,0,0,1,1,2,2,3,3,4,4,5,5,6,6,7,7,10,10,11,11,12,12,14,14],"right_children":[2,4,6,8,10,12,14,16,-1,-1,18,20,22,-1,24,-1,-1,-1,-1,-1,-1,-1,-1,-1,-1],"split_conditions":[9.669902E-1,4.2844946E-3,1.1303202E-2,9.16269E-3,8.421221E-1,6.88105E-3,-8.26938E-3,1.4558543E-3,-6.321393E-3,-4.875749E-2,3E0,7.796167E-1,7.721913E-1,-1.565092E-2,1.0818755E-1,4.924749E-2,1.4613527E-2,-1.616503E-2,4.8505086E-2,-1.5494856E-2,2.8047536E-2,-9.822974E-3,-4.7230147E-2,4.2707942E-2,-6.1765867E-3],"split_indices":[14,17,20,20,15,20,16,16,0,0,23,21,8,0,8,0,0,0,0,0,0,0,0,0,0],"split_type":[0,0,0,0,0,0,0,0,0,0,0,0,0,0,0,0,0,0,0,0,0,0,0,0,0],"sum_hessian":[9.850284E1,4.377909E1,5.472375E1,2.3536495E1,2.0242594E1,3.8158886E1,1.6564863E1,1.7532696E1,6.003799E0,5.3461742E0,1.48964205E1,1.7642326E1,2.051656E1,5.104534E0,1.1460329E1,1.094602E1,6.5866756E0,9.663922E0,5.232497E0,1.2403435E1,5.2388916E0,9.017616E0,1.1498943E1,6.3191614E0,5.1411676E0],"tree_param":{"num_deleted":"0","num_feature":"24","num_nodes":"25","size_leaf_vector":"1"}},{"base_weights":[6.6703215E-2,-3.890906E-2,4.5570818E-1,1.7221272E-1,-2.984844E-1,8.3131427E-1,-1.6262963E-2,5.3659725E-1,-5.5354398E-2,-5.950716E-1,6.515263E-2,1.0370714E-2,5.690974E-2,6.17191E-3,4.997364E-2,-2.3327334E-2,1.4501959E-2,-4.4639915E-2,8.266746E-3,4.390795E-2,-2.6420614E-2],"categories":[],"categories_nodes":[],"categories_segments":[],"categories_sizes":[],"default_left":[0,0,0,0,0,0,0,0,0,0,0,0,0,0,0,0,0,0,0,0,0],"id":27,"left_children":[1,3,5,7,9,11,-1,13,15,17,19,-1,-1,-1,-1,-1,-1,-1,-1,-1,-1],"loss_changes":[4.117717E0,4.3609695E0,6.5904603E0,3.6983306E0,3.947064E0,2.4629374E0,0E0,3.0245194E0,4.074807E0,4.734352E0,8.610135E0,0E0,0E0,0E0,0E0,0E0,0E0,0E0,0E0,0E0,0E0],"parents":[2147483647,0,0,1,1,2,2,3,3,4,4,5,5,7,7,8,8,9,9,10,10],"right_children":[2,4,6,8,10,12,-1,14,16,18,20,-1,-1,-1,-1,-1,-1,-1,-1,-1,-1],"split_conditions":[4E0,3.524036E-2,3.9450768E1,7.864324E-3,1.3742973E-2,8.101472E-3,-1.6262963E-2,-9.382613E-2,3.2046726E1,1.0262173E-2,1.8383697E-2,1.0370714E-2,5.690974E-2,6.17191E-3,4.997364E-2,-2.3327334E-2,1.4501959E-2,-4.4639915E-2,8.266746E-3,4.390795E-2,-2.6420614E-2],"split_indices":[23,4,10,1,19,1,0,4,10,1,19,0,0,0,0,0,0,0,0,0,0],"split_type":[0,0,0,0,0,0,0,0,0,0,0,0,0,0,0,0,0,0,0,0,0],"sum_hessian":[9.7781395E1,7.740843E1,2.0372965E1,4.266158E1,3.4746853E1,1.3799621E1,6.5733447E0,1.6047497E1,2.6614082E1,1.8938728E1,1.5808123E1,5.2097454E0,8.589875E0,9.262542E0,6.784955E0,1.2121798E1,1.4492285E1,1.357933E1,5.359398E0,6.539699E0,9.268424E0],"tree_param":{"num_deleted":"0","num_feature":"24","num_nodes":"21","size_leaf_vector":"1"}},{"base_weights":[4.3113884E-2,2.4704149E-2,-7.6154824E-3,-1.16977714E-1,3.2239363E-1,-2.2861404E-2,-5.291307E-2,5.9348017E-1,-1.8001787E-2,-1.1001295E-2,1.8216334E-2,6.172395E-3,6.048995E-2],"categories":[],"categories_nodes":[],"categories_segments":[],"categories_sizes":[],"default_left":[0,0,0,0,0,0,0,0,0,0,0,0,0],"id":28,"left_children":[1,-1,3,5,7,9,-1,11,-1,-1,-1,-1,-1],"loss_changes":[2.3216963E0,0E0,3.2634792E0,5.938025E0,4.3860493E0,4.9065623E0,0E0,4.5069933E0,0E0,0E0,0E0,0E0,0E0],"parents":[2147483647,0,0,2,2,3,3,4,4,5,5,7,7],"right_children":[2,-1,4,6,8,10,-1,12,-1,-1,-1,-1,-1],"split_conditions":[4.5706406E-3,2.4704149E-2,4.739049E-2,4.396541E-2,1.1532303E0,2.6347053E-3,-5.291307E-2,9.507769E-1,-1.8001787E-2,-1.1001295E-2,1.8216334E-2,6.172395E-3,6.048995E-2],"split_indices":[20,0,6,6,14,16,0,14,0,0,0,0,0],"split_type":[0,0,0,0,0,0,0,0,0,0,0,0,0],"sum_hessian":[9.819349E1,9.244477E0,8.894901E1,6.752151E1,2.1427504E1,6.2411667E1,5.1098413E0,1.5533781E1,5.8937235E0,4.181074E1,2.0600924E1,9.585785E0,5.947996E0],"tree_param":{"num_deleted":"0","num_feature":"24","num_nodes":"13","size_leaf_vector":"1"}},{"base_weights":[3.8684454E-2,3.913485E-2,-1.6556213E-2,5.194051E-2,-4.906527E-1,-1.211073E-1,3.4770435E-1,-0E0,-4.8370194E-2,6.434319E-3,-2.9110933E-2,2.4764482E-2,-1.5843814E-2],"categories":[],"categories_nodes":[],"categories_segments":[],"categories_sizes":[],"default_left":[0,0,0,0,0,0,0,0,0,0,0,0,0],"id":29,"left_children":[1,-1,3,5,7,9,11,-1,-1,-1,-1,-1,-1],"loss_changes":[4.1271877E0,0E0,3.0668328E0,4.2294583E0,2.790627E0,6.0941014E0,3.1670263E0,0E0,0E0,0E0,0E0,0E0,0E0],"parents":[2147483647,0,0,2,2,3,3,4,4,5,5,6,6],"right_children":[2,-1,4,6,8,10,12,-1,-1,-1,-1,-1,-1],"split_conditions":[1.8324824E-2,3.913485E-2,3.138038E-2,3.9010547E-2,3.5870743E1,1.8570452E0,6.178381E-2,-0E0,-4.8370194E-2,6.434319E-3,-2.9110933E-2,2.4764482E-2,-1.5843814E-2],"split_indices":[6,0,18,6,10,0,6,0,0,0,0,0,0],"split_type":[0,0,0,0,0,0,0,0,0,0,0,0,0],"sum_hessian":[9.7239426E1,5.935684E0,9.130374E1,8.037133E1,1.0932408E1,5.0863903E1,2.950743E1,5.881103E0,5.051306E0,3.3318584E1,1.754532E1,2.4476965E1,5.030464E0],"tree_param":{"num_deleted":"0","num_feature":"24","num_nodes":"13","size_leaf_vector":"1"}},{"base_weights":[-8.087826E-3,-3.4234583E-2,7.090341E-2,4.080735E-2,-1.1957993E-2,2.4361844E-1,-1.3117346E-1,2.9915288E-2,-7.436022E-3,-1.6451469E-2,1.5166412E-2],"categories":[],"categories_nodes":[],"categories_segments":[],"categories_sizes":[],"default_left":[0,0,0,0,0,0,0,0,0,0,0],"id":30,"left_children":[1,-1,3,-1,5,7,9,-1,-1,-1,-1],"loss_changes":[5.271461E0,0E0,5.478211E0,0E0,2.4395282E0,3.65949E0,4.835129E0,0E0,0E0,0E0,0E0],"parents":[2147483647,0,0,2,2,4,4,5,5,6,6],"right_children":[2,-1,4,-1,6,8,10,-1,-1,-1,-1],"split_conditions":[-7.402876E-3,-3.4234583E-2,1.007807E1,4.080735E-2,6.1790994E-3,6.077397E-1,1.0711104E0,2.9915288E-2,-7.436022E-3,-1.6451469E-2,1.5166412E-2],"split_indices":[16,0,11,0,20,21,15,0,0,0,0],"split_type":[0,0,0,0,0,0,0,0,0,0,0],"sum_hessian":[9.557518E1,9.322323E0,8.625285E1,7.865847E0,7.838701E1,2.4334946E1,5.4052063E1,1.26388855E1,1.1696061E1,3.7464855E1,1.6587206E1],"tree_param":{"num_deleted":"0","num_feature":"24","num_nodes":"11","size_leaf_vector":"1"}},{"base_weights":[-2.6827494E-2,1.5255758E-1,-2.3647992E-1,1.19910985E-2,4.892967E-2,-4.8370365E-2,-8.6011276E-2,2.7224213E-1,-2.223245E-1,-2.9841146E-1,2.4989929E-2,-7.1593984E-3,2.6462123E-2,5.0601833E-3,-4.0482197E-2,-4.4712396E-3,-5.126356E-2],"categories":[],"categories_nodes":[],"categories_segments":[],"categories_sizes":[],"default_left":[0,0,0,0,0,0,0,0,0,0,0,0,0,0,0,0,0],"id":31,"left_children":[1,3,5,7,-1,-1,9,11,13,15,-1,-1,-1,-1,-1,-1,-1],"loss_changes":[3.7048264E0,6.020068E0,4.8185897E0,2.8851657E0,0E0,0E0,4.9773793E0,2.5228555E0,4.8422937E0,4.2550244E0,0E0,0E0,0E0,0E0,0E0,0E0,0E0],"parents":[2147483647,0,0,1,1,2,2,3,3,6,6,7,7,8,8,9,9],"right_children":[2,4,6,8,-1,-1,10,12,14,16,-1,-1,-1,-1,-1,-1,-1],"split_conditions":[3.1190966E-3,1.6106765E-3,7.7066046E-1,1.6649935E1,4.892967E-2,-4.8370365E-2,1.9611697E0,-1.1711903E-2,1.821241E1,1.850068E0,2.4989929E-2,-7.1593984E-3,2.6462123E-2,5.0601833E-3,-4.0482197E-2,-4.4712396E-3,-5.126356E-2],"split_indices":[17,17,14,11,0,0,0,17,12,0,0,0,0,0,0,0,0],"split_type":[0,0,0,0,0,0,0,0,0,0,0,0,0,0,0,0,0],"sum_hessian":[9.632788E1,5.1800842E1,4.4527042E1,4.5238228E1,6.5626116E0,6.561166E0,3.7965878E1,2.1558462E1,2.3679766E1,2.8348658E1,9.617219E0,8.260102E0,1.3298361E1,1.5692748E1,7.9870176E0,2.299713E1,5.3515267E0],"tree_param":{"num_deleted":"0","num_feature":"24","num_nodes":"17","size_leaf_vector":"1"}},{"base_weights":[2.2852637E-2,1.6874838E-1,-2.0199446E-1,4.612879E-2,8.171505E-2,1.1284347E-1,-5.353728E-1,3.105453E-1,-1.9289549E-1,-3.0436304E-1,4.6969607E-2,-4.8430916E-2,-2.4021238E-1,2.7737824E-2,-1.919208E-2,-2.1408668E-2,2.8570533E-2,-3.2199647E-2,3.5885876E-4,5.7445318E-3,-3.1784724E-2],"categories":[],"categories_nodes":[],"categories_segments":[],"categories_sizes":[],"default_left":[0,0,0,0,0,0,0,0,0,0,0,0,0,0,0,0,0,0,0,0,0],"id":32,"left_children":[1,3,5,-1,7,9,11,13,15,17,-1,-1,19,-1,-1,-1,-1,-1,-1,-1,-1],"loss_changes":[3.265232E0,3.800869E0,4.1946898E0,0E0,3.562706E0,7.49537E0,2.1098676E0,5.4674664E0,4.846397E0,1.5968279E0,0E0,0E0,1.9402673E0,0E0,0E0,0E0,0E0,0E0,0E0,0E0,0E0],"parents":[2147483647,0,0,1,1,2,2,4,4,5,5,6,6,7,7,8,8,9,9,12,12],"right_children":[2,4,6,-1,8,10,12,14,16,18,-1,-1,20,-1,-1,-1,-1,-1,-1,-1,-1],"split_conditions":[3.6429096E1,1.08716135E1,1.026103E0,4.612879E-2,1.7881838E1,9.0791005E-1,4.4704483E1,1.2598873E-2,4.132359E-2,4.7323976E-2,4.6969607E-2,-4.8430916E-2,1.5252299E0,2.7737824E-2,-1.919208E-2,-2.1408668E-2,2.8570533E-2,-3.2199647E-2,3.5885876E-4,5.7445318E-3,-3.1784724E-2],"split_indices":[10,11,14,0,12,14,10,17,6,6,0,0,0,0,0,0,0,0,0,0,0],"split_type":[0,0,0,0,0,0,0,0,0,0,0,0,0,0,0,0,0,0,0,0,0],"sum_hessian":[9.7599174E1,5.9612724E1,3.798645E1,5.057616E0,5.4555107E1,1.9722422E1,1.8264029E1,2.9885286E1,2.466982E1,1.34461565E1,6.276265E0,6.3389935E0,1.1925035E1,2.2364824E1,7.520462E0,1.9299456E1,5.3703647E0,6.0760865E0,7.37007E0,6.5238833E0,5.4011526E0],"tree_param":{"num_deleted":"0","num_feature":"24","num_nodes":"21","size_leaf_vector":"1"}},{"base_weights":[4.6412483E-2,2.6973403E-1,-7.8274764E-2,7.916848E-1,-6.885741E-2,2.2014009E-2,-2.9123684E-2,5.4157223E-3,5.8130678E-2,4.420053E-1,-6.000228E-1,-2.176593E-1,4.3362004E-1,-0E0,4.208688E-2,-4.4286817E-2,-9.6096685E-3,1.7837462E-3,-5.1287193E-2,4.237578E-2,4.75263E-3],"categories":[],"categories_nodes":[],"categories_segments":[],"categories_sizes":[],"default_left":[0,0,0,0,0,0,0,0,0,0,0,0,0,0,0,0,0,0,0,0,0],"id":33,"left_children":[1,3,5,7,9,11,-1,-1,-1,13,15,17,19,-1,-1,-1,-1,-1,-1,-1,-1],"loss_changes":[2.6922007E0,6.2477627E0,3.1838682E0,3.2510567E0,6.199529E0,5.263685E0,0E0,0E0,0E0,2.0942001E0,1.0285678E0,6.9916134E0,2.584453E0,0E0,0E0,0E0,0E0,0E0,0E0,0E0,0E0],"parents":[2147483647,0,0,1,1,2,2,3,3,4,4,5,5,9,9,10,10,11,11,12,12],"right_children":[2,4,6,8,10,12,-1,-1,-1,14,16,18,20,-1,-1,-1,-1,-1,-1,-1,-1],"split_conditions":[9.496274E-1,3.4881994E-2,1.3261122E0,2.3415267E-2,1.631018E-1,8.230452E-3,-2.9123684E-2,5.4157223E-3,5.8130678E-2,8.5870683E-1,1.202907E-3,4.840901E-4,1.3819932E0,-0E0,4.208688E-2,-4.4286817E-2,-9.6096685E-3,1.7837462E-3,-5.1287193E-2,4.237578E-2,4.75263E-3],"split_indices":[15,6,7,6,4,18,0,0,0,15,16,18,8,0,0,0,0,0,0,0,0],"split_type":[0,0,0,0,0,0,0,0,0,0,0,0,0,0,0,0,0,0,0,0,0],"sum_hessian":[9.423822E1,3.3634945E1,6.060327E1,1.2823789E1,2.0811157E1,5.1181007E1,9.422264E0,5.0611396E0,7.762649E0,1.0597917E1,1.0213241E1,3.2490448E1,1.869056E1,5.4441633E0,5.153753E0,5.1725035E0,5.0407376E0,2.536929E1,7.1211596E0,7.6004624E0,1.1090096E1],"tree_param":{"num_deleted":"0","num_feature":"24","num_nodes":"21","size_leaf_vector":"1"}},{"base_weights":[-5.358668E-3,7.858606E-2,-4.6007758E-1,9.927934E-4,3.565944E-2,1.6613061E-3,-4.275423E-2,-2.0611945E-1,2.4591E-1,-2.1829564E-2,1.8734392E-2,4.857878E-2,-3.1382572E-3],"categories":[],"categories_nodes":[],"categories_segments":[],"categories_sizes":[],"default_left":[0,0,0,0,0,0,0,0,0,0,0,0,0],"id":34,"left_children":[1,3,5,7,-1,-1,-1,9,11,-1,-1,-1,-1],"loss_changes":[3.6523447E0,3.8571582E0,3.0216498E0,3.719326E0,0E0,0E0,0E0,5.45274E0,7.7181215E0,0E0,0E0,0E0,0E0],"parents":[2147483647,0,0,1,1,2,2,3,3,7,7,8,8],"right_children":[2,4,6,8,-1,-1,-1,10,12,-1,-1,-1,-1],"split_conditions":[9.1392976E-1,8.5866666E-1,7.4012935E-2,8.230452E-3,3.565944E-2,1.6613061E-3,-4.275423E-2,4.7323976E-2,1.5374318E-2,-2.1829564E-2,1.8734392E-2,4.857878E-2,-3.1382572E-3],"split_indices":[21,21,3,18,0,0,0,6,18,0,0,0,0],"split_type":[0,0,0,0,0,0,0,0,0,0,0,0,0],"sum_hessian":[9.27365E1,7.879718E1,1.3939324E1,7.124514E1,7.552043E0,6.493124E0,7.4462004E0,3.8466427E1,3.277871E1,2.7839737E1,1.062669E1,9.237839E0,2.3540873E1],"tree_param":{"num_deleted":"0","num_feature":"24","num_nodes":"13","size_leaf_vector":"1"}},{"base_weights":[-1.0899953E-3,1.4092861E-1,-2.294605E-1,1.4061371E-2,6.163727E-1,-0E0,-6.046708E-1,-2.729547E-2,1.6385302E-1,4.6279687E-2,1.1156579E-2,-4.499703E-1,3.7217978E-1,-6.319038E-2,-6.02351E-4,2.2668762E-2,-3.3105568E-3,-3.7087712E-2,-3.8430707E-3,4.966366E-2,-5.6011206E-3],"categories":[],"categories_nodes":[],"categories_segments":[],"categories_sizes":[],"default_left":[0,0,0,0,0,0,0,0,0,0,0,0,0,0,0,0,0,0,0,0,0],"id":35,"left_children":[1,3,5,7,9,11,13,-1,15,-1,-1,17,19,-1,-1,-1,-1,-1,-1,-1,-1],"loss_changes":[3.1604116E0,3.526147E0,3.2865596E0,4.1003633E0,1.1833177E0,4.2020154E0,5.4793406E0,0E0,2.666179E0,0E0,0E0,1.0876184E0,4.369978E0,0E0,0E0,0E0,0E0,0E0,0E0,0E0,0E0],"parents":[2147483647,0,0,1,1,2,2,3,3,4,4,5,5,6,6,8,8,11,11,12,12],"right_children":[2,4,6,8,10,12,14,-1,16,-1,-1,18,20,-1,-1,-1,-1,-1,-1,-1,-1],"split_conditions":[3.6429096E1,4E0,6.159795E-1,-7.689513E-3,1.0002804E0,4.5837597E1,9.8914075E-1,-2.729547E-2,5.6066323E-2,4.6279687E-2,1.1156579E-2,9.742972E-1,5.111479E1,-6.319038E-2,-6.02351E-4,2.2668762E-2,-3.3105568E-3,-3.7087712E-2,-3.8430707E-3,4.966366E-2,-5.6011206E-3],"split_indices":[10,23,7,19,15,10,7,0,4,0,0,15,10,0,0,0,0,0,0,0,0],"split_type":[0,0,0,0,0,0,0,0,0,0,0,0,0,0,0,0,0,0,0,0,0],"sum_hessian":[9.51747E1,5.8647877E1,3.6526817E1,4.727338E1,1.1374497E1,2.3133928E1,1.339289E1,9.277809E0,3.799557E1,5.4672947E0,5.9072027E0,1.026595E1,1.2867978E1,5.724547E0,7.6683426E0,1.6586477E1,2.1409092E1,5.0559607E0,5.209989E0,5.2670364E0,7.6009417E0],"tree_param":{"num_deleted":"0","num_feature":"24","num_nodes":"21","size_leaf_vector":"1"}},{"base_weights":[2.0389244E-2,1.7029057E-1,-2.1033368E-1,4.7990765E-2,7.0733204E-2,6.64275E-2,-6.1879015E-1,1.7393605E-1,-2.4348807E-2,-2.5672966E-1,2.9723097E-2,-5.942569E-2,-1.08304145E-2,-2.2633323E-3,2.1521252E-2,1.2977324E-2,-3.9894365E-2],"categories":[],"categories_nodes":[],"categories_segments":[],"categories_sizes":[],"default_left":[0,0,0,0,0,0,0,0,0,0,0,0,0,0,0,0,0],"id":36,"left_children":[1,3,5,-1,7,9,11,13,-1,15,-1,-1,-1,-1,-1,-1,-1],"loss_changes":[3.3083065E0,4.4069853E0,4.3348904E0,0E0,3.0988352E0,4.1293974E0,3.1276999E0,2.6182504E0,0E0,4.4281263E0,0E0,0E0,0E0,0E0,0E0,0E0,0E0],"parents":[2147483647,0,0,1,1,2,2,4,4,5,5,6,6,7,7,9,9],"right_children":[2,4,6,-1,8,10,12,14,-1,16,-1,-1,-1,-1,-1,-1,-1],"split_conditions":[3.6429096E1,8.088332E0,5.390461E-1,4.7990765E-2,1.2824335E0,4.70742E-1,-4.6745356E-4,7.230761E-1,-2.4348807E-2,1.026103E0,2.9723097E-2,-5.942569E-2,-1.08304145E-2,-2.2633323E-3,2.1521252E-2,1.2977324E-2,-3.9894365E-2],"split_indices":[10,12,7,0,7,5,16,8,0,14,0,0,0,0,0,0,0],"split_type":[0,0,0,0,0,0,0,0,0,0,0,0,0,0,0,0,0],"sum_hessian":[9.373556E1,5.724116E1,3.6494396E1,5.3296776E0,5.1911484E1,2.210743E1,1.4386967E1,4.4537373E1,7.3741107E0,1.3915537E1,8.191893E0,5.0414834E0,9.345483E0,2.4247992E1,2.0289383E1,7.293232E0,6.6223054E0],"tree_param":{"num_deleted":"0","num_feature":"24","num_nodes":"17","size_leaf_vector":"1"}},{"base_weights":[-3.3507727E-2,-1.5428784E-1,2.5538987E-1,6.7436025E-2,-3.648392E-1,-7.048078E-2,5.953085E-1,2.752216E-2,-1.4709334E-1,1.770471E-2,-5.7089084E-1,1.8754082E-2,-3.4831375E-2,5.4598063E-2,-3.0252968E-3,-2.8129444E-2,4.618992E-3,-6.0817737E-2,-1.7897604E-2],"categories":[],"categories_nodes":[],"categories_segments":[],"categories_sizes":[],"default_left":[0,0,0,0,0,0,0,0,0,0,0,0,0,0,0,0,0,0,0],"id":37,"left_children":[1,3,5,7,9,11,13,-1,15,-1,17,-1,-1,-1,-1,-1,-1,-1,-1],"loss_changes":[3.4241898E0,3.2978587E0,3.2864354E0,3.6913629E0,5.560336E0,4.6055403E0,4.8465457E0,0E0,2.5370522E0,0E0,3.3229847E0,0E0,0E0,0E0,0E0,0E0,0E0,0E0,0E0],"parents":[2147483647,0,0,1,1,2,2,3,3,4,4,5,5,6,6,8,8,10,10],"right_children":[2,4,6,8,10,12,14,-1,16,-1,18,-1,-1,-1,-1,-1,-1,-1,-1],"split_conditions":[1.0730712E0,3.6925778E-3,9.237634E-3,8.9068764E-1,8.009219E0,1.1557195E0,1.43703325E-2,2.752216E-2,9.709909E-1,1.770471E-2,8.421221E-1,1.8754082E-2,-3.4831375E-2,5.4598063E-2,-3.0252968E-3,-2.8129444E-2,4.618992E-3,-6.0817737E-2,-1.7897604E-2],"split_indices":[15,17,20,15,12,15,20,0,15,0,15,0,0,0,0,0,0,0,0],"split_type":[0,0,0,0,0,0,0,0,0,0,0,0,0,0,0,0,0,0,0],"sum_hessian":[9.629425E1,6.84777E1,2.7816551E1,3.3453663E1,3.502404E1,1.4456227E1,1.3360323E1,9.95056E0,2.3503101E1,7.5338717E0,2.749017E1,8.587017E0,5.8692102E0,7.3110504E0,6.0492725E0,8.252679E0,1.52504225E1,5.533891E0,2.1956278E1],"tree_param":{"num_deleted":"0","num_feature":"24","num_nodes":"19","size_leaf_vector":"1"}},{"base_weights":[4.8923608E-2,2.8234494E-1,-1.86757E-1,7.5013E-1,2.1386988E-2,-4.0580666E-1,1.7126766E-1,2.591535E-3,1.0243615E0,-1.5751565E-1,3.842145E-2,-4.2477522E-2,-1.5316348E-1,4.1940355E-1,-1.9720634E-2,6.361392E-2,3.1802878E-2,-3.9296817E-2,3.1883463E-3,-1.9103866E-2,1.303967E-2,-1.722444E-2,4.9114693E-2],"categories":[],"categories_nodes":[],"categories_segments":[],"categories_sizes":[],"default_left":[0,0,0,0,0,0,0,0,0,0,0,0,0,0,0,0,0,0,0,0,0,0,0],"id":38,"left_children":[1,3,5,7,9,11,13,-1,15,17,-1,-1,19,21,-1,-1,-1,-1,-1,-1,-1,-1,-1],"loss_changes":[5.3111424E0,5.8330135E0,3.8467488E0,3.1364012E0,4.502836E0,3.151476E0,2.792571E0,0E0,1.7501545E-1,3.8497434E0,0E0,0E0,2.062466E0,6.2521143E0,0E0,0E0,0E0,0E0,0E0,0E0,0E0,0E0,0E0],"parents":[2147483647,0,0,1,1,2,2,3,3,4,4,5,5,6,6,8,8,9,9,12,12,13,13],"right_children":[2,4,6,8,10,12,14,-1,16,18,-1,-1,20,22,-1,-1,-1,-1,-1,-1,-1,-1,-1],"split_conditions":[4.3032195E-2,9.7299904E-1,3E0,7.73445E-1,-5.186028E-2,3.242255E-2,3.555312E-1,2.591535E-3,1.903572E1,1.0278693E0,3.842145E-2,-4.2477522E-2,1.0039077E0,8.707117E-2,-1.9720634E-2,6.361392E-2,3.1802878E-2,-3.9296817E-2,3.1883463E-3,-1.9103866E-2,1.303967E-2,-1.722444E-2,4.9114693E-2],"split_indices":[3,14,23,14,3,6,3,0,12,15,0,0,14,4,0,0,0,0,0,0,0,0,0],"split_type":[0,0,0,0,0,0,0,0,0,0,0,0,0,0,0,0,0,0,0,0,0,0,0],"sum_hessian":[9.441137E1,4.7546734E1,4.6864635E1,1.6217686E1,3.1329048E1,2.9165936E1,1.76987E1,5.0111136E0,1.1206572E1,2.5804611E1,5.5244374E0,9.580403E0,1.9585533E1,1.2604913E1,5.0937862E0,5.2931023E0,5.9134693E0,6.173281E0,1.963133E1,1.2816645E1,6.768888E0,5.4369E0,7.168013E0],"tree_param":{"num_deleted":"0","num_feature":"24","num_nodes":"23","size_leaf_vector":"1"}},{"base_weights":[4.863415E-2,3.6452338E-2,-4.0752073E-3,-2.7274793E-1,1.5630367E-1,9.435686E-3,-4.7373748E-1,2.9631516E-1,-3.3378776E-2,3.1174591E-3,-3.280026E-2,2.6392727E-3,4.3587003E-2],"categories":[],"categories_nodes":[],"categories_segments":[],"categories_sizes":[],"default_left":[0,0,0,0,0,0,0,0,0,0,0,0,0],"id":39,"left_children":[1,-1,3,5,7,-1,9,11,-1,-1,-1,-1,-1],"loss_changes":[3.3676844E0,0E0,3.7623396E0,3.1567893E0,6.423226E0,0E0,2.3729901E0,6.475913E0,0E0,0E0,0E0,0E0,0E0],"parents":[2147483647,0,0,2,2,3,3,4,4,6,6,7,7],"right_children":[2,-1,4,6,8,-1,10,12,-1,-1,-1,-1,-1],"split_conditions":[1.8324824E-2,3.6452338E-2,3.1953566E-2,2.3480991E1,1.5881605E-2,9.435686E-3,4.9229567E-3,1.0447832E-2,-3.3378776E-2,3.1174591E-3,-3.280026E-2,2.6392727E-3,4.3587003E-2],"split_indices":[6,0,6,10,20,0,20,1,0,0,0,0,0],"split_type":[0,0,0,0,0,0,0,0,0,0,0,0,0],"sum_hessian":[9.079696E1,5.741898E0,8.505506E1,3.1764633E1,5.329043E1,9.505055E0,2.2259577E1,4.6200714E1,7.089714E0,5.6756406E0,1.6583937E1,3.335136E1,1.2849354E1],"tree_param":{"num_deleted":"0","num_feature":"24","num_nodes":"13","size_leaf_vector":"1"}},{"base_weights":[2.523354E-2,2.5870785E-1,-2.4579829E-1,6.746879E-1,9.703864E-2,-4.404256E-2,-1.268187E-1,4.982471E-2,1.5472527E-2,2.8321242E-1,-2.9192165E-2,2.9692867E-1,-3.8842157E-1,-9.54926E-3,2.357935E-2,-7.5883693E-3,3.9026346E-2,2.6609644E-3,-3.3350278E-2],"categories":[],"categories_nodes":[],"categories_segments":[],"categories_sizes":[],"default_left":[0,0,0,0,0,0,0,0,0,0,0,0,0,0,0,0,0,0,0],"id":40,"left_children":[1,3,5,7,9,-1,11,-1,-1,13,-1,15,17,-1,-1,-1,-1,-1,-1],"loss_changes":[6.163865E0,3.3856356E0,3.181474E0,1.2467704E0,5.094477E0,0E0,4.4623337E0,0E0,0E0,2.9328465E0,0E0,3.5137486E0,3.1449006E0,0E0,0E0,0E0,0E0,0E0,0E0],"parents":[2147483647,0,0,1,1,2,2,3,3,4,4,6,6,9,9,11,11,12,12],"right_children":[2,4,6,8,10,-1,12,-1,-1,14,-1,16,18,-1,-1,-1,-1,-1,-1],"split_conditions":[3.1190966E-3,1.3296531E1,7.7066046E-1,8.088541E-2,1.17125185E-2,-4.404256E-2,2E0,4.982471E-2,1.5472527E-2,1.3883399E1,-2.9192165E-2,1.0933614E-2,9.669902E-1,-9.54926E-3,2.357935E-2,-7.5883693E-3,3.9026346E-2,2.6609644E-3,-3.3350278E-2],"split_indices":[17,11,14,5,20,0,23,0,0,12,0,17,14,0,0,0,0,0,0],"split_type":[0,0,0,0,0,0,0,0,0,0,0,0,0,0,0,0,0,0,0],"sum_hessian":[9.5382484E1,5.1464214E1,4.3918266E1,1.3342283E1,3.8121933E1,5.7868934E0,3.8131374E1,6.028502E0,7.3137813E0,3.0510386E1,7.611546E0,1.4357551E1,2.3773823E1,8.519478E0,2.1990908E1,7.6961927E0,6.6613574E0,9.369812E0,1.4404011E1],"tree_param":{"num_deleted":"0","num_feature":"24","num_nodes":"19","size_leaf_vector":"1"}},{"base_weights":[-7.455339E-3,-1.1138834E-1,3.838289E-1,3.2152217E-2,-1.8082817E-1,8.0701584E-1,-8.324831E-3,-9.884604E-3,-5.017243E-1,1.6107526E-2,5.6963634E-2,5.004584E-3,-2.7549956E-2,-7.2505334E-3,-4.381103E-2],"categories":[],"categories_nodes":[],"categories_segments":[],"categories_sizes":[],"default_left":[0,0,0,0,0,0,0,0,0,0,0,0,0,0,0],"id":41,"left_children":[1,3,5,-1,7,9,-1,11,13,-1,-1,-1,-1,-1,-1],"loss_changes":[3.7184834E0,3.8902802E0,4.6543303E0,0E0,3.6563544E0,1.2733827E0,0E0,2.8007438E0,2.8832335E0,0E0,0E0,0E0,0E0,0E0,0E0],"parents":[2147483647,0,0,1,1,2,2,4,4,5,5,7,7,8,8],"right_children":[2,4,6,-1,8,10,-1,12,14,-1,-1,-1,-1,-1,-1],"split_conditions":[1.494957E-2,1.8324824E-2,9.035535E-1,3.2152217E-2,5.4928274E-3,1.3510798E1,-8.324831E-3,1.1557195E0,3.1390682E1,1.6107526E-2,5.6963634E-2,5.004584E-3,-2.7549956E-2,-7.2505334E-3,-4.381103E-2],"split_indices":[19,6,5,0,19,12,0,15,10,0,0,0,0,0,0],"split_type":[0,0,0,0,0,0,0,0,0,0,0,0,0,0,0],"sum_hessian":[9.005521E1,7.1922134E1,1.8133076E1,5.2443266E0,6.66778E1,1.0089655E1,8.043422E0,4.4379154E1,2.229865E1,5.0258875E0,5.063767E0,3.7406807E1,6.9723473E0,1.2267707E1,1.0030944E1],"tree_param":{"num_deleted":"0","num_feature":"24","num_nodes":"15","size_leaf_vector":"1"}},{"base_weights":[-2.282456E-2,1.4209287E-1,-2.4571992E-1,4.800208E-2,3.756299E-2,-3.49459E-2,-5.583967E-1,2.81997E-1,-3.2186392E-1,2.9956564E-2,-3.269454E-1,-4.9032256E-2,8.47586E-3,4.572434E-3,4.149253E-2,1.157711E-2,-3.4956895E-2,-4.0526044E-2,7.0135565E-3],"categories":[],"categories_nodes":[],"categories_segments":[],"categories_sizes":[],"default_left":[0,0,0,0,0,0,0,0,0,0,0,0,0,0,0,0,0,0,0],"id":42,"left_children":[1,3,5,7,-1,9,11,13,15,-1,17,-1,-1,-1,-1,-1,-1,-1,-1],"loss_changes":[3.552036E0,3.0482314E0,2.6358857E0,4.330161E0,0E0,4.957283E0,5.2661595E0,3.0399184E0,4.238287E0,0E0,4.352238E0,0E0,0E0,0E0,0E0,0E0,0E0,0E0,0E0],"parents":[2147483647,0,0,1,1,2,2,3,3,5,5,6,6,7,7,8,8,10,10],"right_children":[2,4,6,8,-1,10,12,14,16,-1,18,-1,-1,-1,-1,-1,-1,-1,-1],"split_conditions":[3.5314434E1,4.921668E-2,6.159795E-1,1.8570452E0,3.756299E-2,1.9269726E1,7.524251E1,1.6575494E0,9.153594E-1,2.9956564E-2,4.5837597E1,-4.9032256E-2,8.47586E-3,4.572434E-3,4.149253E-2,1.157711E-2,-3.4956895E-2,-4.0526044E-2,7.0135565E-3],"split_indices":[10,6,7,0,0,12,2,0,14,0,10,0,0,0,0,0,0,0,0],"split_type":[0,0,0,0,0,0,0,0,0,0,0,0,0,0,0,0,0,0,0],"sum_hessian":[9.439777E1,5.420561E1,4.019216E1,4.802995E1,6.1756587E0,2.4863422E1,1.532874E1,2.9729553E1,1.8300398E1,7.400008E0,1.7463413E1,9.568451E0,5.760289E0,2.305891E1,6.670641E0,7.4676523E0,1.0832746E1,8.325577E0,9.137837E0],"tree_param":{"num_deleted":"0","num_feature":"24","num_nodes":"19","size_leaf_vector":"1"}},{"base_weights":[3.2068226E-2,3.8418546E-1,-5.355729E-2,6.2594473E-1,-1.0263654E-2,3.677619E-1,-1.4717203E-1,1.1690392E-2,4.3079413E-2,3.9675888E-2,4.8691477E-4,-3.3430327E-2,-6.915216E-2,2.957941E-2,-8.162846E-3],"categories":[],"categories_nodes":[],"categories_segments":[],"categories_sizes":[],"default_left":[0,0,0,0,0,0,0,0,0,0,0,0,0,0,0],"id":43,"left_children":[1,3,5,7,-1,9,11,-1,-1,-1,-1,-1,13,-1,-1],"loss_changes":[2.8615723E0,2.816621E0,3.0124176E0,9.396844E-1,0E0,2.0199125E0,2.4321685E0,0E0,0E0,0E0,0E0,0E0,3.5265381E0,0E0,0E0],"parents":[2147483647,0,0,1,1,2,2,3,3,5,5,6,6,12,12],"right_children":[2,4,6,8,-1,10,12,-1,-1,-1,-1,-1,14,-1,-1],"split_conditions":[2.3480991E1,1.9661968E1,-2.2749677E-2,6.926734E-3,-1.0263654E-2,4.2933044E1,8.421221E-1,1.1690392E-2,4.3079413E-2,3.9675888E-2,4.8691477E-4,-3.3430327E-2,8.934188E-1,2.957941E-2,-8.162846E-3],"split_indices":[10,12,18,18,0,10,15,0,0,0,0,0,15,0,0],"split_type":[0,0,0,0,0,0,0,0,0,0,0,0,0,0,0],"sum_hessian":[9.2131454E1,1.7567951E1,7.45635E1,1.2534732E1,5.033219E0,1.2829016E1,6.1734486E1,5.6121216E0,6.9226108E0,5.1769624E0,7.6520534E0,6.882809E0,5.4851673E1,6.0466967E0,4.8804977E1],"tree_param":{"num_deleted":"0","num_feature":"24","num_nodes":"15","size_leaf_vector":"1"}},{"base_weights":[-3.303939E-2,2.9007271E-2,-2.5711054E-2,-7.743795E-2,4.6411467E-1,-1.5443012E-1,3.0475458E-2,4.7416862E-2,-4.5071263E-3,2.8105441E-2,-1.19471345E-2],"categories":[],"categories_nodes":[],"categories_segments":[],"categories_sizes":[],"default_left":[0,0,0,0,0,0,0,0,0,0,0],"id":44,"left_children":[1,3,-1,5,7,9,-1,-1,-1,-1,-1],"loss_changes":[2.877778E0,3.97714E0,0E0,3.664727E0,4.704178E0,3.8812723E0,0E0,0E0,0E0,0E0,0E0],"parents":[2147483647,0,0,1,1,3,3,4,4,5,5],"right_children":[2,4,-1,6,8,10,-1,-1,-1,-1,-1],"split_conditions":[9.3517476E-1,8.3540374E-1,-2.5711054E-2,2.1642348E-2,1.1383224E-2,-2.6231606E-2,3.0475458E-2,4.7416862E-2,-4.5071263E-3,2.8105441E-2,-1.19471345E-2],"split_indices":[21,21,0,19,19,19,0,0,0,0,0],"split_type":[0,0,0,0,0,0,0,0,0,0,0],"sum_hessian":[9.326471E1,8.326046E1,1.0004245E1,6.737095E1,1.5889516E1,6.140906E1,5.9618855E0,8.197366E0,7.69215E0,5.7577333E0,5.565133E1],"tree_param":{"num_deleted":"0","num_feature":"24","num_nodes":"11","size_leaf_vector":"1"}},{"base_weights":[-3.7007526E-2,3.1695705E-2,-1.0015725E-1,1.7739268E-1,-2.745184E-1,4.7298834E-1,-2.0495608E-1,-8.197185E-2,-6.5102375E-1,3.3481207E-2,-0E0,1.0894614E-2,-4.032926E-2,4.3414284E-2,-1.4095542E-2,-4.5328736E-2,-0E0],"categories":[],"categories_nodes":[],"categories_segments":[],"categories_sizes":[],"default_left":[0,0,0,0,0,0,0,0,0,0,0,0,0,0,0,0,0],"id":45,"left_children":[1,-1,3,5,7,9,11,13,15,-1,-1,-1,-1,-1,-1,-1,-1],"loss_changes":[4.0343823E0,0E0,4.30794E0,3.9965606E0,3.8275495E0,1.8848486E0,4.175482E0,7.2935324E0,3.0437326E0,0E0,0E0,0E0,0E0,0E0,0E0,0E0,0E0],"parents":[2147483647,0,0,2,2,3,3,4,4,5,5,6,6,7,7,8,8],"right_children":[2,-1,4,6,8,10,12,14,16,-1,-1,-1,-1,-1,-1,-1,-1],"split_conditions":[6.6186804E-3,3.1695705E-2,9.4266635E-1,7.973287E-3,2.3929943E1,7.3270956E-3,3.8640984E1,1.5740344E1,1.2246255E0,3.3481207E-2,-0E0,1.0894614E-2,-4.032926E-2,4.3414284E-2,-1.4095542E-2,-4.5328736E-2,-0E0],"split_indices":[1,0,14,20,11,17,10,12,14,0,0,0,0,0,0,0,0],"split_type":[0,0,0,0,0,0,0,0,0,0,0,0,0,0,0,0,0],"sum_hessian":[9.398248E1,7.1712427E0,8.681124E1,3.3266445E1,5.3544796E1,1.87755E1,1.4490947E1,3.6408596E1,1.71362E1,1.3070102E1,5.705397E0,8.786833E0,5.704114E0,5.6609035E0,3.074769E1,1.2055998E1,5.0802026E0],"tree_param":{"num_deleted":"0","num_feature":"24","num_nodes":"17","size_leaf_vector":"1"}},{"base_weights":[2.374408E-2,7.888575E-2,-2.7915671E-2,-2.2186408E-2,4.6513546E-1,-1.2761481E-1,2.7713677E-2,3.9408248E-2,7.2232946E-3,-1.4290216E-3,-3.83394E-2],"categories":[],"categories_nodes":[],"categories_segments":[],"categories_sizes":[],"default_left":[0,0,0,0,0,0,0,0,0,0,0],"id":46,"left_children":[1,3,-1,5,7,9,-1,-1,-1,-1,-1],"loss_changes":[3.037826E0,3.4745421E0,0E0,4.293448E0,1.7009034E0,3.7149882E0,0E0,0E0,0E0,0E0,0E0],"parents":[2147483647,0,0,1,1,3,3,4,4,5,5],"right_children":[2,4,-1,6,8,10,-1,-1,-1,-1,-1],"split_conditions":[6.178381E-2,1.0447832E-2,-2.7915671E-2,1.2447203E0,1.1094011E-2,3.4920105E-1,2.7713677E-2,3.9408248E-2,7.2232946E-3,-1.4290216E-3,-3.83394E-2],"split_indices":[6,1,0,14,1,3,0,0,0,0,0],"split_type":[0,0,0,0,0,0,0,0,0,0,0],"sum_hessian":[9.3770744E1,8.660265E1,7.168094E0,6.9182846E1,1.7419807E1,5.9291206E1,9.891636E0,7.796355E0,9.623453E0,5.2377007E1,6.9142E0],"tree_param":{"num_deleted":"0","num_feature":"24","num_nodes":"11","size_leaf_vector":"1"}},{"base_weights":[1.4577373E-2,8.720055E-2,-3.71273E-1,3.7065896E-1,-6.211018E-2,-0E0,-4.5414668E-2,5.7681274E-1,-1.9367462E-2,-3.979224E-2,3.7562143E-2,3.981599E-3,4.240708E-2,7.4553876E-3,-2.9503478E-2],"categories":[],"categories_nodes":[],"categories_segments":[],"categories_sizes":[],"default_left":[0,0,0,0,0,0,0,0,0,0,0,0,0,0,0],"id":47,"left_children":[1,3,5,7,9,-1,-1,11,-1,-1,13,-1,-1,-1,-1],"loss_changes":[2.7373152E0,3.571828E0,3.152432E0,4.782265E0,4.133046E0,0E0,0E0,2.9890323E0,0E0,0E0,3.4965792E0,0E0,0E0,0E0,0E0],"parents":[2147483647,0,0,1,1,2,2,3,3,4,4,7,7,10,10],"right_children":[2,4,6,8,10,-1,-1,12,-1,-1,14,-1,-1,-1,-1],"split_conditions":[2.1259756E0,9.542017E-1,1.3962297E-2,3.4920105E-1,9.709909E-1,-0E0,-4.5414668E-2,1.5893849E-4,-1.9367462E-2,-3.979224E-2,4.909673E1,3.981599E-3,4.240708E-2,7.4553876E-3,-2.9503478E-2],"split_indices":[0,15,20,3,15,0,0,19,0,0,10,0,0,0,0],"split_type":[0,0,0,0,0,0,0,0,0,0,0,0,0,0,0],"sum_hessian":[9.6544014E1,8.212075E1,1.442326E1,2.805228E1,5.4068474E1,9.025137E0,5.3981223E0,2.2345886E1,5.706394E0,5.7510414E0,4.8317432E1,8.476205E0,1.3869681E1,4.1808746E1,6.5086865E0],"tree_param":{"num_deleted":"0","num_feature":"24","num_nodes":"15","size_leaf_vector":"1"}},{"base_weights":[-6.194396E-2,-1.9356067E-1,2.3800199E-1,-9.86125E-2,-4.5476716E-2,5.649001E-1,-8.1329174E-2,3.254665E-2,-3.6538616E-2,9.66545E-3,5.288124E-2,1.29357865E-2,-3.3538654E-2,7.369096E-3,-3.536626E-2],"categories":[],"categories_nodes":[],"categories_segments":[],"categories_sizes":[],"default_left":[0,0,0,0,0,0,0,0,0,0,0,0,0,0,0],"id":48,"left_children":[1,3,5,7,-1,9,11,13,-1,-1,-1,-1,-1,-1,-1],"loss_changes":[3.8347602E0,4.402436E0,3.1758304E0,5.1427917E0,0E0,2.3926077E0,3.352014E0,4.403438E0,0E0,0E0,0E0,0E0,0E0,0E0,0E0],"parents":[2147483647,0,0,1,1,2,2,3,3,5,5,6,6,7,7],"right_children":[2,4,6,8,-1,10,12,14,-1,-1,-1,-1,-1,-1,-1],"split_conditions":[1.0730712E0,1.0513282E0,1.7719717E0,5.8393315E-3,-4.5476716E-2,3.1634793E-2,1E0,3.0900229E-2,-3.6538616E-2,9.66545E-3,5.288124E-2,1.29357865E-2,-3.3538654E-2,7.369096E-3,-3.536626E-2],"split_indices":[15,15,0,16,0,6,9,18,0,0,0,0,0,0,0],"split_type":[0,0,0,0,0,0,0,0,0,0,0,0,0,0,0],"sum_hessian":[9.508252E1,6.656276E1,2.8519762E1,5.989698E1,6.6657805E0,1.3867647E1,1.4652114E1,5.025956E1,9.637418E0,8.815026E0,5.0526214E0,9.540005E0,5.1121097E0,4.431708E1,5.9424806E0],"tree_param":{"num_deleted":"0","num_feature":"24","num_nodes":"15","size_leaf_vector":"1"}},{"base_weights":[3.3718336E-2,-1.263797E-1,1.9403803E-1,3.5008022E-1,-2.7259186E-1,5.6726754E-1,-3.5362873E-2,4.704435E-2,-1.4653905E-2,-4.442427E-1,2.0258995E-2,7.454618E-1,2.8964586E-3,2.3950163E-1,-3.0219346E-2,1.6025193E-2,-3.2372497E-2,1.8439606E-2,4.8203073E-2,-1.5479256E-2,2.1876402E-2],"categories":[],"categories_nodes":[],"categories_segments":[],"categories_sizes":[],"default_left":[0,0,0,0,0,0,0,0,0,0,0,0,0,0,0,0,0,0,0,0,0],"id":49,"left_children":[1,3,5,7,9,11,13,-1,-1,15,-1,17,-1,19,-1,-1,-1,-1,-1,-1,-1],"loss_changes":[2.5257103E0,3.4956088E0,4.2912927E0,4.810696E0,4.6228867E0,1.5989599E0,5.074662E0,0E0,0E0,5.063817E0,0E0,6.499138E-1,0E0,2.5071282E0,0E0,0E0,0E0,0E0,0E0,0E0,0E0],"parents":[2147483647,0,0,1,1,2,2,3,3,4,4,5,5,6,6,9,9,11,11,13,13],"right_children":[2,4,6,8,10,12,14,-1,-1,16,-1,18,-1,20,-1,-1,-1,-1,-1,-1,-1],"split_conditions":[8.230452E-3,-1.6295563E0,1.7129803E-2,2.1973538E0,8.475138E-1,9.586348E-3,2.6615577E0,4.704435E-2,-1.4653905E-2,1E0,2.0258995E-2,6.933207E-1,2.8964586E-3,8.684796E-1,-3.0219346E-2,1.6025193E-2,-3.2372497E-2,1.8439606E-2,4.8203073E-2,-1.5479256E-2,2.1876402E-2],"split_indices":[18,8,18,0,21,1,8,0,0,23,0,5,0,15,0,0,0,0,0,0,0],"split_type":[0,0,0,0,0,0,0,0,0,0,0,0,0,0,0,0,0,0,0,0,0],"sum_hessian":[9.61845E1,4.7919353E1,4.8265152E1,1.0764131E1,3.7155224E1,1.797819E1,3.0286963E1,5.4501634E0,5.3139677E0,3.003957E1,7.1156526E0,1.2829728E1,5.14846E0,2.0694122E1,9.59284E0,6.0818624E0,2.3957708E1,5.8661942E0,6.9635344E0,5.201922E0,1.54922E1],"tree_param":{"num_deleted":"0","num_feature":"24","num_nodes":"21","size_leaf_vector":"1"}},{"base_weights":[7.298529E-2,4.119743E-1,-5.9410058E-2,-4.3107923E-3,5.939877E-1,1.11655064E-1,-2.9361138E-1,2.987546E-1,5.091953E-2,2.2102353E-1,-2.4849107E-2,2.3719333E-1,-6.465755E-1,3.4202397E-2,-7.1420067E-4,-9.01281E-3,2.4740985E-2,3.1168709E-2,-8.288871E-3,-1.3977148E-2,-5.702461E-2],"categories":[],"categories_nodes":[],"categories_segments":[],"categories_sizes":[],"default_left":[0,0,0,0,0,0,0,0,0,0,0,0,0,0,0,0,0,0,0,0,0],"id":50,"left_children":[1,3,5,-1,7,9,11,13,-1,15,-1,17,19,-1,-1,-1,-1,-1,-1,-1,-1],"loss_changes":[4.230822E0,2.4995942E0,2.7551355E0,0E0,2.024829E0,2.7105021E0,5.6300106E0,1.6611589E0,0E0,3.8892393E0,0E0,2.0485585E0,2.7673154E0,0E0,0E0,0E0,0E0,0E0,0E0,0E0,0E0],"parents":[2147483647,0,0,1,1,2,2,4,4,5,5,6,6,7,7,9,9,11,11,12,12],"right_children":[2,4,6,-1,8,10,12,14,-1,16,-1,18,20,-1,-1,-1,-1,-1,-1,-1,-1],"split_conditions":[2.6726706E-2,-1.4890067E-1,6.574448E-1,-4.3107923E-3,3E0,6.1207883E-2,9.399659E0,1.8368155E1,5.091953E-2,3.161037E1,-2.4849107E-2,3.2806324E1,3.34956E1,3.4202397E-2,-7.1420067E-4,-9.01281E-3,2.4740985E-2,3.1168709E-2,-8.288871E-3,-1.3977148E-2,-5.702461E-2],"split_indices":[6,4,7,0,23,6,12,11,0,10,0,11,10,0,0,0,0,0,0,0,0],"split_type":[0,0,0,0,0,0,0,0,0,0,0,0,0,0,0,0,0,0,0,0,0],"sum_hessian":[9.193755E1,2.5441076E1,6.6496475E1,6.8015146E0,1.863956E1,3.8483593E1,2.8012884E1,1.213647E1,6.503092E0,3.3300797E1,5.1827965E0,1.1205774E1,1.680711E1,5.0522885E0,7.0841813E0,1.3496511E1,1.9804283E1,5.5695205E0,5.636254E0,1.0656577E1,6.1505327E0],"tree_param":{"num_deleted":"0","num_feature":"24","num_nodes":"21","size_leaf_vector":"1"}},{"base_weights":[-3.977143E-2,1.0513701E-1,-2.301568E-1,3.5947543E-2,-3.0698868E-2,-7.870934E-1,2.0412501E-2,-2.1045735E-1,4.050384E-1,-1.2239347E-2,-5.4576445E-2,-1.9041656E-2,2.4551117E-1,-5.1321715E-2,2.6888647E-3,3.714616E-2,-3.4226512E-4,3.385792E-2,-8.541788E-3],"categories":[],"categories_nodes":[],"categories_segments":[],"categories_sizes":[],"default_left":[0,0,0,0,0,0,0,0,0,0,0,0,0,0,0,0,0,0,0],"id":51,"left_children":[1,3,5,-1,7,9,11,13,15,-1,-1,-1,17,-1,-1,-1,-1,-1,-1],"loss_changes":[2.6699364E0,4.6420493E0,5.9346924E0,0E0,3.631219E0,1.7683964E0,2.7645807E0,7.2774725E0,1.953814E0,0E0,0E0,0E0,3.7262797E0,0E0,0E0,0E0,0E0,0E0,0E0],"parents":[2147483647,0,0,1,1,2,2,4,4,5,5,6,6,7,7,8,8,12,12],"right_children":[2,4,6,-1,8,10,12,14,16,-1,-1,-1,18,-1,-1,-1,-1,-1,-1],"split_conditions":[1.8612583E0,-8.390419E0,1.9412003E0,3.5947543E-2,1.0730712E0,-6.265829E-4,-7.689513E-3,-5.6493253E-2,6.422353E-1,-1.2239347E-2,-5.4576445E-2,-1.9041656E-2,1.1383224E-2,-5.1321715E-2,2.6888647E-3,3.714616E-2,-3.4226512E-4,3.385792E-2,-8.541788E-3],"split_indices":[0,13,0,0,15,19,19,3,7,0,0,0,19,0,0,0,0,0,0],"split_type":[0,0,0,0,0,0,0,0,0,0,0,0,0,0,0,0,0,0,0],"sum_hessian":[9.4447075E1,5.3584614E1,4.086246E1,9.065031E0,4.451958E1,1.2139049E1,2.8723412E1,3.2045906E1,1.2473674E1,5.1311727E0,7.0078764E0,9.914463E0,1.8808949E1,7.2258434E0,2.4820065E1,6.544238E0,5.9294357E0,9.045154E0,9.763795E0],"tree_param":{"num_deleted":"0","num_feature":"24","num_nodes":"19","size_leaf_vector":"1"}},{"base_weights":[6.40433E-2,2.2303466E-1,-1.6433206E-1,1.3869849E-1,3.9958816E-2,-4.1571012E-1,1.1001416E-1,-3.048139E-1,2.9781488E-1,-1.8484193E-1,-4.3129183E-2,3.3372942E-1,-1.7425513E-2,8.586684E-3,-4.298119E-2,-9.288695E-3,2.2369262E-2,-3.0740937E-2,1.170636E-2,3.8126055E-2,-5.94072E-4],"categories":[],"categories_nodes":[],"categories_segments":[],"categories_sizes":[],"default_left":[0,0,0,0,0,0,0,0,0,0,0,0,0,0,0,0,0,0,0,0,0],"id":52,"left_children":[1,3,5,7,-1,9,11,13,15,17,-1,19,-1,-1,-1,-1,-1,-1,-1,-1,-1],"loss_changes":[3.3930492E0,2.47191E0,2.7101767E0,3.5771112E0,0E0,1.8331952E0,2.0496817E0,3.7526624E0,2.7882087E0,2.8526444E0,0E0,2.0602117E0,0E0,0E0,0E0,0E0,0E0,0E0,0E0,0E0,0E0],"parents":[2147483647,0,0,1,1,2,2,3,3,5,5,6,6,7,7,8,8,9,9,11,11],"right_children":[2,4,6,8,-1,10,12,14,16,18,-1,20,-1,-1,-1,-1,-1,-1,-1,-1,-1],"split_conditions":[3.604432E1,4.921668E-2,1.0195254E0,-3.3811763E-2,3.9958816E-2,3.2071974E-3,1.1557195E0,-7.6786533E-4,3.994602E-1,4.7996977E-1,-4.3129183E-2,2.2000658E1,-1.7425513E-2,8.586684E-3,-4.298119E-2,-9.288695E-3,2.2369262E-2,-3.0740937E-2,1.170636E-2,3.8126055E-2,-5.94072E-4],"split_indices":[10,6,15,8,0,16,15,16,21,21,0,11,0,0,0,0,0,0,0,0,0],"split_type":[0,0,0,0,0,0,0,0,0,0,0,0,0,0,0,0,0,0,0,0,0],"sum_hessian":[9.1276344E1,5.4084686E1,3.7191658E1,4.8412342E1,5.672342E0,1.9329575E1,1.7862082E1,1.23749485E1,3.6037395E1,1.3824721E1,5.5048523E0,1.2334369E1,5.5277133E0,6.931467E0,5.4434814E0,8.29795E0,2.7739445E1,6.709829E0,7.114893E0,5.095517E0,7.2388515E0],"tree_param":{"num_deleted":"0","num_feature":"24","num_nodes":"21","size_leaf_vector":"1"}},{"base_weights":[1.184267E-2,1.5445068E-1,-1.661086E-1,-1.6344748E-2,4.583734E-2,-3.65264E-2,4.495986E-2,1.5609176E-1,-3.9249292E-1,1.9929816E-1,-3.0233903E-2,-2.8837617E-3,3.604934E-2,-4.2152274E-2,1.8067068E-3,-1.9991918E-2,1.9276403E-2],"categories":[],"categories_nodes":[],"categories_segments":[],"categories_sizes":[],"default_left":[0,0,0,0,0,0,0,0,0,0,0,0,0,0,0,0,0],"id":53,"left_children":[1,3,5,7,-1,-1,9,11,13,15,-1,-1,-1,-1,-1,-1,-1],"loss_changes":[2.4725988E0,7.185444E0,5.234293E0,3.0233653E0,0E0,0E0,3.3056862E0,3.9233704E0,2.9513664E0,3.1510882E0,0E0,0E0,0E0,0E0,0E0,0E0,0E0],"parents":[2147483647,0,0,1,1,2,2,3,3,6,6,7,7,8,8,9,9],"right_children":[2,4,6,8,-1,-1,10,12,14,16,-1,-1,-1,-1,-1,-1,-1],"split_conditions":[1.8588053E0,9.00241E-3,1.9311433E0,7.886073E-3,4.583734E-2,-3.65264E-2,1.1900605E0,8.3076924E-1,7.034844E-1,7.7066046E-1,-3.0233903E-2,-2.8837617E-3,3.604934E-2,-4.2152274E-2,1.8067068E-3,-1.9991918E-2,1.9276403E-2],"split_indices":[0,1,0,1,0,0,14,21,5,14,0,0,0,0,0,0,0],"split_type":[0,0,0,0,0,0,0,0,0,0,0,0,0,0,0,0,0],"sum_hessian":[9.546855E1,5.3382484E1,4.208607E1,4.430349E1,9.078995E0,1.0913881E1,3.117219E1,3.059643E1,1.3707059E1,2.5872625E1,5.2995634E0,2.271973E1,7.8766994E0,6.324985E0,7.382074E0,5.7357283E0,2.0136898E1],"tree_param":{"num_deleted":"0","num_feature":"24","num_nodes":"17","size_leaf_vector":"1"}},{"base_weights":[-3.8107191E-3,7.0466E-2,-4.421586E-1,-1.3463512E-2,5.3325707E-1,-4.2686594E-4,-3.9318502E-2,6.9259085E-2,-3.266011E-2,4.433174E-2,1.5691825E-5,1.7865831E-2,-4.2216107E-3],"categories":[],"categories_nodes":[],"categories_segments":[],"categories_sizes":[],"default_left":[0,0,0,0,0,0,0,0,0,0,0,0,0],"id":54,"left_children":[1,3,5,7,9,-1,-1,11,-1,-1,-1,-1,-1],"loss_changes":[3.115796E0,3.1938424E0,1.9876451E0,3.76084E0,2.2833734E0,0E0,0E0,2.8005447E0,0E0,0E0,0E0,0E0,0E0],"parents":[2147483647,0,0,1,1,2,2,3,3,4,4,7,7],"right_children":[2,4,6,8,10,-1,-1,12,-1,-1,-1,-1,-1],"split_conditions":[2.1660575E-1,1.392578E-2,1.2965847E0,2.2897384E0,2.8031776E-3,-4.2686594E-4,-3.9318502E-2,1.780161E1,-3.266011E-2,4.433174E-2,1.5691825E-5,1.7865831E-2,-4.2216107E-3],"split_indices":[4,19,7,8,16,0,0,12,0,0,0,0,0],"split_type":[0,0,0,0,0,0,0,0,0,0,0,0,0],"sum_hessian":[9.259827E1,7.970381E1,1.2894451E1,6.810708E1,1.1596736E1,6.288198E0,6.6062536E0,6.095996E1,7.147116E0,6.4612155E0,5.135521E0,2.097434E1,3.9985622E1],"tree_param":{"num_deleted":"0","num_feature":"24","num_nodes":"13","size_leaf_vector":"1"}},{"base_weights":[-8.745426E-2,-1.333825E-1,2.6122635E-2,-3.8993515E-2,-7.520305E-2,-1.652995E-1,4.018538E-1,9.891486E-3,-1.4934477E-2,3.454E-2,-8.4413076E-4],"categories":[],"categories_nodes":[],"categories_segments":[],"categories_sizes":[],"default_left":[0,0,0,0,0,0,0,0,0,0,0],"id":55,"left_children":[1,3,-1,-1,5,7,9,-1,-1,-1,-1],"loss_changes":[2.632702E0,3.1405427E0,0E0,0E0,3.5400944E0,3.4272554E0,1.6569352E0,0E0,0E0,0E0,0E0],"parents":[2147483647,0,0,1,1,4,4,5,5,6,6],"right_children":[2,4,-1,-1,6,8,10,-1,-1,-1,-1],"split_conditions":[3.7323032E1,-2.4429807E-1,2.6122635E-2,-3.8993515E-2,2.6540009E1,-3.2741632E-3,3E0,9.891486E-3,-1.4934477E-2,3.454E-2,-8.4413076E-4],"split_indices":[12,4,0,0,12,17,23,0,0,0,0],"split_type":[0,0,0,0,0,0,0,0,0,0,0],"sum_hessian":[9.188617E1,8.633044E1,5.5557327E0,5.961632E0,8.0368805E1,6.832764E1,1.2041167E1,1.8025055E1,5.0302586E1,6.881632E0,5.159535E0],"tree_param":{"num_deleted":"0","num_feature":"24","num_nodes":"11","size_leaf_vector":"1"}},{"base_weights":[-1.1636483E-2,1.388574E-1,-2.6387295E-1,8.83173E-3,6.166798E-1,-4.8280782E-1,6.537971E-2,3.2140628E-1,-2.1928924E-1,1.04433E-2,4.6872996E-2,-7.287866E-1,5.584368E-3,2.0429825E-2,-1.7369194E-2,3.610467E-2,-6.6482346E-3,1.9383539E-2,-2.1998966E-2,-5.399648E-2,-1.2941429E-2],"categories":[],"categories_nodes":[],"categories_segments":[],"categories_sizes":[],"default_left":[0,0,0,0,0,0,0,0,0,0,0,0,0,0,0,0,0,0,0,0,0],"id":56,"left_children":[1,3,5,7,9,11,13,15,17,-1,-1,19,-1,-1,-1,-1,-1,-1,-1,-1,-1],"loss_changes":[3.66621E0,3.6651068E0,2.6827831E0,3.532708E0,1.347568E0,3.366693E0,2.2951524E0,3.9810598E0,3.979494E0,0E0,0E0,2.201295E0,0E0,0E0,0E0,0E0,0E0,0E0,0E0,0E0,0E0],"parents":[2147483647,0,0,1,1,2,2,3,3,4,4,5,5,6,6,7,7,8,8,11,11],"right_children":[2,4,6,8,10,12,14,16,18,-1,-1,20,-1,-1,-1,-1,-1,-1,-1,-1,-1],"split_conditions":[3.6429096E1,3.2046726E1,1.9287574E0,9.7299904E-1,1.0039077E0,2.2189147E-3,1.1173416E-2,1.4692515E-3,2.961702E-1,1.04433E-2,4.6872996E-2,4.5837597E1,5.584368E-3,2.0429825E-2,-1.7369194E-2,3.610467E-2,-6.6482346E-3,1.9383539E-2,-2.1998966E-2,-5.399648E-2,-1.2941429E-2],"split_indices":[10,10,0,14,14,16,20,16,21,0,0,10,0,0,0,0,0,0,0,0,0],"split_type":[0,0,0,0,0,0,0,0,0,0,0,0,0,0,0,0,0,0,0,0,0],"sum_hessian":[9.4286194E1,5.9086174E1,3.520002E1,4.7412098E1,1.1674077E1,2.1044157E1,1.4155862E1,2.0015717E1,2.739638E1,6.003973E0,5.670104E0,1.4844432E1,6.199724E0,7.86686E0,6.2890024E0,1.0440037E1,9.57568E0,6.982575E0,2.0413805E1,7.631568E0,7.2128644E0],"tree_param":{"num_deleted":"0","num_feature":"24","num_nodes":"21","size_leaf_vector":"1"}},{"base_weights":[3.1631432E-2,1.7973457E-1,-2.5750864E-1,2.8221639E-2,7.435095E-1,-4.8193103E-1,2.3057407E-2,-7.4602984E-2,3.1881586E-2,1.9923491E-2,5.1677287E-2,-7.730838E-1,-1.224738E-1,1.6993787E-3,-3.518541E-2,-2.8522683E-3,-6.14519E-2,-2.2349749E-2,1.2271006E-2],"categories":[],"categories_nodes":[],"categories_segments":[],"categories_sizes":[],"default_left":[0,0,0,0,0,0,0,0,0,0,0,0,0,0,0,0,0,0,0],"id":57,"left_children":[1,3,5,7,9,11,-1,13,-1,-1,-1,15,17,-1,-1,-1,-1,-1,-1],"loss_changes":[3.8777058E0,5.035863E0,5.151486E0,3.1462443E0,7.010894E-1,2.3144484E0,0E0,2.9804251E0,0E0,0E0,0E0,3.996173E0,1.5656583E0,0E0,0E0,0E0,0E0,0E0,0E0],"parents":[2147483647,0,0,1,1,2,2,3,3,4,4,5,5,7,7,11,11,12,12],"right_children":[2,4,6,8,10,12,-1,14,-1,-1,-1,16,18,-1,-1,-1,-1,-1,-1],"split_conditions":[3.8640984E1,4E0,8.289345E-1,4.6417724E-2,2.8755148E1,1.1303261E-2,2.3057407E-2,3.2111737E-1,3.1881586E-2,1.9923491E-2,5.1677287E-2,-1.5373297E0,1.3510798E1,1.6993787E-3,-3.518541E-2,-2.8522683E-3,-6.14519E-2,-2.2349749E-2,1.2271006E-2],"split_indices":[10,23,21,6,10,18,0,3,0,0,0,8,12,0,0,0,0,0,0],"split_type":[0,0,0,0,0,0,0,0,0,0,0,0,0,0,0,0,0,0,0],"sum_hessian":[8.8653694E1,5.9103817E1,2.9549881E1,4.755183E1,1.1551988E1,2.2875013E1,6.674868E0,4.1297302E1,6.254528E0,6.517334E0,5.034653E0,1.1848822E1,1.1026191E1,3.588941E1,5.4078918E0,5.1327276E0,6.716094E0,5.8886175E0,5.1375732E0],"tree_param":{"num_deleted":"0","num_feature":"24","num_nodes":"19","size_leaf_vector":"1"}},{"base_weights":[-4.850038E-2,1.874748E-2,-1.04849316E-1,-3.9700598E-2,-3.531855E-2,3.1091118E-1,-1.472231E-1,-1.22420285E-2,3.021252E-2,5.4525975E-3,-1.9111726E-2],"categories":[],"categories_nodes":[],"categories_segments":[],"categories_sizes":[],"default_left":[0,0,0,0,0,0,0,0,0,0,0],"id":58,"left_children":[1,-1,3,-1,5,7,9,-1,-1,-1,-1],"loss_changes":[2.198393E0,0E0,3.8110123E0,0E0,2.9556074E0,3.208139E0,3.5606508E0,0E0,0E0,0E0,0E0],"parents":[2147483647,0,0,2,2,4,4,5,5,6,6],"right_children":[2,-1,4,-1,6,8,10,-1,-1,-1,-1],"split_conditions":[-1.6463546E0,1.874748E-2,1.8108806E-1,-3.9700598E-2,-8.623401E-4,-9.871084E-3,1.4216753E-2,-1.22420285E-2,3.021252E-2,5.4525975E-3,-1.9111726E-2],"split_indices":[8,0,5,0,19,19,18,0,0,0,0],"split_type":[0,0,0,0,0,0,0,0,0,0,0],"sum_hessian":[9.0617874E1,9.769968E0,8.08479E1,6.3226275E0,7.4525276E1,1.7550993E1,5.6974285E1,6.0027647E0,1.1548228E1,2.7307013E1,2.966727E1],"tree_param":{"num_deleted":"0","num_feature":"24","num_nodes":"11","size_leaf_vector":"1"}},{"base_weights":[1.562011E-3,4.5414224E-2,-2.3289926E-2,-9.8222636E-2,2.4007791E-1,5.394983E-2,-3.7447575E-1,-5.2964933E-2,4.740609E-1,-4.849871E-3,2.3247976E-2,-3.7318852E-3,-3.9397333E-2,2.3725554E-2,-1.7466886E-2,3.586453E-2,-1.1221993E-2],"categories":[],"categories_nodes":[],"categories_segments":[],"categories_sizes":[],"default_left":[0,0,0,0,0,0,0,0,0,0,0,0,0,0,0,0,0],"id":59,"left_children":[1,3,-1,5,7,9,11,13,15,-1,-1,-1,-1,-1,-1,-1,-1],"loss_changes":[1.907543E0,2.473967E0,0E0,2.1772592E0,2.6439283E0,2.14385E0,2.125397E0,2.8724196E0,3.8096223E0,0E0,0E0,0E0,0E0,0E0,0E0,0E0,0E0],"parents":[2147483647,0,0,1,1,3,3,4,4,5,5,6,6,7,7,8,8],"right_children":[2,4,-1,6,8,10,12,14,16,-1,-1,-1,-1,-1,-1,-1,-1],"split_conditions":[5.408784E1,3E0,-2.3289926E-2,2E0,1.6920133E0,1.0659671E-2,3.944034E-3,2.961702E-1,9.741184E-3,-4.849871E-3,2.3247976E-2,-3.7318852E-3,-3.9397333E-2,2.3725554E-2,-1.7466886E-2,3.586453E-2,-1.1221993E-2],"split_indices":[10,23,0,23,13,20,17,21,20,0,0,0,0,0,0,0,0],"split_type":[0,0,0,0,0,0,0,0,0,0,0,0,0,0,0,0,0],"sum_hessian":[9.309353E1,8.612889E1,6.9646363E0,4.9549458E1,3.6579433E1,3.223546E1,1.7314E1,1.6393848E1,2.0185583E1,2.3957525E1,8.277933E0,1.0860573E1,6.453426E0,5.5599427E0,1.0833906E1,1.5058295E1,5.1272874E0],"tree_param":{"num_deleted":"0","num_feature":"24","num_nodes":"17","size_leaf_vector":"1"}},{"base_weights":[1.3998708E-2,7.8588754E-2,-2.394963E-2,-3.6496753E-3,5.2659696E-1,-8.810067E-2,2.8581304E-2,5.0409954E-2,-6.459205E-3,-9.530696E-3,1.4572973E-2],"categories":[],"categories_nodes":[],"categories_segments":[],"categories_sizes":[],"default_left":[0,0,0,0,0,0,0,0,0,0,0],"id":60,"left_children":[1,3,-1,5,7,9,-1,-1,-1,-1,-1],"loss_changes":[2.9813392E0,3.1449168E0,0E0,3.484474E0,4.388919E0,2.5171676E0,0E0,0E0,0E0,0E0,0E0],"parents":[2147483647,0,0,1,1,3,3,4,4,5,5],"right_children":[2,4,-1,6,8,10,-1,-1,-1,-1,-1],"split_conditions":[9.3517476E-1,8.499651E-1,-2.394963E-2,2.2463E0,1.3038369E-2,1.3742973E-2,2.8581304E-2,5.0409954E-2,-6.459205E-3,-9.530696E-3,1.4572973E-2],"split_indices":[21,21,0,0,19,19,0,0,0,0,0],"split_type":[0,0,0,0,0,0,0,0,0,0,0],"sum_hessian":[9.2703445E1,8.288727E1,9.816177E0,7.068133E1,1.2205943E1,6.2523502E1,8.157822E0,6.815653E0,5.3902907E0,4.9827217E1,1.2696285E1],"tree_param":{"num_deleted":"0","num_feature":"24","num_nodes":"11","size_leaf_vector":"1"}},{"base_weights":[8.220997E-2,2.9448403E-2,2.9555311E-2,-3.9690718E-2,9.492609E-2,2.7691996E-1,-7.253149E-2,2.8669506E-2,5.014179E-3,2.8642843E-2,-1.1711276E-2],"categories":[],"categories_nodes":[],"categories_segments":[],"categories_sizes":[],"default_left":[0,0,0,0,0,0,0,0,0,0,0],"id":61,"left_children":[1,-1,3,-1,5,7,9,-1,-1,-1,-1],"loss_changes":[2.4514394E0,0E0,4.6960955E0,0E0,2.5317357E0,1.9522815E0,4.595715E0,0E0,0E0,0E0,0E0],"parents":[2147483647,0,0,2,2,4,4,5,5,6,6],"right_children":[2,-1,4,-1,6,8,10,-1,-1,-1,-1],"split_conditions":[-2.6231606E-2,2.9448403E-2,-3.6744472E-1,-3.9690718E-2,3.1190966E-3,3.147208E-1,8.009219E0,2.8669506E-2,5.014179E-3,2.8642843E-2,-1.1711276E-2],"split_indices":[19,0,3,0,17,21,12,0,0,0,0],"split_type":[0,0,0,0,0,0,0,0,0,0,0],"sum_hessian":[9.384249E1,7.695446E0,8.614705E1,5.4043403E0,8.074271E1,3.8664932E1,4.2077778E1,1.3385736E1,2.5279194E1,7.7966795E0,3.4281097E1],"tree_param":{"num_deleted":"0","num_feature":"24","num_nodes":"11","size_leaf_vector":"1"}},{"base_weights":[-7.564373E-2,2.0220414E-1,-1.542617E-1,4.542857E-1,-2.0047693E-2,1.7874746E-2,-4.2126408E-1,1.228918E-3,3.7748646E-2,4.2183753E-2,-1.1875536E-1,-6.9422364E-1,1.2591166E-2,7.937049E-4,-3.352138E-2,-4.7902793E-2,-3.6881838E-3,-1.6980227E-2,2.1807637E-2],"categories":[],"categories_nodes":[],"categories_segments":[],"categories_sizes":[],"default_left":[0,0,0,0,0,0,0,0,0,0,0,0,0,0,0,0,0,0,0],"id":62,"left_children":[1,3,5,7,-1,9,11,-1,-1,-1,13,15,17,-1,-1,-1,-1,-1,-1],"loss_changes":[2.1143193E0,3.415871E0,3.5110588E0,1.9140103E0,0E0,5.424423E0,3.606553E0,0E0,0E0,0E0,3.0997443E0,2.8470335E0,2.0002325E0,0E0,0E0,0E0,0E0,0E0,0E0],"parents":[2147483647,0,0,1,1,2,2,3,3,5,5,6,6,10,10,11,11,12,12],"right_children":[2,4,6,8,-1,10,12,-1,-1,-1,14,16,18,-1,-1,-1,-1,-1,-1],"split_conditions":[1.3394312E1,5.8691554E-2,1.780161E1,9.207925E-3,-2.0047693E-2,5.446445E-1,3.968801E-3,1.228918E-3,3.7748646E-2,4.2183753E-2,4.5592594E1,2.7758831E1,1.4118738E0,7.937049E-4,-3.352138E-2,-4.7902793E-2,-3.6881838E-3,-1.6980227E-2,2.1807637E-2],"split_indices":[11,6,12,20,0,5,19,0,0,0,10,12,8,0,0,0,0,0,0],"split_type":[0,0,0,0,0,0,0,0,0,0,0,0,0,0,0,0,0,0,0],"sum_hessian":[9.458401E1,2.0233118E1,7.435088E1,1.45604105E1,5.6727085E0,4.554594E1,2.8804945E1,6.576438E0,7.9839725E0,5.8351254E0,3.9710815E1,1.7454088E1,1.1350857E1,3.2555874E1,7.15494E0,1.1751735E1,5.7023525E0,6.17686E0,5.1739974E0],"tree_param":{"num_deleted":"0","num_feature":"24","num_nodes":"19","size_leaf_vector":"1"}},{"base_weights":[-2.1538414E-2,3.7471515E-1,-7.852562E-2,1.7460289E-3,3.1512838E-2,-3.924112E-2,-7.98546E-3,1.6384898E-1,-2.0675859E-1,-6.686913E-4,2.9421017E-2,-1.6922599E-3,-5.1381208E-2],"categories":[],"categories_nodes":[],"categories_segments":[],"categories_sizes":[],"default_left":[0,0,0,0,0,0,0,0,0,0,0,0,0],"id":63,"left_children":[1,3,5,-1,-1,-1,7,9,11,-1,-1,-1,-1],"loss_changes":[2.0701234E0,9.083102E-1,3.96014E0,0E0,0E0,0E0,2.5987756E0,3.1124907E0,4.893812E0,0E0,0E0,0E0,0E0],"parents":[2147483647,0,0,1,1,2,2,6,6,7,7,8,8],"right_children":[2,4,6,-1,-1,-1,8,10,12,-1,-1,-1,-1],"split_conditions":[-1.6463546E0,-3.2609437E-2,-1.5101663E-2,1.7460289E-3,3.1512838E-2,-3.924112E-2,2.3480167E1,8.316777E-1,9.210199E-1,-6.686913E-4,2.9421017E-2,-1.6922599E-3,-5.1381208E-2],"split_indices":[8,18,19,0,0,0,11,21,21,0,0,0,0],"split_type":[0,0,0,0,0,0,0,0,0,0,0,0,0],"sum_hessian":[9.0682495E1,1.0480111E1,8.0202385E1,5.154342E0,5.3257694E0,6.2345214E0,7.396786E1,3.949662E1,3.447124E1,2.8382349E1,1.1114273E1,2.9434074E1,5.0371647E0],"tree_param":{"num_deleted":"0","num_feature":"24","num_nodes":"13","size_leaf_vector":"1"}},{"base_weights":[-1.5129041E-2,-1.03683904E-1,2.700524E-1,-2.3137933E-1,2.2722429E-1,5.7885265E-1,-9.096988E-3,-3.7430617E-1,1.9021699E-1,-1.4056516E-2,6.4285535E-1,4.912111E-2,1.0449741E-2,-2.346459E-3,-3.1201735E-2,2.5140574E-2,-7.1865814E-3,5.9222776E-2,4.1050153E-4],"categories":[],"categories_nodes":[],"categories_segments":[],"categories_sizes":[],"default_left":[0,0,0,0,0,0,0,0,0,0,0,0,0,0,0,0,0,0,0],"id":64,"left_children":[1,3,5,7,9,11,-1,13,15,-1,17,-1,-1,-1,-1,-1,-1,-1,-1],"loss_changes":[2.3846564E0,3.1249263E0,3.2543285E0,3.293497E0,4.554455E0,1.7063432E0,0E0,3.1920204E0,1.5641725E0,0E0,3.8950233E0,0E0,0E0,0E0,0E0,0E0,0E0,0E0,0E0],"parents":[2147483647,0,0,1,1,2,2,3,3,4,4,5,5,7,7,8,8,10,10],"right_children":[2,4,6,8,10,12,-1,14,16,-1,18,-1,-1,-1,-1,-1,-1,-1,-1],"split_conditions":[1.392578E-2,1.9735261E0,8.113127E-3,8.3540374E-1,-7.689513E-3,1.8383697E-2,-9.096988E-3,-9.878605E-4,7.836391E-3,-1.4056516E-2,6.2794182E-3,4.912111E-2,1.0449741E-2,-2.346459E-3,-3.1201735E-2,2.5140574E-2,-7.1865814E-3,5.9222776E-2,4.1050153E-4],"split_indices":[19,0,20,21,19,19,0,19,20,0,18,0,0,0,0,0,0,0,0],"split_type":[0,0,0,0,0,0,0,0,0,0,0,0,0,0,0,0,0,0,0],"sum_hessian":[9.297616E1,7.169914E1,2.1277014E1,5.2170025E1,1.9529118E1,1.2605519E1,8.671495E0,3.922245E1,1.29475765E1,8.822007E0,1.0707109E1,5.106731E0,7.4987884E0,1.7659893E1,2.1562555E1,6.5810957E0,6.366481E0,5.2245955E0,5.482514E0],"tree_param":{"num_deleted":"0","num_feature":"24","num_nodes":"19","size_leaf_vector":"1"}},{"base_weights":[-6.10215E-2,8.072649E-2,-2.938679E-1,-6.516056E-2,6.429618E-1,-5.1307146E-2,-5.553445E-1,-2.0915163E-1,2.6883349E-2,4.95973E-2,9.583952E-3,-2.7938503E-1,2.3681888E-2,-4.937209E-2,-9.96868E-3,2.0466708E-2,-2.0384079E-2,9.003331E-3,-2.9137356E-2],"categories":[],"categories_nodes":[],"categories_segments":[],"categories_sizes":[],"default_left":[0,0,0,0,0,0,0,0,0,0,0,0,0,0,0,0,0,0,0],"id":65,"left_children":[1,3,5,7,9,11,13,15,-1,-1,-1,17,-1,-1,-1,-1,-1,-1,-1],"loss_changes":[3.0633745E0,4.8046865E0,2.1362183E0,4.0994987E0,1.5894165E0,2.4478724E0,2.2354665E0,4.861632E0,0E0,0E0,0E0,2.1462996E0,0E0,0E0,0E0,0E0,0E0,0E0,0E0],"parents":[2147483647,0,0,1,1,2,2,3,3,4,4,5,5,6,6,7,7,11,11],"right_children":[2,4,6,8,10,12,14,16,-1,-1,-1,18,-1,-1,-1,-1,-1,-1,-1],"split_conditions":[3.7201786E1,4E0,1.0597914E0,3.321175E1,1.0016571E0,9.4131005E-1,1.0664616E0,7.5478316E-3,2.6883349E-2,4.95973E-2,9.583952E-3,6.7614634E-3,2.3681888E-2,-4.937209E-2,-9.96868E-3,2.0466708E-2,-2.0384079E-2,9.003331E-3,-2.9137356E-2],"split_indices":[10,23,14,10,15,14,15,1,0,0,0,20,0,0,0,0,0,0,0],"split_type":[0,0,0,0,0,0,0,0,0,0,0,0,0,0,0,0,0,0,0],"sum_hessian":[9.044951E1,5.6362194E1,3.4087315E1,4.5311222E1,1.1050971E1,1.850224E1,1.5585075E1,3.723599E1,8.075234E0,5.431249E0,5.619722E0,1.33571205E1,5.1451187E0,6.111606E0,9.47347E0,8.66771E0,2.8568277E1,5.342509E0,8.014611E0],"tree_param":{"num_deleted":"0","num_feature":"24","num_nodes":"19","size_leaf_vector":"1"}},{"base_weights":[-7.194025E-2,-1.9297537E-1,7.61421E-2,-3.1716087E-1,2.9966934E-2,2.822102E-1,-4.464624E-1,4.5243334E-2,-6.821002E-1,-1.9607358E-1,5.904552E-1,-4.6524543E-2,4.8733167E-3,1.3206476E-2,-2.6096871E-2,-1.5225041E-2,-4.635186E-2,1.24709755E-2,-2.8928015E-2,4.9239952E-2,8.959004E-3],"categories":[],"categories_nodes":[],"categories_segments":[],"categories_sizes":[],"default_left":[0,0,0,0,0,0,0,0,0,0,0,0,0,0,0,0,0,0,0,0,0],"id":66,"left_children":[1,3,5,7,-1,9,11,13,15,17,19,-1,-1,-1,-1,-1,-1,-1,-1,-1,-1],"loss_changes":[1.6661191E0,5.1795216E0,4.577904E0,6.026039E0,0E0,4.652939E0,3.3290775E0,3.0050788E0,1.6797886E0,2.3207493E0,2.7769747E0,0E0,0E0,0E0,0E0,0E0,0E0,0E0,0E0,0E0,0E0],"parents":[2147483647,0,0,1,1,2,2,3,3,5,5,6,6,7,7,8,8,9,9,10,10],"right_children":[2,4,6,8,-1,10,12,14,16,18,20,-1,-1,-1,-1,-1,-1,-1,-1,-1,-1],"split_conditions":[1.0281345E0,7.524251E1,1.0268137E1,9.220057E-1,2.9966934E-2,-7.2886767E-3,3.739171E-2,6.2846695E1,-1.2734844E-3,1.2717651E1,8.206073E-3,-4.6524543E-2,4.8733167E-3,1.3206476E-2,-2.6096871E-2,-1.5225041E-2,-4.635186E-2,1.24709755E-2,-2.8928015E-2,4.9239952E-2,8.959004E-3],"split_indices":[15,2,13,15,0,17,6,2,16,11,1,0,0,0,0,0,0,0,0,0,0],"split_type":[0,0,0,0,0,0,0,0,0,0,0,0,0,0,0,0,0,0,0,0,0],"sum_hessian":[9.04873E1,4.999556E1,4.049174E1,4.384873E1,6.1468344E0,2.9507847E1,1.0983892E1,2.2302832E1,2.1545895E1,1.1579762E1,1.7928083E1,5.5332E0,5.4506927E0,1.6605186E1,5.6976447E0,9.520447E0,1.2025449E1,5.389229E0,6.190534E0,8.316401E0,9.611683E0],"tree_param":{"num_deleted":"0","num_feature":"24","num_nodes":"21","size_leaf_vector":"1"}},{"base_weights":[2.129873E-2,-4.1088983E-1,8.894143E-2,-2.7208792E-3,-3.731927E-2,4.1620877E-2,2.4112767E-2,2.6657012E-1,-1.6660328E-1,2.3704402E-2,-1.4178206E-2,-1.9432953E-2,6.8342956E-3],"categories":[],"categories_nodes":[],"categories_segments":[],"categories_sizes":[],"default_left":[0,0,0,0,0,0,0,0,0,0,0,0,0],"id":67,"left_children":[1,3,5,-1,-1,-1,7,9,11,-1,-1,-1,-1],"loss_changes":[2.6798246E0,1.3578665E0,3.7576263E0,0E0,0E0,0E0,3.5168862E0,3.9874425E0,2.9268692E0,0E0,0E0,0E0,0E0],"parents":[2147483647,0,0,1,1,2,2,6,6,7,7,8,8],"right_children":[2,4,6,-1,-1,-1,8,10,12,-1,-1,-1,-1],"split_conditions":[2.0031546E-1,3.6121613E-1,2.5381905E-1,-2.7208792E-3,-3.731927E-2,4.1620877E-2,9.7299904E-1,3.2111737E-1,4.2844946E-3,2.3704402E-2,-1.4178206E-2,-1.9432953E-2,6.8342956E-3],"split_indices":[21,5,21,0,0,0,14,3,17,0,0,0,0],"split_type":[0,0,0,0,0,0,0,0,0,0,0,0,0],"sum_hessian":[9.0518E1,1.1363105E1,7.915489E1,6.217318E0,5.1457872E0,5.275136E0,7.387976E1,3.258326E1,4.12965E1,2.3891191E1,8.692066E0,2.386891E1,1.742759E1],"tree_param":{"num_deleted":"0","num_feature":"24","num_nodes":"13","size_leaf_vector":"1"}},{"base_weights":[1.5306409E-2,1.6569941E-1,-1.5683466E-1,5.587972E-1,1.2174325E-2,-3.9170332E-2,-3.8232803E-2,-0E0,4.3901872E-2,-3.163108E-2,2.2860365E-1,-3.154076E-1,2.6456627E-1,2.242679E-2,-1.0480889E-2,2.288485E-3,-3.2775845E-2,-2.090922E-2,2.857007E-2],"categories":[],"categories_nodes":[],"categories_segments":[],"categories_sizes":[],"default_left":[0,0,0,0,0,0,0,0,0,0,0,0,0,0,0,0,0,0,0],"id":68,"left_children":[1,3,5,7,9,-1,11,-1,-1,-1,13,15,17,-1,-1,-1,-1,-1,-1],"loss_changes":[2.3809135E0,2.912962E0,3.0537872E0,2.3746228E0,5.2226915E0,0E0,3.1944973E0,0E0,0E0,0E0,2.8465097E0,2.5416083E0,4.03719E0,0E0,0E0,0E0,0E0,0E0,0E0],"parents":[2147483647,0,0,1,1,2,2,3,3,4,4,6,6,10,10,11,11,12,12],"right_children":[2,4,6,8,10,-1,12,-1,-1,-1,14,16,18,-1,-1,-1,-1,-1,-1],"split_conditions":[3.1190966E-3,1.3394312E1,8.318808E-1,-6.1738855E-1,-8.426323E-3,-3.9170332E-2,8.577766E-3,-0E0,4.3901872E-2,-3.163108E-2,7.184184E-2,1.6648673E-2,1.5845824E1,2.242679E-2,-1.0480889E-2,2.288485E-3,-3.2775845E-2,-2.090922E-2,2.857007E-2],"split_indices":[17,11,15,3,19,0,1,0,0,0,3,18,11,0,0,0,0,0,0],"split_type":[0,0,0,0,0,0,0,0,0,0,0,0,0,0,0,0,0,0,0],"sum_hessian":[8.992884E1,4.8326336E1,4.160251E1,1.2648634E1,3.56777E1,5.595111E0,3.6007397E1,5.0404644E0,7.60817E0,8.366579E0,2.7311123E1,1.8949816E1,1.705758E1,1.832096E1,8.990163E0,9.4673815E0,9.482434E0,5.075372E0,1.1982209E1],"tree_param":{"num_deleted":"0","num_feature":"24","num_nodes":"19","size_leaf_vector":"1"}},{"base_weights":[7.0449486E-3,3.2276336E-2,-4.0939413E-2,-4.0855053E-1,2.2681667E-2,3.959512E-3,-4.316566E-2,-2.0111376E-2,8.328169E-2,2.4757529E-2,-3.4131946E-3],"categories":[],"categories_nodes":[],"categories_segments":[],"categories_sizes":[],"default_left":[0,0,0,0,0,0,0,0,0,0,0],"id":69,"left_children":[1,-1,3,5,7,-1,-1,-1,9,-1,-1],"loss_changes":[2.974686E0,0E0,2.1168368E0,3.1047633E0,1.9618685E0,0E0,0E0,0E0,4.299652E0,0E0,0E0],"parents":[2147483647,0,0,2,2,3,3,4,4,8,8],"right_children":[2,-1,4,6,8,-1,-1,-1,10,-1,-1],"split_conditions":[6.380932E0,3.2276336E-2,7.7066046E-1,3.1190966E-3,-4.8570743E-1,3.959512E-3,-4.316566E-2,-2.0111376E-2,-3.9034942E-3,2.4757529E-2,-3.4131946E-3],"split_indices":[12,0,14,17,3,0,0,0,17,0,0],"split_type":[0,0,0,0,0,0,0,0,0,0,0],"sum_hessian":[9.3258156E1,5.7940087E0,8.746414E1,1.2335892E1,7.512825E1,6.244513E0,6.091378E0,8.4677E0,6.666055E1,1.749779E1,4.9162766E1],"tree_param":{"num_deleted":"0","num_feature":"24","num_nodes":"11","size_leaf_vector":"1"}},{"base_weights":[-4.025773E-2,2.1099102E-1,-1.7714347E-1,4.1987736E-2,-5.729165E-2,1.0058305E-1,-5.0129503E-1,1.7827152E-1,-3.6070492E-2,5.608146E-1,-3.589004E-1,-8.498388E-1,1.4819895E-2,-2.0869028E-2,3.0704517E-2,4.5974135E-2,7.508803E-3,-4.062548E-2,-1.3633393E-3,-1.567454E-2,-5.167159E-2],"categories":[],"categories_nodes":[],"categories_segments":[],"categories_sizes":[],"default_left":[0,0,0,0,0,0,0,0,0,0,0,0,0,0,0,0,0,0,0,0,0],"id":70,"left_children":[1,3,5,-1,7,9,11,13,-1,15,17,19,-1,-1,-1,-1,-1,-1,-1,-1,-1],"loss_changes":[3.0179574E0,5.3215265E0,5.2187634E0,0E0,3.6890392E0,6.8501706E0,7.708041E0,4.749946E0,0E0,2.1349268E0,2.3288803E0,1.3994942E0,0E0,0E0,0E0,0E0,0E0,0E0,0E0,0E0,0E0],"parents":[2147483647,0,0,1,1,2,2,4,4,5,5,6,6,7,7,9,9,10,10,11,11],"right_children":[2,4,6,-1,8,10,12,14,-1,16,18,20,-1,-1,-1,-1,-1,-1,-1,-1,-1],"split_conditions":[-3.2741632E-3,1.780161E1,7.973287E-3,4.1987736E-2,1.1750252E0,9.783385E-1,1.0529835E0,9.7000825E-1,-3.6070492E-2,2.5275198E-1,8.230452E-3,1.7212847E1,1.4819895E-2,-2.0869028E-2,3.0704517E-2,4.5974135E-2,7.508803E-3,-4.062548E-2,-1.3633393E-3,-1.567454E-2,-5.167159E-2],"split_indices":[17,12,20,0,15,15,15,15,0,3,18,11,0,0,0,0,0,0,0,0,0],"split_type":[0,0,0,0,0,0,0,0,0,0,0,0,0,0,0,0,0,0,0,0,0],"sum_hessian":[8.576244E1,2.9797792E1,5.5964653E1,8.386143E0,2.141165E1,3.034601E1,2.5618645E1,1.6234318E1,5.1773324E0,1.5159215E1,1.5186794E1,1.7870363E1,7.7482824E0,6.7802777E0,9.45404E0,7.3002286E0,7.8589864E0,5.674138E0,9.512656E0,5.386492E0,1.24838705E1],"tree_param":{"num_deleted":"0","num_feature":"24","num_nodes":"21","size_leaf_vector":"1"}},{"base_weights":[-2.5795805E-4,2.7320191E-2,-5.140182E-2,-4.7511738E-2,1.7032392E-2,2.9058581E-2,-3.30682E-2,5.001539E-3,-1.6311754E-2],"categories":[],"categories_nodes":[],"categories_segments":[],"categories_sizes":[],"default_left":[0,0,0,0,0,0,0,0,0],"id":71,"left_children":[1,-1,3,-1,5,-1,7,-1,-1],"loss_changes":[2.5055833E0,0E0,5.2599926E0,0E0,2.2980375E0,0E0,2.9057963E0,0E0,0E0],"parents":[2147483647,0,0,2,2,4,4,6,6],"right_children":[2,-1,4,-1,6,-1,8,-1,-1],"split_conditions":[-2.6231606E-2,2.7320191E-2,-3.5471532E-1,-4.7511738E-2,6.380932E0,2.9058581E-2,1.6648673E-2,5.001539E-3,-1.6311754E-2],"split_indices":[19,0,3,0,12,0,18,0,0],"split_type":[0,0,0,0,0,0,0,0,0],"sum_hessian":[8.938421E1,6.6513147E0,8.2732895E1,5.0451E0,7.768779E1,5.634824E0,7.205297E1,4.977335E1,2.227962E1],"tree_param":{"num_deleted":"0","num_feature":"24","num_nodes":"9","size_leaf_vector":"1"}},{"base_weights":[-8.050386E-3,2.5300348E-2,-6.228103E-2,2.7251486E-2,-1.15233496E-1,-3.6202207E-2,-4.914557E-2,1.9621782E-2,-5.7901284E-3],"categories":[],"categories_nodes":[],"categories_segments":[],"categories_sizes":[],"default_left":[0,0,0,0,0,0,0,0,0],"id":72,"left_children":[1,-1,3,-1,5,-1,7,-1,-1],"loss_changes":[2.5776796E0,0E0,2.7572918E0,0E0,3.0766888E0,0E0,2.1586175E0,0E0,0E0],"parents":[2147483647,0,0,2,2,4,4,6,6],"right_children":[2,-1,4,-1,6,-1,8,-1,-1],"split_conditions":[-2.6231606E-2,2.5300348E-2,1.0180578E1,2.7251486E-2,-1.7235388E-1,-3.6202207E-2,4.6464605E-3,1.9621782E-2,-5.7901284E-3],"split_indices":[19,0,11,0,4,0,20,0,0],"split_type":[0,0,0,0,0,0,0,0,0],"sum_hessian":[9.192522E1,7.8013043E0,8.412391E1,5.8499265E0,7.827399E1,6.541737E0,7.173225E1,8.570148E0,6.3162098E1],"tree_param":{"num_deleted":"0","num_feature":"24","num_nodes":"9","size_leaf_vector":"1"}},{"base_weights":[2.5214856E-2,1.441045E-1,-1.9872378E-1,3.5519592E-2,3.9890494E-2,-5.4836524E-1,5.2786693E-2,3.8515672E-2,-6.83858E-2,-4.2018075E-2,-2.279469E-3,2.9129884E-1,-2.3165643E-2,1.3566905E-3,-2.9533014E-2,3.863513E-2,-4.94469E-3],"categories":[],"categories_nodes":[],"categories_segments":[],"categories_sizes":[],"default_left":[0,0,0,0,0,0,0,0,0,0,0,0,0,0,0,0,0],"id":73,"left_children":[1,3,5,7,-1,9,11,-1,13,-1,-1,15,-1,-1,-1,-1,-1],"loss_changes":[2.42794E0,4.1381483E0,2.8443375E0,4.1327777E0,0E0,1.8422427E0,2.4613705E0,0E0,2.4077718E0,0E0,0E0,2.7299242E0,0E0,0E0,0E0,0E0,0E0],"parents":[2147483647,0,0,1,1,2,2,3,3,5,5,6,6,8,8,11,11],"right_children":[2,4,6,8,-1,10,12,-1,14,-1,-1,16,-1,-1,-1,-1,-1],"split_conditions":[3.8640984E1,2.942699E1,4.5837597E1,1.08716135E1,3.9890494E-2,2.2987741E1,6.159795E-1,3.8515672E-2,6.400086E1,-4.2018075E-2,-2.279469E-3,5.1420925E1,-2.3165643E-2,1.3566905E-3,-2.9533014E-2,3.863513E-2,-4.94469E-3],"split_indices":[10,11,10,11,0,11,7,0,2,0,0,10,0,0,0,0,0],"split_type":[0,0,0,0,0,0,0,0,0,0,0,0,0,0,0,0,0],"sum_hessian":[8.932325E1,5.887134E1,3.0451908E1,5.1520714E1,7.3506308E0,1.2413033E1,1.8038876E1,5.707495E0,4.5813217E1,7.3019514E0,5.111081E0,1.27677E1,5.271175E0,3.936945E1,6.4437656E0,5.391661E0,7.3760386E0],"tree_param":{"num_deleted":"0","num_feature":"24","num_nodes":"17","size_leaf_vector":"1"}},{"base_weights":[1.8378524E-2,8.089942E-2,-2.2729207E-2,-1.15062855E-2,3.717823E-1,2.4056345E-1,-2.834655E-1,6.8039966E-1,-5.7126703E-3,-2.5549656E-4,3.126755E-2,9.407987E-3,-3.21931E-2,1.4861283E-2,4.514492E-2],"categories":[],"categories_nodes":[],"categories_segments":[],"categories_sizes":[],"default_left":[0,0,0,0,0,0,0,