{"learner":{"attributes":{"scikit_learn":"{\"_estimator_type\": \"classifier\"}"},"feature_names":[],"feature_types":[],"gradient_booster":{"model":{"cats":{"enc":[],"feature_segments":[],"sorted_idx":[]},"gbtree_model_param":{"num_parallel_tree":"1","num_trees":"200"},"iteration_indptr":[0,1,2,3,4,5,6,7,8,9,10,11,12,13,14,15,16,17,18,19,20,21,22,23,24,25,26,27,28,29,30,31,32,33,34,35,36,37,38,39,40,41,42,43,44,45,46,47,48,49,50,51,52,53,54,55,56,57,58,59,60,61,62,63,64,65,66,67,68,69,70,71,72,73,74,75,76,77,78,79,80,81,82,83,84,85,86,87,88,89,90,91,92,93,94,95,96,97,98,99,100,101,102,103,104,105,106,107,108,109,110,111,112,113,114,115,116,117,118,119,120,121,122,123,124,125,126,127,128,129,130,131,132,133,134,135,136,137,138,139,140,141,142,143,144,145,146,147,148,149,150,151,152,153,154,155,156,157,158,159,160,161,162,163,164,165,166,167,168,169,170,171,172,173,174,175,176,177,178,179,180,181,182,183,184,185,186,187,188,189,190,191,192,193,194,195,196,197,198,199,200],"tree_info":[0,0,0,0,0,0,0,0,0,0,0,0,0,0,0,0,0,0,0,0,0,0,0,0,0,0,0,0,0,0,0,0,0,0,0,0,0,0,0,0,0,0,0,0,0,0,0,0,0,0,0,0,0,0,0,0,0,0,0,0,0,0,0,0,0,0,0,0,0,0,0,0,0,0,0,0,0,0,0,0,0,0,0,0,0,0,0,0,0,0,0,0,0,0,0,0,0,0,0,0,0,0,0,0,0,0,0,0,0,0,0,0,0,0,0,0,0,0,0,0,0,0,0,0,0,0,0,0,0,0,0,0,0,0,0,0,0,0,0,0,0,0,0,0,0,0,0,0,0,0,0,0,0,0,0,0,0,0,0,0,0,0,0,0,0,0,0,0,0,0,0,0,0,0,0,0,0,0,0,0,0,0,0,0,0,0,0,0,0,0,0,0,0,0,0,0,0,0,0,0],"trees":[{"base_weights":[-0E0,-8.738673E-1,8.8626266E-1,-1.6763002E-2,-1.0498934E-1,1.0989647E-1,-6.0071866E-3],"categories":[],"categories_nodes":[],"categories_segments":[],"categories_sizes":[],"default_left":[0,0,0,0,0,0,0],"id":0,"left_children":[1,3,5,-1,-1,-1,-1],"loss_changes":[2.4995087E1,3.693757E0,8.156908E0,0E0,0E0,0E0,0E0],"parents":[2147483647,0,0,1,1,2,2],"right_children":[2,4,6,-1,-1,-1,-1],"split_conditions":[4.8805943E-1,2.3249865E0,3.1984923E0,-1.6763002E-2,-1.0498934E-1,1.0989647E-1,-6.0071866E-3],"split_indices":[51,54,26,0,0,0,0],"split_type":[0,0,0,0,0,0,0],"sum_hessian":[2.8270344E1,1.4135172E1,1.4135172E1,7.067586E0,7.067586E0,9.017265E0,5.117907E0],"tree_param":{"num_deleted":"0","num_feature":"86","num_nodes":"7","size_leaf_vector":"1"}},{"base_weights":[-3.5342544E-2,8.3437884E-1,-8.154677E-1,7.305704E-3,1.132891E-1,7.839148E-4,-9.622831E-2],"categories":[],"categories_nodes":[],"categories_segments":[],"categories_sizes":[],"default_left":[0,0,0,0,0,0,0],"id":1,"left_children":[1,3,5,-1,-1,-1,-1],"loss_changes":[2.1347042E1,5.660351E0,5.72873E0,0E0,0E0,0E0,0E0],"parents":[2147483647,0,0,1,1,2,2],"right_children":[2,4,6,-1,-1,-1,-1],"split_conditions":[1.9925776E0,3.497281E-2,9.049696E-1,7.305704E-3,1.132891E-1,7.839148E-4,-9.622831E-2],"split_indices":[54,64,14,0,0,0,0],"split_type":[0,0,0,0,0,0,0],"sum_hessian":[2.7465214E1,1.27392435E1,1.472597E1,6.8365245E0,5.902719E0,5.0796175E0,9.646353E0],"tree_param":{"num_deleted":"0","num_feature":"86","num_nodes":"7","size_leaf_vector":"1"}},{"base_weights":[-4.531614E-2,9.2571855E-2,-6.705873E-1,-9.0901256E-1,2.0065864E-3,-9.2550114E-2,-2.2131732E-2],"categories":[],"categories_nodes":[],"categories_segments":[],"categories_sizes":[],"default_left":[0,0,0,0,0,0,0],"id":2,"left_children":[1,-1,3,5,-1,-1,-1],"loss_changes":[2.4054201E1,0E0,3.8350859E0,1.4689531E0,0E0,0E0,0E0],"parents":[2147483647,0,0,2,2,3,3],"right_children":[2,-1,4,6,-1,-1,-1],"split_conditions":[1.33E2,9.2571855E-2,5.291138E0,6.625E-1,2.0065864E-3,-9.2550114E-2,-2.2131732E-2],"split_indices":[40,0,68,76,0,0,0],"split_type":[0,0,0,0,0,0,0],"sum_hessian":[2.8122686E1,8.87467E0,1.9248016E1,1.4199387E1,5.0486298E0,8.668404E0,5.530983E0],"tree_param":{"num_deleted":"0","num_feature":"86","num_nodes":"7","size_leaf_vector":"1"}},{"base_weights":[3.9153144E-2,9.372534E-2,-6.7839754E-1,-7.8228965E-2,1.0255775E-3],"categories":[],"categories_nodes":[],"categories_segments":[],"categories_sizes":[],"default_left":[0,0,0,0,0],"id":3,"left_children":[1,-1,3,-1,-1],"loss_changes":[2.6910736E1,0E0,4.468581E0,0E0,0E0],"parents":[2147483647,0,0,2,2],"right_children":[2,-1,4,-1,-1],"split_conditions":[1.48E2,9.372534E-2,2.881856E1,-7.8228965E-2,1.0255775E-3],"split_indices":[40,0,11,0,0],"split_type":[0,0,0,0,0],"sum_hessian":[2.8979965E1,1.0911866E1,1.80681E1,1.2330592E1,5.737508E0],"tree_param":{"num_deleted":"0","num_feature":"86","num_nodes":"5","size_leaf_vector":"1"}},{"base_weights":[3.594038E-3,-7.002248E-2,5.2116406E-1,9.660594E-1,-1.962907E-2,1.0804685E-1,2.2126641E-2],"categories":[],"categories_nodes":[],"categories_segments":[],"categories_sizes":[],"default_left":[0,0,0,0,0,0,0],"id":4,"left_children":[1,-1,3,5,-1,-1,-1],"loss_changes":[1.460603E1,0E0,7.7023754E0,2.3871708E0,0E0,0E0,0E0],"parents":[2147483647,0,0,2,2,3,3],"right_children":[2,-1,4,6,-1,-1,-1],"split_conditions":[6.2213936E-3,-7.002248E-2,1.9925776E0,7.5397617E-3,-1.962907E-2,1.0804685E-1,2.2126641E-2],"split_indices":[0,0,54,0,0,0,0],"split_type":[0,0,0,0,0,0,0],"sum_hessian":[2.8337572E1,9.775721E0,1.8561852E1,1.1663232E1,6.8986197E0,5.9769907E0,5.6862416E0],"tree_param":{"num_deleted":"0","num_feature":"86","num_nodes":"7","size_leaf_vector":"1"}},{"base_weights":[2.2612525E-2,8.312545E-1,-5.368997E-1,1.1214189E-1,-1.6352745E-3,-8.937386E-2,6.3062827E-3],"categories":[],"categories_nodes":[],"categories_segments":[],"categories_sizes":[],"default_left":[0,0,0,0,0,0,0],"id":5,"left_children":[1,3,5,-1,-1,-1,-1],"loss_changes":[1.447983E1,6.888359E0,7.1439695E0,0E0,0E0,0E0,0E0],"parents":[2147483647,0,0,1,1,2,2],"right_children":[2,4,6,-1,-1,-1,-1],"split_conditions":[6.47541E-1,2.2072622E1,4.5786726E-1,1.1214189E-1,-1.6352745E-3,-8.937386E-2,6.3062827E-3],"split_indices":[30,12,51,0,0,0,0],"split_type":[0,0,0,0,0,0,0],"sum_hessian":[2.7835497E1,1.1205474E1,1.6630022E1,6.1478024E0,5.057671E0,7.973805E0,8.656218E0],"tree_param":{"num_deleted":"0","num_feature":"86","num_nodes":"7","size_leaf_vector":"1"}},{"base_weights":[-0E0,-7.1426725E-1,6.527998E-1,-0E0,-9.296261E-2,8.98655E-2,-1.538626E-2],"categories":[],"categories_nodes":[],"categories_segments":[],"categories_sizes":[],"default_left":[0,0,0,0,0,0,0],"id":6,"left_children":[1,3,5,-1,-1,-1,-1],"loss_changes":[1.4435202E1,5.0235434E0,7.1133947E0,0E0,0E0,0E0,0E0],"parents":[2147483647,0,0,1,1,2,2],"right_children":[2,4,6,-1,-1,-1,-1],"split_conditions":[4.8805943E-1,6.47541E-1,1.5318184E0,-0E0,-9.296261E-2,8.98655E-2,-1.538626E-2],"split_indices":[51,30,54,0,0,0,0],"split_type":[0,0,0,0,0,0,0],"sum_hessian":[2.6946192E1,1.2846542E1,1.4099648E1,5.51696E0,7.329582E0,8.862275E0,5.237373E0],"tree_param":{"num_deleted":"0","num_feature":"86","num_nodes":"7","size_leaf_vector":"1"}},{"base_weights":[-9.458539E-2,5.7969507E-2,-5.667338E-1,-8.782841E-2,2.472382E-3],"categories":[],"categories_nodes":[],"categories_segments":[],"categories_sizes":[],"default_left":[0,0,0,0,0],"id":7,"left_children":[1,-1,3,-1,-1],"loss_changes":[1.157345E1,0E0,6.4401846E0,0E0,0E0],"parents":[2147483647,0,0,2,2],"right_children":[2,-1,4,-1,-1],"split_conditions":[1.48E2,5.7969507E-2,2.9482073E-1,-8.782841E-2,2.472382E-3],"split_indices":[40,0,29,0,0],"split_type":[0,0,0,0,0],"sum_hessian":[2.5921085E1,8.854016E0,1.7067068E1,8.415877E0,8.651192E0],"tree_param":{"num_deleted":"0","num_feature":"86","num_nodes":"5","size_leaf_vector":"1"}},{"base_weights":[-5.310908E-2,5.856475E-1,-7.175394E-1,8.267716E-2,-0E0,-9.441575E-3,-8.112453E-2],"categories":[],"categories_nodes":[],"categories_segments":[],"categories_sizes":[],"default_left":[0,0,0,0,0,0,0],"id":8,"left_children":[1,3,5,-1,-1,-1,-1],"loss_changes":[1.2663963E1,3.8561783E0,2.041009E0,0E0,0E0,0E0,0E0],"parents":[2147483647,0,0,1,1,2,2],"right_children":[2,4,6,-1,-1,-1,-1],"split_conditions":[1.98E2,2.7603257E-2,4.5E-1,8.267716E-2,-0E0,-9.441575E-3,-8.112453E-2],"split_indices":[40,6,33,0,0,0,0],"split_type":[0,0,0,0,0,0,0],"sum_hessian":[2.576552E1,1.3027264E1,1.2738257E1,6.4362E0,6.5910635E0,5.4754286E0,7.262829E0],"tree_param":{"num_deleted":"0","num_feature":"86","num_nodes":"7","size_leaf_vector":"1"}},{"base_weights":[-6.010621E-2,6.5080035E-1,-5.943086E-1,-3.6975273E-3,1.0051598E-1,-7.9927176E-2,-5.9938156E-3],"categories":[],"categories_nodes":[],"categories_segments":[],"categories_sizes":[],"default_left":[0,0,0,0,0,0,0],"id":9,"left_children":[1,3,5,-1,-1,-1,-1],"loss_changes":[1.1455144E1,5.8828516E0,3.1801138E0,0E0,0E0,0E0,0E0],"parents":[2147483647,0,0,1,1,2,2],"right_children":[2,4,6,-1,-1,-1,-1],"split_conditions":[6.47541E-1,-1.2805665E-1,4.1784024E-1,-3.6975273E-3,1.0051598E-1,-7.9927176E-2,-5.9938156E-3],"split_indices":[30,8,51,0,0,0,0],"split_type":[0,0,0,0,0,0,0],"sum_hessian":[2.6171253E1,1.08003E1,1.5370953E1,5.6499825E0,5.1503177E0,7.275794E0,8.095159E0],"tree_param":{"num_deleted":"0","num_feature":"86","num_nodes":"7","size_leaf_vector":"1"}},{"base_weights":[-9.838145E-3,6.49875E-2,-4.7134942E-1,-7.3581773E-1,1.5590868E-2,-1.0238662E-2,-8.170492E-2],"categories":[],"categories_nodes":[],"categories_segments":[],"categories_sizes":[],"default_left":[0,0,0,0,0,0,0],"id":10,"left_children":[1,-1,3,5,-1,-1,-1],"loss_changes":[1.1911303E1,0E0,4.0584874E0,2.0670776E0,0E0,0E0,0E0],"parents":[2147483647,0,0,2,2,3,3],"right_children":[2,-1,4,6,-1,-1,-1],"split_conditions":[1.33E2,6.49875E-2,5.195205E0,2.3249865E0,1.5590868E-2,-1.0238662E-2,-8.170492E-2],"split_indices":[40,0,68,54,0,0,0],"split_type":[0,0,0,0,0,0,0],"sum_hessian":[2.7642689E1,9.157755E0,1.8484934E1,1.3405073E1,5.0798597E0,5.5455766E0,7.859497E0],"tree_param":{"num_deleted":"0","num_feature":"86","num_nodes":"7","size_leaf_vector":"1"}},{"base_weights":[1.5148596E-1,7.3279805E-2,-3.138906E-1,-6.2285814E-2,4.119959E-2,-4.3760844E-2,5.1255997E-2],"categories":[],"categories_nodes":[],"categories_segments":[],"categories_sizes":[],"default_left":[0,0,0,0,0,0,0],"id":11,"left_children":[1,-1,3,-1,5,-1,-1],"loss_changes":[1.1134211E1,0E0,3.4828923E0,0E0,5.1433244E0,0E0,0E0],"parents":[2147483647,0,0,2,2,4,4],"right_children":[2,-1,4,-1,6,-1,-1],"split_conditions":[1.33E2,7.3279805E-2,5.8067095E-1,-6.2285814E-2,3.5932138E0,-4.3760844E-2,5.1255997E-2],"split_indices":[40,0,29,0,13,0,0],"split_type":[0,0,0,0,0,0,0],"sum_hessian":[2.717073E1,9.792255E0,1.7378475E1,6.8603945E0,1.0518081E1,5.144834E0,5.373247E0],"tree_param":{"num_deleted":"0","num_feature":"86","num_nodes":"7","size_leaf_vector":"1"}},{"base_weights":[-1.3664175E-2,5.722636E-1,-5.7200783E-1,-8.221145E-3,8.2696415E-2,-7.0839636E-2,-3.8548755E-3],"categories":[],"categories_nodes":[],"categories_segments":[],"categories_sizes":[],"default_left":[0,0,0,0,0,0,0],"id":12,"left_children":[1,3,5,-1,-1,-1,-1],"loss_changes":[1.0081417E1,5.1010494E0,2.2647758E0,0E0,0E0,0E0,0E0],"parents":[2147483647,0,0,1,1,2,2],"right_children":[2,4,6,-1,-1,-1,-1],"split_conditions":[1.98E2,-1.6422506E-3,5.0605837E-2,-8.221145E-3,8.2696415E-2,-7.0839636E-2,-3.8548755E-3],"split_indices":[40,16,63,0,0,0,0],"split_type":[0,0,0,0,0,0,0],"sum_hessian":[2.6815046E1,1.27978115E1,1.4017234E1,5.563544E0,7.234268E0,7.5470138E0,6.47022E0],"tree_param":{"num_deleted":"0","num_feature":"86","num_nodes":"7","size_leaf_vector":"1"}},{"base_weights":[2.7597718E-2,-4.435014E-1,4.6910542E-1,-7.057276E-2,1.0024037E-2,-1.4737762E-2,7.286734E-2],"categories":[],"categories_nodes":[],"categories_segments":[],"categories_sizes":[],"default_left":[0,0,0,0,0,0,0],"id":13,"left_children":[1,3,5,-1,-1,-1,-1],"loss_changes":[6.154595E0,3.9485064E0,5.03372E0,0E0,0E0,0E0,0E0],"parents":[2147483647,0,0,1,1,2,2],"right_children":[2,4,6,-1,-1,-1,-1],"split_conditions":[4.8805943E-1,2E0,6E0,-7.057276E-2,1.0024037E-2,-1.4737762E-2,7.286734E-2],"split_indices":[51,27,55,0,0,0,0],"split_type":[0,0,0,0,0,0,0],"sum_hessian":[2.555281E1,1.2029031E1,1.3523781E1,6.467174E0,5.5618567E0,5.651702E0,7.8720784E0],"tree_param":{"num_deleted":"0","num_feature":"86","num_nodes":"7","size_leaf_vector":"1"}},{"base_weights":[6.3446243E-3,6.3625924E-2,-4.3977153E-1,-6.687388E-2,8.52413E-4],"categories":[],"categories_nodes":[],"categories_segments":[],"categories_sizes":[],"default_left":[0,0,0,0,0],"id":14,"left_children":[1,-1,3,-1,-1],"loss_changes":[1.1029829E1,0E0,3.7627337E0,0E0,0E0],"parents":[2147483647,0,0,2,2],"right_children":[2,-1,4,-1,-1],"split_conditions":[1.48E2,6.3625924E-2,4.9174167E-2,-6.687388E-2,8.52413E-4],"split_indices":[40,0,63,0,0],"split_type":[0,0,0,0,0],"sum_hessian":[2.7046377E1,9.446565E0,1.7599813E1,8.807726E0,8.7920885E0],"tree_param":{"num_deleted":"0","num_feature":"86","num_nodes":"5","size_leaf_vector":"1"}},{"base_weights":[1.2391418E-1,-4.6640795E-2,3.6571747E-1,6.737172E-1,-8.5869795E-3,9.354669E-3,7.374685E-2],"categories":[],"categories_nodes":[],"categories_segments":[],"categories_sizes":[],"default_left":[0,0,0,0,0,0,0],"id":15,"left_children":[1,-1,3,5,-1,-1,-1],"loss_changes":[5.1443977E0,0E0,3.5775788E0,1.4376698E0,0E0,0E0,0E0],"parents":[2147483647,0,0,2,2,3,3],"right_children":[2,-1,4,6,-1,-1,-1],"split_conditions":[2.1014059E-2,-4.6640795E-2,3.3730841E-3,-1.3960303E-3,-8.5869795E-3,9.354669E-3,7.374685E-2],"split_indices":[64,0,17,3,0,0,0],"split_type":[0,0,0,0,0,0,0],"sum_hessian":[2.5982027E1,5.5865636E0,2.0395462E1,1.22230215E1,8.1724415E0,5.0476446E0,7.1753764E0],"tree_param":{"num_deleted":"0","num_feature":"86","num_nodes":"7","size_leaf_vector":"1"}},{"base_weights":[-6.976483E-2,4.428108E-2,-4.540354E-1,-6.46131E-4,-6.293836E-2],"categories":[],"categories_nodes":[],"categories_segments":[],"categories_sizes":[],"default_left":[0,0,0,0,0],"id":16,"left_children":[1,-1,3,-1,-1],"loss_changes":[6.8962374E0,0E0,2.4175718E0,0E0,0E0],"parents":[2147483647,0,0,2,2],"right_children":[2,-1,4,-1,-1],"split_conditions":[1.33E2,4.428108E-2,1E0,-6.46131E-4,-6.293836E-2],"split_indices":[40,0,50,0,0],"split_type":[0,0,0,0,0],"sum_hessian":[2.481941E1,8.83221E0,1.5987201E1,8.091395E0,7.895805E0],"tree_param":{"num_deleted":"0","num_feature":"86","num_nodes":"5","size_leaf_vector":"1"}},{"base_weights":[7.4886265E-3,3.797276E-1,-5.311962E-2,8.335459E-1,-3.080372E-2,2.4525216E-2,8.4414884E-2],"categories":[],"categories_nodes":[],"categories_segments":[],"categories_sizes":[],"default_left":[0,0,0,0,0,0,0],"id":17,"left_children":[1,3,-1,5,-1,-1,-1],"loss_changes":[7.2108774E0,7.385153E0,0E0,4.428587E-1,0E0,0E0,0E0],"parents":[2147483647,0,0,1,1,3,3],"right_children":[2,4,-1,6,-1,-1,-1],"split_conditions":[1.4567256E0,2.3249865E0,-5.311962E-2,-7.842112E-1,-3.080372E-2,2.4525216E-2,8.4414884E-2],"split_indices":[8,54,0,13,0,0,0],"split_type":[0,0,0,0,0,0,0],"sum_hessian":[2.5172699E1,1.7041471E1,8.131227E0,1.082834E1,6.2131324E0,5.017767E0,5.8105726E0],"tree_param":{"num_deleted":"0","num_feature":"86","num_nodes":"7","size_leaf_vector":"1"}},{"base_weights":[2.2041693E-2,-4.3230584E-1,3.9506438E-1,-6.758247E-2,5.2405084E-3,6.787491E-2,-1.8493196E-2],"categories":[],"categories_nodes":[],"categories_segments":[],"categories_sizes":[],"default_left":[0,0,0,0,0,0,0],"id":18,"left_children":[1,3,5,-1,-1,-1,-1],"loss_changes":[4.988923E0,3.0107188E0,5.262572E0,0E0,0E0,0E0,0E0],"parents":[2147483647,0,0,1,1,2,2],"right_children":[2,4,6,-1,-1,-1,-1],"split_conditions":[4.8805943E-1,3.9047398E1,3.7390006E0,-6.758247E-2,5.2405084E-3,6.787491E-2,-1.8493196E-2],"split_indices":[51,10,26,0,0,0,0],"split_type":[0,0,0,0,0,0,0],"sum_hessian":[2.5486813E1,1.0984917E1,1.4501897E1,5.5746007E0,5.410316E0,8.278148E0,6.223749E0],"tree_param":{"num_deleted":"0","num_feature":"86","num_nodes":"7","size_leaf_vector":"1"}},{"base_weights":[4.4242743E-2,3.6843127E-1,-4.4265438E-2,5.986328E-2,-1.5512162E-2],"categories":[],"categories_nodes":[],"categories_segments":[],"categories_sizes":[],"default_left":[0,0,0,0,0],"id":19,"left_children":[1,3,-1,-1,-1],"loss_changes":[5.1544027E0,4.215234E0,0E0,0E0,0E0],"parents":[2147483647,0,0,1,1],"right_children":[2,4,-1,-1,-1],"split_conditions":[6E-1,3.6650825E0,-4.4265438E-2,5.986328E-2,-1.5512162E-2],"split_indices":[33,26,0,0,0],"split_type":[0,0,0,0,0],"sum_hessian":[2.2788826E1,1.55963955E1,7.1924305E0,9.23214E0,6.3642564E0],"tree_param":{"num_deleted":"0","num_feature":"86","num_nodes":"5","size_leaf_vector":"1"}},{"base_weights":[-4.3843966E-2,4.1335214E-2,-4.075932E-1,-5.222014E-2,-3.0187814E-4],"categories":[],"categories_nodes":[],"categories_segments":[],"categories_sizes":[],"default_left":[0,0,0,0,0],"id":20,"left_children":[1,-1,3,-1,-1],"loss_changes":[5.746518E0,0E0,1.5186689E0,0E0,0E0],"parents":[2147483647,0,0,2,2],"right_children":[2,-1,4,-1,-1],"split_conditions":[1.48E2,4.1335214E-2,5.9E-1,-5.222014E-2,-3.0187814E-4],"split_indices":[40,0,43,0,0],"split_type":[0,0,0,0,0],"sum_hessian":[2.4278616E1,8.899268E0,1.5379349E1,8.340218E0,7.039131E0],"tree_param":{"num_deleted":"0","num_feature":"86","num_nodes":"5","size_leaf_vector":"1"}},{"base_weights":[-3.239284E-2,4.3728513E-1,-4.4934186E-1,6.863586E-2,-5.0867223E-3,-6.542902E-2,-0E0],"categories":[],"categories_nodes":[],"categories_segments":[],"categories_sizes":[],"default_left":[0,0,0,0,0,0,0],"id":21,"left_children":[1,3,5,-1,-1,-1,-1],"loss_changes":[5.2228017E0,2.931557E0,2.2285275E0,0E0,0E0,0E0,0E0],"parents":[2147483647,0,0,1,1,2,2],"right_children":[2,4,6,-1,-1,-1,-1],"split_conditions":[1.98E2,7.3758457E-3,5.574476E-3,6.863586E-2,-5.0867223E-3,-6.542902E-2,-0E0],"split_indices":[40,0,1,0,0,0,0],"split_type":[0,0,0,0,0,0,0],"sum_hessian":[2.2644638E1,1.0264731E1,1.2379908E1,5.1296406E0,5.135091E0,5.672225E0,6.7076826E0],"tree_param":{"num_deleted":"0","num_feature":"86","num_nodes":"7","size_leaf_vector":"1"}},{"base_weights":[-1.5254344E-1,4.094979E-2,-5.644928E-1,-6.866843E-2,-4.5197764E-3],"categories":[],"categories_nodes":[],"categories_segments":[],"categories_sizes":[],"default_left":[0,0,0,0,0],"id":22,"left_children":[1,-1,3,-1,-1],"loss_changes":[6.546918E0,0E0,1.8164043E0,0E0,0E0],"parents":[2147483647,0,0,2,2],"right_children":[2,-1,4,-1,-1],"split_conditions":[1.48E2,4.094979E-2,5.050509E-2,-6.866843E-2,-4.5197764E-3],"split_indices":[40,0,63,0,0],"split_type":[0,0,0,0,0],"sum_hessian":[1.9750502E1,7.094581E0,1.265592E1,6.769815E0,5.886105E0],"tree_param":{"num_deleted":"0","num_feature":"86","num_nodes":"5","size_leaf_vector":"1"}},{"base_weights":[7.110259E-2,4.181569E-1,-3.318883E-2,6.2096775E-2,-1.1293178E-2],"categories":[],"categories_nodes":[],"categories_segments":[],"categories_sizes":[],"default_left":[0,0,0,0,0],"id":23,"left_children":[1,3,-1,-1,-1],"loss_changes":[4.2868185E0,3.409793E0,0E0,0E0,0E0],"parents":[2147483647,0,0,1,1],"right_children":[2,4,-1,-1,-1],"split_conditions":[2.3249865E0,2E0,-3.318883E-2,6.2096775E-2,-1.1293178E-2],"split_indices":[54,35,0,0,0],"split_type":[0,0,0,0,0],"sum_hessian":[2.1354559E1,1.2980688E1,8.373871E0,7.7684784E0,5.2122097E0],"tree_param":{"num_deleted":"0","num_feature":"86","num_nodes":"5","size_leaf_vector":"1"}},{"base_weights":[9.503603E-3,2.95533E-1,-3.8644686E-2,-9.352863E-2,7.025499E-2,-3.546454E-2,1.8800525E-2],"categories":[],"categories_nodes":[],"categories_segments":[],"categories_sizes":[],"default_left":[0,0,0,0,0,0,0],"id":24,"left_children":[1,3,-1,5,-1,-1,-1],"loss_changes":[3.8676636E0,4.4718633E0,0E0,1.6808653E0,0E0,0E0,0E0],"parents":[2147483647,0,0,1,1,3,3],"right_children":[2,4,-1,6,-1,-1,-1],"split_conditions":[1.4567256E0,1.1329107E0,-3.8644686E-2,2.875034E-1,7.025499E-2,-3.546454E-2,1.8800525E-2],"split_indices":[8,59,0,51,0,0,0],"split_type":[0,0,0,0,0,0,0],"sum_hessian":[2.3824913E1,1.5963839E1,7.8610754E0,1.0270132E1,5.6937065E0,5.078121E0,5.1920114E0],"tree_param":{"num_deleted":"0","num_feature":"86","num_nodes":"7","size_leaf_vector":"1"}},{"base_weights":[-0E0,-2.6369676E-1,5.6012757E-2,-6.345689E-1,2.5744906E-2,-6.596073E-2,-1.7623289E-2],"categories":[],"categories_nodes":[],"categories_segments":[],"categories_sizes":[],"default_left":[0,0,0,0,0,0,0],"id":25,"left_children":[1,3,-1,5,-1,-1,-1],"loss_changes":[4.782988E0,4.5122266E0,0E0,2.9053545E-1,0E0,0E0,0E0],"parents":[2147483647,0,0,1,1,3,3],"right_children":[2,4,-1,6,-1,-1,-1],"split_conditions":[4.756785E0,8.0876493E-1,5.6012757E-2,2.5980365E-1,2.5744906E-2,-6.596073E-2,-1.7623289E-2],"split_indices":[59,29,0,51,0,0,0],"split_type":[0,0,0,0,0,0,0],"sum_hessian":[2.1603867E1,1.6466505E1,5.137363E0,1.02920885E1,6.174416E0,5.202296E0,5.0897927E0],"tree_param":{"num_deleted":"0","num_feature":"86","num_nodes":"7","size_leaf_vector":"1"}},{"base_weights":[4.7926432E-3,-3.1020585E-1,3.0547395E-1,-6.519868E-2,1.8701041E-2,5.6683116E-2,-1.8753653E-2],"categories":[],"categories_nodes":[],"categories_segments":[],"categories_sizes":[],"default_left":[0,0,0,0,0,0,0],"id":26,"left_children":[1,3,5,-1,-1,-1,-1],"loss_changes":[2.5724988E0,4.069971E0,3.6026103E0,0E0,0E0,0E0,0E0],"parents":[2147483647,0,0,1,1,2,2],"right_children":[2,4,6,-1,-1,-1,-1],"split_conditions":[3.3759113E-2,5.123396E1,3.3045507E-3,-6.519868E-2,1.8701041E-2,5.6683116E-2,-1.8753653E-2],"split_indices":[64,2,17,0,0,0,0],"split_type":[0,0,0,0,0,0,0],"sum_hessian":[2.317468E1,1.0799679E1,1.2375002E1,5.3708496E0,5.4288297E0,7.0458035E0,5.3291984E0],"tree_param":{"num_deleted":"0","num_feature":"86","num_nodes":"7","size_leaf_vector":"1"}},{"base_weights":[4.678179E-2,-4.0774745E-1,4.4268325E-1,2.89788E-3,-6.1785392E-2,-1.4187134E-2,6.84928E-2],"categories":[],"categories_nodes":[],"categories_segments":[],"categories_sizes":[],"default_left":[0,0,0,0,0,0,0],"id":27,"left_children":[1,3,5,-1,-1,-1,-1],"loss_changes":[4.79101E0,2.2387795E0,4.2087536E0,0E0,0E0,0E0,0E0],"parents":[2147483647,0,0,1,1,2,2],"right_children":[2,4,6,-1,-1,-1,-1],"split_conditions":[2.9482073E-1,1.54E2,-2.096092E-3,2.89788E-3,-6.1785392E-2,-1.4187134E-2,6.84928E-2],"split_indices":[29,40,16,0,0,0,0],"split_type":[0,0,0,0,0,0,0],"sum_hessian":[2.2559893E1,1.0121697E1,1.2438194E1,5.0050154E0,5.116682E0,5.1428967E0,7.2952976E0],"tree_param":{"num_deleted":"0","num_feature":"86","num_nodes":"7","size_leaf_vector":"1"}},{"base_weights":[1.1606776E-2,4.368315E-1,-3.3152166E-1,-1.0378378E-2,7.2517835E-2,-5.7028122E-2,7.960946E-3],"categories":[],"categories_nodes":[],"categories_segments":[],"categories_sizes":[],"default_left":[0,0,0,0,0,0,0],"id":28,"left_children":[1,3,5,-1,-1,-1,-1],"loss_changes":[3.9889102E0,3.788649E0,2.7351694E0,0E0,0E0,0E0,0E0],"parents":[2147483647,0,0,1,1,2,2],"right_children":[2,4,6,-1,-1,-1,-1],"split_conditions":[6.47541E-1,1.5453984E-4,3E-1,-1.0378378E-2,7.2517835E-2,-5.7028122E-2,7.960946E-3],"split_indices":[30,18,44,0,0,0,0],"split_type":[0,0,0,0,0,0,0],"sum_hessian":[2.3137156E1,1.0479049E1,1.2658108E1,5.1160054E0,5.363043E0,6.391761E0,6.266347E0],"tree_param":{"num_deleted":"0","num_feature":"86","num_nodes":"7","size_leaf_vector":"1"}},{"base_weights":[-7.612088E-2,2.436976E-1,-3.8411267E-2,4.4301145E-2,-9.053758E-3],"categories":[],"categories_nodes":[],"categories_segments":[],"categories_sizes":[],"default_left":[0,0,0,0,0],"id":29,"left_children":[1,3,-1,-1,-1],"loss_changes":[3.3303368E0,1.8045624E0,0E0,0E0,0E0],"parents":[2147483647,0,0,1,1],"right_children":[2,4,-1,-1,-1],"split_conditions":[1E0,1.4505826E0,-3.8411267E-2,4.4301145E-2,-9.053758E-3],"split_indices":[50,54,0,0,0],"split_type":[0,0,0,0,0],"sum_hessian":[2.1413929E1,1.1980988E1,9.432941E0,6.2702546E0,5.7107334E0],"tree_param":{"num_deleted":"0","num_feature":"86","num_nodes":"5","size_leaf_vector":"1"}},{"base_weights":[1.3565883E-1,-2.7959935E-2,3.9465812E-1,6.698872E-2,-3.0442837E-3],"categories":[],"categories_nodes":[],"categories_segments":[],"categories_sizes":[],"default_left":[0,0,0,0,0],"id":30,"left_children":[1,-1,3,-1,-1],"loss_changes":[3.2766926E0,0E0,3.529762E0,0E0,0E0],"parents":[2147483647,0,0,2,2],"right_children":[2,-1,4,-1,-1],"split_conditions":[-2.3134595E-3,-2.7959935E-2,6.47541E-1,6.698872E-2,-3.0442837E-3],"split_indices":[16,0,30,0,0],"split_type":[0,0,0,0,0],"sum_hessian":[2.1773548E1,6.931779E0,1.484177E1,6.754429E0,8.087341E0],"tree_param":{"num_deleted":"0","num_feature":"86","num_nodes":"5","size_leaf_vector":"1"}},{"base_weights":[-4.0955324E-2,-4.2284617E-1,3.1061104E-1,-6.0398806E-2,-0E0,-4.6592224E-3,5.0258934E-2],"categories":[],"categories_nodes":[],"categories_segments":[],"categories_sizes":[],"default_left":[0,0,0,0,0,0,0],"id":31,"left_children":[1,3,5,-1,-1,-1,-1],"loss_changes":[3.4848154E0,1.8469453E0,1.7800001E0,0E0,0E0,0E0,0E0],"parents":[2147483647,0,0,1,1,2,2],"right_children":[2,4,6,-1,-1,-1,-1],"split_conditions":[4.8805943E-1,3.806361E1,4.6E-1,-6.0398806E-2,-0E0,-4.6592224E-3,5.0258934E-2],"split_indices":[51,10,44,0,0,0,0],"split_type":[0,0,0,0,0,0,0],"sum_hessian":[2.174843E1,1.0639281E1,1.110915E1,5.2049413E0,5.43434E0,5.4587727E0,5.6503773E0],"tree_param":{"num_deleted":"0","num_feature":"86","num_nodes":"7","size_leaf_vector":"1"}},{"base_weights":[-7.244371E-2,3.196251E-2,-4.1263023E-1,-7.7921816E-4,-6.241067E-2],"categories":[],"categories_nodes":[],"categories_segments":[],"categories_sizes":[],"default_left":[0,0,0,0,0],"id":32,"left_children":[1,-1,3,-1,-1],"loss_changes":[4.1077576E0,0E0,1.9707737E0,0E0,0E0],"parents":[2147483647,0,0,2,2],"right_children":[2,-1,4,-1,-1],"split_conditions":[6.47541E-1,3.196251E-2,1.0092169E0,-7.7921816E-4,-6.241067E-2],"split_indices":[30,0,15,0,0],"split_type":[0,0,0,0,0],"sum_hessian":[2.1505983E1,8.492591E0,1.3013392E1,7.576586E0,5.436807E0],"tree_param":{"num_deleted":"0","num_feature":"86","num_nodes":"5","size_leaf_vector":"1"}},{"base_weights":[-0E0,-3.091533E-2,3.5972565E-1,5.3285126E-2,-7.413387E-4],"categories":[],"categories_nodes":[],"categories_segments":[],"categories_sizes":[],"default_left":[0,0,0,0,0],"id":33,"left_children":[1,-1,3,-1,-1],"loss_changes":[3.1271281E0,0E0,1.5742588E0,0E0,0E0],"parents":[2147483647,0,0,2,2],"right_children":[2,-1,4,-1,-1],"split_conditions":[4.8805943E-1,-3.091533E-2,2.5849579E-2,5.3285126E-2,-7.413387E-4],"split_indices":[51,0,6,0,0],"split_type":[0,0,0,0,0],"sum_hessian":[1.8551868E1,8.477233E0,1.0074636E1,5.069102E0,5.005535E0],"tree_param":{"num_deleted":"0","num_feature":"86","num_nodes":"5","size_leaf_vector":"1"}},{"base_weights":[-1.01302285E-2,-2.8017846E-1,3.6469493E-2,-5.206732E-2,1.7438259E-2],"categories":[],"categories_nodes":[],"categories_segments":[],"categories_sizes":[],"default_left":[0,0,0,0,0],"id":34,"left_children":[1,3,-1,-1,-1],"loss_changes":[3.0384524E0,3.351849E0,0E0,0E0,0E0],"parents":[2147483647,0,0,1,1],"right_children":[2,4,-1,-1,-1],"split_conditions":[2.881856E1,7E-1,3.6469493E-2,-5.206732E-2,1.7438259E-2],"split_indices":[11,76,0,0,0],"split_type":[0,0,0,0,0],"sum_hessian":[2.0533861E1,1.3912693E1,6.621168E0,7.9709644E0,5.941728E0],"tree_param":{"num_deleted":"0","num_feature":"86","num_nodes":"5","size_leaf_vector":"1"}},{"base_weights":[-3.0781627E-2,2.4368715E-1,-4.9918674E-2,4.3354213E-2,-2.255153E-2],"categories":[],"categories_nodes":[],"categories_segments":[],"categories_sizes":[],"default_left":[0,0,0,0,0],"id":35,"left_children":[1,3,-1,-1,-1],"loss_changes":[4.236422E0,3.0679555E0,0E0,0E0,0E0],"parents":[2147483647,0,0,1,1],"right_children":[2,4,-1,-1,-1],"split_conditions":[6E-1,3.7390006E0,-4.9918674E-2,4.3354213E-2,-2.255153E-2],"split_indices":[33,26,0,0,0],"split_type":[0,0,0,0,0],"sum_hessian":[2.1451221E1,1.5125479E1,6.325743E0,9.974215E0,5.1512647E0],"tree_param":{"num_deleted":"0","num_feature":"86","num_nodes":"5","size_leaf_vector":"1"}},{"base_weights":[4.4495866E-2,-2.8590634E-1,3.29958E-2,-5.086642E-2,9.539523E-3],"categories":[],"categories_nodes":[],"categories_segments":[],"categories_sizes":[],"default_left":[0,0,0,0,0],"id":36,"left_children":[1,3,-1,-1,-1],"loss_changes":[3.032146E0,2.107975E0,0E0,0E0,0E0],"parents":[2147483647,0,0,1,1],"right_children":[2,4,-1,-1,-1],"split_conditions":[5.4368088E1,3.493548E-2,3.29958E-2,-5.086642E-2,9.539523E-3],"split_indices":[2,64,0,0,0],"split_type":[0,0,0,0,0],"sum_hessian":[2.0688942E1,1.0706063E1,9.982879E0,5.530854E0,5.175209E0],"tree_param":{"num_deleted":"0","num_feature":"86","num_nodes":"5","size_leaf_vector":"1"}},{"base_weights":[-9.8831706E-2,-4.1496217E-2,2.3906566E-1,4.7223117E-2,-1.66469E-2],"categories":[],"categories_nodes":[],"categories_segments":[],"categories_sizes":[],"default_left":[0,0,0,0,0],"id":37,"left_children":[1,-1,3,-1,-1],"loss_changes":[3.6510808E0,0E0,2.5490136E0,0E0,0E0],"parents":[2147483647,0,0,2,2],"right_children":[2,-1,4,-1,-1],"split_conditions":[4.8805943E-1,-4.1496217E-2,3.434777E0,4.7223117E-2,-1.66469E-2],"split_indices":[51,0,26,0,0],"split_type":[0,0,0,0,0],"sum_hessian":[2.139539E1,9.459137E0,1.1936253E1,6.7024174E0,5.233835E0],"tree_param":{"num_deleted":"0","num_feature":"86","num_nodes":"5","size_leaf_vector":"1"}},{"base_weights":[-1.9508053E-2,-2.753329E-1,3.8522035E-2,-4.455962E-2,1.6719038E-2],"categories":[],"categories_nodes":[],"categories_segments":[],"categories_sizes":[],"default_left":[0,0,0,0,0],"id":38,"left_children":[1,3,-1,-1,-1],"loss_changes":[3.0203032E0,2.5495486E0,0E0,0E0,0E0],"parents":[2147483647,0,0,1,1],"right_children":[2,4,-1,-1,-1],"split_conditions":[3.0183855E1,2E0,3.8522035E-2,-4.455962E-2,1.6719038E-2],"split_indices":[11,27,0,0,0],"split_type":[0,0,0,0,0],"sum_hessian":[1.9977463E1,1.4217692E1,5.7597704E0,9.191555E0,5.0261383E0],"tree_param":{"num_deleted":"0","num_feature":"86","num_nodes":"5","size_leaf_vector":"1"}},{"base_weights":[-4.7622523E-3,3.8578454E-2,-3.551686E-1,-6.664274E-2,1.7495124E-2],"categories":[],"categories_nodes":[],"categories_segments":[],"categories_sizes":[],"default_left":[0,0,0,0,0],"id":39,"left_children":[1,-1,3,-1,-1],"loss_changes":[4.010943E0,0E0,4.4266796E0,0E0,0E0],"parents":[2147483647,0,0,2,2],"right_children":[2,-1,4,-1,-1],"split_conditions":[6.47541E-1,3.8578454E-2,2.9288088E1,-6.664274E-2,1.7495124E-2],"split_indices":[30,0,11,0,0],"split_type":[0,0,0,0,0],"sum_hessian":[1.9720568E1,7.578897E0,1.214167E1,6.4173126E0,5.724357E0],"tree_param":{"num_deleted":"0","num_feature":"86","num_nodes":"5","size_leaf_vector":"1"}},{"base_weights":[-6.638112E-2,2.6257846E-1,-3.8099222E-2,4.7476977E-2,-1.2677852E-2],"categories":[],"categories_nodes":[],"categories_segments":[],"categories_sizes":[],"default_left":[0,0,0,0,0],"id":40,"left_children":[1,3,-1,-1,-1],"loss_changes":[3.3579779E0,2.1864219E0,0E0,0E0,0E0],"parents":[2147483647,0,0,1,1],"right_children":[2,4,-1,-1,-1],"split_conditions":[9.999725E-1,1.5932415E1,-3.8099222E-2,4.7476977E-2,-1.2677852E-2],"split_indices":[15,12,0,0,0],"split_type":[0,0,0,0,0],"sum_hessian":[2.057542E1,1.1406839E1,9.168582E0,6.3277335E0,5.0791054E0],"tree_param":{"num_deleted":"0","num_feature":"86","num_nodes":"5","size_leaf_vector":"1"}},{"base_weights":[-0E0,2.7480838E-1,-3.45988E-2,-7.633218E-3,4.8523415E-2],"categories":[],"categories_nodes":[],"categories_segments":[],"categories_sizes":[],"default_left":[0,0,0,0,0],"id":41,"left_children":[1,3,-1,-1,-1],"loss_changes":[2.9195454E0,2.064486E0,0E0,0E0,0E0],"parents":[2147483647,0,0,1,1],"right_children":[2,4,-1,-1,-1],"split_conditions":[3.3730841E-3,3.7433156E-1,-3.45988E-2,-7.633218E-3,4.8523415E-2],"split_indices":[17,21,0,0,0],"split_type":[0,0,0,0,0],"sum_hessian":[2.0325222E1,1.2618639E1,7.706583E0,6.2093096E0,6.4093294E0],"tree_param":{"num_deleted":"0","num_feature":"86","num_nodes":"5","size_leaf_vector":"1"}},{"base_weights":[-2.554184E-1,3.09731E-2,-5.2335262E-2,-3.583794E-2,4.2816658E-2],"categories":[],"categories_nodes":[],"categories_segments":[],"categories_sizes":[],"default_left":[0,0,0,0,0],"id":42,"left_children":[1,3,-1,-1,-1],"loss_changes":[2.6521516E0,3.8452437E0,0E0,0E0,0E0],"parents":[2147483647,0,0,1,1],"right_children":[2,4,-1,-1,-1],"split_conditions":[3.3730841E-3,3.7433156E-1,-5.2335262E-2,-3.583794E-2,4.2816658E-2],"split_indices":[17,21,0,0,0],"split_type":[0,0,0,0,0],"sum_hessian":[1.9230772E1,1.1828265E1,7.4025073E0,5.8755608E0,5.9527044E0],"tree_param":{"num_deleted":"0","num_feature":"86","num_nodes":"5","size_leaf_vector":"1"}},{"base_weights":[-5.3292154E-3,-3.3880897E-2,3.537666E-1,6.0630026E-3,3.9085627E-2],"categories":[],"categories_nodes":[],"categories_segments":[],"categories_sizes":[],"default_left":[0,0,0,0,0],"id":43,"left_children":[1,-1,3,-1,-1],"loss_changes":[3.534352E0,0E0,2.1447253E-1,0E0,0E0],"parents":[2147483647,0,0,2,2],"right_children":[2,-1,4,-1,-1],"split_conditions":[4.5786726E-1,-3.3880897E-2,4.5226327E-1,6.0630026E-3,3.9085627E-2],"split_indices":[51,0,67,0,0],"split_type":[0,0,0,0,0],"sum_hessian":[1.9401316E1,9.18346E0,1.02178545E1,5.0839996E0,5.133855E0],"tree_param":{"num_deleted":"0","num_feature":"86","num_nodes":"5","size_leaf_vector":"1"}},{"base_weights":[2.6634118E-2,-3.2857824E-2,3.5106885E-1,6.473576E-2,-5.4236413E-3],"categories":[],"categories_nodes":[],"categories_segments":[],"categories_sizes":[],"default_left":[0,0,0,0,0],"id":44,"left_children":[1,-1,3,-1,-1],"loss_changes":[3.4280775E0,0E0,3.0662465E0,0E0,0E0],"parents":[2147483647,0,0,2,2],"right_children":[2,-1,4,-1,-1],"split_conditions":[1.476378E0,-3.2857824E-2,6.942305E-3,6.473576E-2,-5.4236413E-3],"split_indices":[13,0,19,0,0],"split_type":[0,0,0,0,0],"sum_hessian":[2.0253195E1,8.005159E0,1.2248035E1,5.3017554E0,6.9462795E0],"tree_param":{"num_deleted":"0","num_feature":"86","num_nodes":"5","size_leaf_vector":"1"}},{"base_weights":[-4.377218E-2,2.1513706E-1,-3.169372E-2,-3.3944433E-3,3.6189802E-2],"categories":[],"categories_nodes":[],"categories_segments":[],"categories_sizes":[],"default_left":[0,0,0,0,0],"id":45,"left_children":[1,3,-1,-1,-1],"loss_changes":[2.269767E0,1.0000894E0,0E0,0E0,0E0],"parents":[2147483647,0,0,1,1],"right_children":[2,4,-1,-1,-1],"split_conditions":[2.3049562E0,1.476378E0,-3.169372E-2,-3.3944433E-3,3.6189802E-2],"split_indices":[54,13,0,0,0],"split_type":[0,0,0,0,0],"sum_hessian":[2.041349E1,1.1726034E1,8.687457E0,5.8032E0,5.9228344E0],"tree_param":{"num_deleted":"0","num_feature":"86","num_nodes":"5","size_leaf_vector":"1"}},{"base_weights":[2.701755E-4,2.7001557E-1,-3.306518E-2,5.0152678E-2,-2.416999E-3],"categories":[],"categories_nodes":[],"categories_segments":[],"categories_sizes":[],"default_left":[0,0,0,0,0],"id":46,"left_children":[1,3,-1,-1,-1],"loss_changes":[2.5347574E0,1.7622597E0,0E0,0E0,0E0],"parents":[2147483647,0,0,1,1],"right_children":[2,4,-1,-1,-1],"split_conditions":[4E0,-1.5865089E0,-3.306518E-2,5.0152678E-2,-2.416999E-3],"split_indices":[42,60,0,0,0],"split_type":[0,0,0,0,0],"sum_hessian":[1.9105133E1,1.2422592E1,6.6825404E0,5.137943E0,7.2846494E0],"tree_param":{"num_deleted":"0","num_feature":"86","num_nodes":"5","size_leaf_vector":"1"}},{"base_weights":[-0E0,-3.61716E-2,3.4585053E-1,5.1313132E-2,-2.4438468E-3],"categories":[],"categories_nodes":[],"categories_segments":[],"categories_sizes":[],"default_left":[0,0,0,0,0],"id":47,"left_children":[1,-1,3,-1,-1],"loss_changes":[3.6541886E0,0E0,1.6755685E0,0E0,0E0],"parents":[2147483647,0,0,2,2],"right_children":[2,-1,4,-1,-1],"split_conditions":[4.8805943E-1,-3.61716E-2,3.434777E0,5.1313132E-2,-2.4438468E-3],"split_indices":[51,0,26,0,0],"split_type":[0,0,0,0,0],"sum_hessian":[1.9294054E1,8.232265E0,1.1061788E1,5.853915E0,5.2078724E0],"tree_param":{"num_deleted":"0","num_feature":"86","num_nodes":"5","size_leaf_vector":"1"}},{"base_weights":[-0E0,2.8051935E-2,-3.2789508E-1,-4.7666866E-2,-0E0],"categories":[],"categories_nodes":[],"categories_segments":[],"categories_sizes":[],"default_left":[0,0,0,0,0],"id":48,"left_children":[1,-1,3,-1,-1],"loss_changes":[2.6470888E0,0E0,1.2230184E0,0E0,0E0],"parents":[2147483647,0,0,2,2],"right_children":[2,-1,4,-1,-1],"split_conditions":[1E0,2.8051935E-2,2.8001352E1,-4.7666866E-2,-0E0],"split_indices":[30,0,11,0,0],"split_type":[0,0,0,0,0],"sum_hessian":[1.9056839E1,8.889384E0,1.0167456E1,5.129744E0,5.037711E0],"tree_param":{"num_deleted":"0","num_feature":"86","num_nodes":"5","size_leaf_vector":"1"}},{"base_weights":[6.470116E-2,4.0289644E-2,-1.9085917E-1,1.5718637E-2,-5.111056E-2],"categories":[],"categories_nodes":[],"categories_segments":[],"categories_sizes":[],"default_left":[0,0,0,0,0],"id":49,"left_children":[1,-1,3,-1,-1],"loss_changes":[2.5121047E0,0E0,2.7370818E0,0E0,0E0],"parents":[2147483647,0,0,2,2],"right_children":[2,-1,4,-1,-1],"split_conditions":[8.8278633E-1,4.0289644E-2,1.9605567E0,1.5718637E-2,-5.111056E-2],"split_indices":[14,0,54,0,0],"split_type":[0,0,0,0,0],"sum_hessian":[1.7845125E1,6.284396E0,1.1560729E1,6.4433517E0,5.1173778E0],"tree_param":{"num_deleted":"0","num_feature":"86","num_nodes":"5","size_leaf_vector":"1"}},{"base_weights":[-0E0,2.3073849E-1,-3.1501684E-2,-2.0665323E-2,4.792518E-2],"categories":[],"categories_nodes":[],"categories_segments":[],"categories_sizes":[],"default_left":[0,0,0,0,0],"id":50,"left_children":[1,3,-1,-1,-1],"loss_changes":[2.1508942E0,2.9676628E0,0E0,0E0,0E0],"parents":[2147483647,0,0,1,1],"right_children":[2,4,-1,-1,-1],"split_conditions":[7.3304824E-3,6.051353E-4,-3.1501684E-2,-2.0665323E-2,4.792518E-2],"split_indices":[19,18,0,0,0],"split_type":[0,0,0,0,0],"sum_hessian":[1.9188976E1,1.2189284E1,6.999691E0,5.1431646E0,7.04612E0],"tree_param":{"num_deleted":"0","num_feature":"86","num_nodes":"5","size_leaf_vector":"1"}},{"base_weights":[-0E0,2.5237706E-1,-3.0918578E-2,4.8008755E-2,-7.810172E-3],"categories":[],"categories_nodes":[],"categories_segments":[],"categories_sizes":[],"default_left":[0,0,0,0,0],"id":51,"left_children":[1,3,-1,-1,-1],"loss_changes":[2.2069244E0,2.0008812E0,0E0,0E0,0E0],"parents":[2147483647,0,0,1,1],"right_children":[2,4,-1,-1,-1],"split_conditions":[3.7390006E0,5.5E-1,-3.0918578E-2,4.8008755E-2,-7.810172E-3],"split_indices":[26,33,0,0,0],"split_type":[0,0,0,0,0],"sum_hessian":[1.8942028E1,1.2238713E1,6.703314E0,5.8523383E0,6.386375E0],"tree_param":{"num_deleted":"0","num_feature":"86","num_nodes":"5","size_leaf_vector":"1"}},{"base_weights":[4.013136E-3,-4.0506024E-2,2.8318322E-1,5.1290266E-2,-9.575545E-3],"categories":[],"categories_nodes":[],"categories_segments":[],"categories_sizes":[],"default_left":[0,0,0,0,0],"id":52,"left_children":[1,-1,3,-1,-1],"loss_changes":[3.1539996E0,0E0,2.4694457E0,0E0,0E0],"parents":[2147483647,0,0,2,2],"right_children":[2,-1,4,-1,-1],"split_conditions":[4.5587868E1,-4.0506024E-2,7.3304824E-3,5.1290266E-2,-9.575545E-3],"split_indices":[2,0,19,0,0],"split_type":[0,0,0,0,0],"sum_hessian":[1.859487E1,5.619725E0,1.2975145E1,6.6387258E0,6.33642E0],"tree_param":{"num_deleted":"0","num_feature":"86","num_nodes":"5","size_leaf_vector":"1"}},{"base_weights":[-2.0218782E-2,2.780228E-1,-3.767172E-2,-1.538026E-2,5.3168677E-2],"categories":[],"categories_nodes":[],"categories_segments":[],"categories_sizes":[],"default_left":[0,0,0,0,0],"id":53,"left_children":[1,3,-1,-1,-1],"loss_changes":[3.1111124E0,2.8251054E0,0E0,0E0,0E0],"parents":[2147483647,0,0,1,1],"right_children":[2,4,-1,-1,-1],"split_conditions":[3.3730841E-3,3.1650025E-2,-3.767172E-2,-1.538026E-2,5.3168677E-2],"split_indices":[17,64,0,0,0],"split_type":[0,0,0,0,0],"sum_hessian":[1.8767744E1,1.135438E1,7.413365E0,5.22617E0,6.1282096E0],"tree_param":{"num_deleted":"0","num_feature":"86","num_nodes":"5","size_leaf_vector":"1"}},{"base_weights":[1.3222569E-2,2.8958398E-1,-2.9253578E-2,-1.227636E-3,4.8159022E-2],"categories":[],"categories_nodes":[],"categories_segments":[],"categories_sizes":[],"default_left":[0,0,0,0,0],"id":54,"left_children":[1,3,-1,-1,-1],"loss_changes":[2.2782488E0,1.4434807E0,0E0,0E0,0E0],"parents":[2147483647,0,0,1,1],"right_children":[2,4,-1,-1,-1],"split_conditions":[4E0,7.217916E-1,-2.9253578E-2,-1.227636E-3,4.8159022E-2],"split_indices":[42,5,0,0,0],"split_type":[0,0,0,0,0],"sum_hessian":[1.7952883E1,1.1111461E1,6.8414226E0,6.0994277E0,5.0120335E0],"tree_param":{"num_deleted":"0","num_feature":"86","num_nodes":"5","size_leaf_vector":"1"}},{"base_weights":[7.74646E-2,-2.5463555E-2,3.7730786E-1,-8.763771E-4,5.4851346E-2],"categories":[],"categories_nodes":[],"categories_segments":[],"categories_sizes":[],"default_left":[0,0,0,0,0],"id":55,"left_children":[1,-1,3,-1,-1],"loss_changes":[2.6007454E0,0E0,1.7233512E0,0E0,0E0],"parents":[2147483647,0,0,2,2],"right_children":[2,-1,4,-1,-1],"split_conditions":[6E0,-2.5463555E-2,5.0144255E-1,-8.763771E-4,5.4851346E-2],"split_indices":[55,0,51,0,0],"split_type":[0,0,0,0,0],"sum_hessian":[1.7743298E1,7.1640153E0,1.0579282E1,5.10584E0,5.4734416E0],"tree_param":{"num_deleted":"0","num_feature":"86","num_nodes":"5","size_leaf_vector":"1"}},{"base_weights":[-8.130808E-2,1.9043477E-1,-3.3843726E-2,3.6456514E-2,-7.7403425E-3],"categories":[],"categories_nodes":[],"categories_segments":[],"categories_sizes":[],"default_left":[0,0,0,0,0],"id":56,"left_children":[1,3,-1,-1,-1],"loss_changes":[2.1299193E0,1.1314973E0,0E0,0E0,0E0],"parents":[2147483647,0,0,1,1],"right_children":[2,4,-1,-1,-1],"split_conditions":[2.0889657E0,1.1322198E-3,-3.3843726E-2,3.6456514E-2,-7.7403425E-3],"split_indices":[54,7,0,0,0],"split_type":[0,0,0,0,0],"sum_hessian":[1.8449152E1,1.0281312E1,8.16784E0,5.2775617E0,5.00375E0],"tree_param":{"num_deleted":"0","num_feature":"86","num_nodes":"5","size_leaf_vector":"1"}},{"base_weights":[-7.635762E-2,2.4696184E-2,-3.0929154E-1,-4.58999E-2,4.8036193E-3],"categories":[],"categories_nodes":[],"categories_segments":[],"categories_sizes":[],"default_left":[0,0,0,0,0],"id":57,"left_children":[1,-1,3,-1,-1],"loss_changes":[1.936964E0,0E0,1.5525843E0,0E0,0E0],"parents":[2147483647,0,0,2,2],"right_children":[2,-1,4,-1,-1],"split_conditions":[4.6948786E-3,2.4696184E-2,8.174713E-3,-4.58999E-2,4.8036193E-3],"split_indices":[20,0,20,0,0],"split_type":[0,0,0,0,0],"sum_hessian":[1.7464384E1,5.852017E0,1.1612368E1,6.5952826E0,5.017085E0],"tree_param":{"num_deleted":"0","num_feature":"86","num_nodes":"5","size_leaf_vector":"1"}},{"base_weights":[1.562814E-1,3.4911767E-1,-1.6417656E-2,5.469709E-2,-7.161098E-3],"categories":[],"categories_nodes":[],"categories_segments":[],"categories_sizes":[],"default_left":[0,0,0,0,0],"id":58,"left_children":[1,3,-1,-1,-1],"loss_changes":[1.571598E0,2.3904886E0,0E0,0E0,0E0],"parents":[2147483647,0,0,1,1],"right_children":[2,4,-1,-1,-1],"split_conditions":[2.2755198E1,1.4567256E0,-1.6417656E-2,5.469709E-2,-7.161098E-3],"split_indices":[12,8,0,0,0],"split_type":[0,0,0,0,0],"sum_hessian":[1.786978E1,1.2239332E1,5.6304464E0,6.697113E0,5.5422196E0],"tree_param":{"num_deleted":"0","num_feature":"86","num_nodes":"5","size_leaf_vector":"1"}},{"base_weights":[-5.672498E-2,2.833095E-2,-3.313281E-2],"categories":[],"categories_nodes":[],"categories_segments":[],"categories_sizes":[],"default_left":[0,0,0],"id":59,"left_children":[1,-1,-1],"loss_changes":[3.1450713E0,0E0,0E0],"parents":[2147483647,0,0],"right_children":[2,-1,-1],"split_conditions":[1.74E2,2.833095E-2,-3.313281E-2],"split_indices":[40,0,0],"split_type":[0,0,0],"sum_hessian":[1.7295885E1,7.6646833E0,9.631201E0],"tree_param":{"num_deleted":"0","num_feature":"86","num_nodes":"3","size_leaf_vector":"1"}},{"base_weights":[1.0066425E-1,3.981523E-2,-1.2169172E-1,1.4445792E-2,-3.9516356E-2],"categories":[],"categories_nodes":[],"categories_segments":[],"categories_sizes":[],"default_left":[0,0,0,0,0],"id":60,"left_children":[1,-1,3,-1,-1],"loss_changes":[1.9603552E0,0E0,1.8092434E0,0E0,0E0],"parents":[2147483647,0,0,2,2],"right_children":[2,-1,4,-1,-1],"split_conditions":[5.193134E-3,3.981523E-2,1.0227689E0,1.4445792E-2,-3.9516356E-2],"split_indices":[20,0,15,0,0],"split_type":[0,0,0,0,0],"sum_hessian":[1.7556004E1,5.8978353E0,1.1658169E1,6.5576077E0,5.1005607E0],"tree_param":{"num_deleted":"0","num_feature":"86","num_nodes":"5","size_leaf_vector":"1"}},{"base_weights":[3.5439134E-2,3.9800513E-1,-2.907953E-2,5.698617E-2,-0E0],"categories":[],"categories_nodes":[],"categories_segments":[],"categories_sizes":[],"default_left":[0,0,0,0,0],"id":61,"left_children":[1,3,-1,-1,-1],"loss_changes":[3.287239E0,1.6595402E0,0E0,0E0,0E0],"parents":[2147483647,0,0,1,1],"right_children":[2,4,-1,-1,-1],"split_conditions":[1.7186972E1,8.8278633E-1,-2.907953E-2,5.698617E-2,-0E0],"split_indices":[12,14,0,0,0],"split_type":[0,0,0,0,0],"sum_hessian":[1.8655062E1,1.0169388E1,8.485675E0,5.0697656E0,5.0996227E0],"tree_param":{"num_deleted":"0","num_feature":"86","num_nodes":"5","size_leaf_vector":"1"}},{"base_weights":[-2.3799483E-3,-2.3715068E-1,3.6262535E-2,1.3106083E-2,-4.8391275E-2],"categories":[],"categories_nodes":[],"categories_segments":[],"categories_sizes":[],"default_left":[0,0,0,0,0],"id":62,"left_children":[1,3,-1,-1,-1],"loss_changes":[2.2933125E0,2.5378175E0,0E0,0E0,0E0],"parents":[2147483647,0,0,1,1],"right_children":[2,4,-1,-1,-1],"split_conditions":[1.7387909E-1,1.98E2,3.6262535E-2,1.3106083E-2,-4.8391275E-2],"split_indices":[4,40,0,0,0],"split_type":[0,0,0,0,0],"sum_hessian":[1.8034021E1,1.2969313E1,5.064708E0,6.3445544E0,6.624758E0],"tree_param":{"num_deleted":"0","num_feature":"86","num_nodes":"5","size_leaf_vector":"1"}},{"base_weights":[4.1336693E-2,3.5076447E-2,-1.365576E-1,1.5847193E-2,-3.663662E-2],"categories":[],"categories_nodes":[],"categories_segments":[],"categories_sizes":[],"default_left":[0,0,0,0,0],"id":63,"left_children":[1,-1,3,-1,-1],"loss_changes":[1.6390538E0,0E0,1.8695672E0,0E0,0E0],"parents":[2147483647,0,0,2,2],"right_children":[2,-1,4,-1,-1],"split_conditions":[4.6948786E-3,3.5076447E-2,3.5E-1,1.5847193E-2,-3.663662E-2],"split_indices":[20,0,33,0,0],"split_type":[0,0,0,0,0],"sum_hessian":[1.8224104E1,5.2535167E0,1.2970587E1,6.272973E0,6.697614E0],"tree_param":{"num_deleted":"0","num_feature":"86","num_nodes":"5","size_leaf_vector":"1"}},{"base_weights":[2.391701E-2,2.5962162E-1,-2.7105553E-2,-9.364125E-3,4.477491E-2],"categories":[],"categories_nodes":[],"categories_segments":[],"categories_sizes":[],"default_left":[0,0,0,0,0],"id":64,"left_children":[1,3,-1,-1,-1],"loss_changes":[1.8689739E0,1.8241186E0,0E0,0E0,0E0],"parents":[2147483647,0,0,1,1],"right_children":[2,4,-1,-1,-1],"split_conditions":[1.9948816E1,2.9482073E-1,-2.7105553E-2,-9.364125E-3,4.477491E-2],"split_indices":[12,29,0,0,0],"split_type":[0,0,0,0,0],"sum_hessian":[1.8079891E1,1.180478E1,6.275111E0,5.3317904E0,6.47299E0],"tree_param":{"num_deleted":"0","num_feature":"86","num_nodes":"5","size_leaf_vector":"1"}},{"base_weights":[-1.3419637E-2,-2.6499331E-2,1.7024906E-2],"categories":[],"categories_nodes":[],"categories_segments":[],"categories_sizes":[],"default_left":[0,0,0],"id":65,"left_children":[1,-1,-1],"loss_changes":[1.4941323E0,0E0,0E0],"parents":[2147483647,0,0],"right_children":[2,-1,-1],"split_conditions":[2.9482073E-1,-2.6499331E-2,1.7024906E-2],"split_indices":[29,0,0],"split_type":[0,0,0],"sum_hessian":[1.632542E1,6.9539075E0,9.371511E0],"tree_param":{"num_deleted":"0","num_feature":"86","num_nodes":"3","size_leaf_vector":"1"}},{"base_weights":[6.4952396E-2,-2.0773726E-2,2.617301E-1,4.312854E-2,-0E0],"categories":[],"categories_nodes":[],"categories_segments":[],"categories_sizes":[],"default_left":[0,0,0,0,0],"id":66,"left_children":[1,-1,3,-1,-1],"loss_changes":[1.4460816E0,0E0,1.1752688E0,0E0,0E0],"parents":[2147483647,0,0,2,2],"right_children":[2,-1,4,-1,-1],"split_conditions":[-2.3134595E-3,-2.0773726E-2,6.47541E-1,4.312854E-2,-0E0],"split_indices":[16,0,30,0,0],"split_type":[0,0,0,0,0],"sum_hessian":[1.8500341E1,6.165434E0,1.23349085E1,5.4225073E0,6.912401E0],"tree_param":{"num_deleted":"0","num_feature":"86","num_nodes":"5","size_leaf_vector":"1"}},{"base_weights":[4.1921576E-3,-1.6977379E-1,3.269211E-2,1.2927993E-2,-3.7507344E-2],"categories":[],"categories_nodes":[],"categories_segments":[],"categories_sizes":[],"default_left":[0,0,0,0,0],"id":67,"left_children":[1,3,-1,-1,-1],"loss_changes":[1.6221621E0,1.7227085E0,0E0,0E0,0E0],"parents":[2147483647,0,0,1,1],"right_children":[2,4,-1,-1,-1],"split_conditions":[7.8060515E-3,1.98E2,3.269211E-2,1.2927993E-2,-3.7507344E-2],"split_indices":[20,40,0,0,0],"split_type":[0,0,0,0,0],"sum_hessian":[1.8063953E1,1.2923889E1,5.140064E0,6.0910597E0,6.8328295E0],"tree_param":{"num_deleted":"0","num_feature":"86","num_nodes":"5","size_leaf_vector":"1"}},{"base_weights":[-3.6119185E-2,1.6322325E-1,-3.2737266E-2,-2.65821E-2,4.5677546E-2],"categories":[],"categories_nodes":[],"categories_segments":[],"categories_sizes":[],"default_left":[0,0,0,0,0],"id":68,"left_children":[1,3,-1,-1,-1],"loss_changes":[1.6931175E0,3.264562E0,0E0,0E0,0E0],"parents":[2147483647,0,0,1,1],"right_children":[2,4,-1,-1,-1],"split_conditions":[3.3730841E-3,-2.3134595E-3,-3.2737266E-2,-2.65821E-2,4.5677546E-2],"split_indices":[17,16,0,0,0],"split_type":[0,0,0,0,0],"sum_hessian":[1.7976507E1,1.19256735E1,6.0508347E0,5.2184987E0,6.707175E0],"tree_param":{"num_deleted":"0","num_feature":"86","num_nodes":"5","size_leaf_vector":"1"}},{"base_weights":[-8.946647E-2,9.8119654E-2,-2.8410064E-2,-1.8603109E-2,3.4905743E-2],"categories":[],"categories_nodes":[],"categories_segments":[],"categories_sizes":[],"default_left":[0,0,0,0,0],"id":69,"left_children":[1,3,-1,-1,-1],"loss_changes":[1.1322697E0,1.6614708E0,0E0,0E0,0E0],"parents":[2147483647,0,0,1,1],"right_children":[2,4,-1,-1,-1],"split_conditions":[7.5397617E-3,6.461976E-3,-2.8410064E-2,-1.8603109E-2,3.4905743E-2],"split_indices":[0,0,0,0,0],"split_type":[0,0,0,0,0],"sum_hessian":[1.7775215E1,1.0495927E1,7.2792873E0,5.1745777E0,5.3213487E0],"tree_param":{"num_deleted":"0","num_feature":"86","num_nodes":"5","size_leaf_vector":"1"}},{"base_weights":[-3.45477E-2,2.0373258E-1,-3.6316644E-2,-1.5809411E-2,4.797265E-2],"categories":[],"categories_nodes":[],"categories_segments":[],"categories_sizes":[],"default_left":[0,0,0,0,0],"id":70,"left_children":[1,3,-1,-1,-1],"loss_changes":[2.056047E0,2.3256035E0,0E0,0E0,0E0],"parents":[2147483647,0,0,1,1],"right_children":[2,4,-1,-1,-1],"split_conditions":[1.3850961E0,3.8733435E-1,-3.6316644E-2,-1.5809411E-2,4.797265E-2],"split_indices":[8,59,0,0,0],"split_type":[0,0,0,0,0],"sum_hessian":[1.5971356E1,1.0384682E1,5.586675E0,5.278195E0,5.1064873E0],"tree_param":{"num_deleted":"0","num_feature":"86","num_nodes":"5","size_leaf_vector":"1"}},{"base_weights":[-0E0,2.3684664E-2,-2.3609515E-2],"categories":[],"categories_nodes":[],"categories_segments":[],"categories_sizes":[],"default_left":[0,0,0],"id":71,"left_children":[1,-1,-1],"loss_changes":[1.8319521E0,0E0,0E0],"parents":[2147483647,0,0],"right_children":[2,-1,-1],"split_conditions":[1E0,2.3684664E-2,-2.3609515E-2],"split_indices":[30,0,0],"split_type":[0,0,0],"sum_hessian":[1.6966232E1,8.613776E0,8.352456E0],"tree_param":{"num_deleted":"0","num_feature":"86","num_nodes":"3","size_leaf_vector":"1"}},{"base_weights":[3.8294785E-2,2.795111E-1,-2.2263424E-2,4.7090944E-2,-5.227049E-3],"categories":[],"categories_nodes":[],"categories_segments":[],"categories_sizes":[],"default_left":[0,0,0,0,0],"id":72,"left_children":[1,3,-1,-1,-1],"loss_changes":[1.6144495E0,1.5531554E0,0E0,0E0,0E0],"parents":[2147483647,0,0,1,1],"right_children":[2,4,-1,-1,-1],"split_conditions":[3E0,9.832941E-1,-2.2263424E-2,4.7090944E-2,-5.227049E-3],"split_indices":[23,15,0,0,0],"split_type":[0,0,0,0,0],"sum_hessian":[1.7098948E1,1.0375452E1,6.723496E0,5.1842833E0,5.1911693E0],"tree_param":{"num_deleted":"0","num_feature":"86","num_nodes":"5","size_leaf_vector":"1"}},{"base_weights":[-0E0,2.3390046E-1,-3.3011902E-2,-7.523658E-3,3.9103474E-2],"categories":[],"categories_nodes":[],"categories_segments":[],"categories_sizes":[],"default_left":[0,0,0,0,0],"id":73,"left_children":[1,3,-1,-1,-1],"loss_changes":[1.9621892E0,1.3393832E0,0E0,0E0,0E0],"parents":[2147483647,0,0,1,1],"right_children":[2,4,-1,-1,-1],"split_conditions":[1.3850961E0,-1.3835556E-2,-3.3011902E-2,-7.523658E-3,3.9103474E-2],"split_indices":[8,8,0,0,0],"split_type":[0,0,0,0,0],"sum_hessian":[1.6690308E1,1.1506459E1,5.1838484E0,5.0693407E0,6.4371185E0],"tree_param":{"num_deleted":"0","num_feature":"86","num_nodes":"5","size_leaf_vector":"1"}},{"base_weights":[9.784237E-2,-2.6603265E-2,3.7035093E-2],"categories":[],"categories_nodes":[],"categories_segments":[],"categories_sizes":[],"default_left":[0,0,0],"id":74,"left_children":[1,-1,-1],"loss_changes":[3.05797E0,0E0,0E0],"parents":[2147483647,0,0],"right_children":[2,-1,-1],"split_conditions":[4.8805943E-1,-2.6603265E-2,3.7035093E-2],"split_indices":[51,0,0],"split_type":[0,0,0],"sum_hessian":[1.5252823E1,6.705214E0,8.547609E0],"tree_param":{"num_deleted":"0","num_feature":"86","num_nodes":"3","size_leaf_vector":"1"}},{"base_weights":[2.8018558E-2,2.2398669E-1,-2.0434791E-2,-1.1755002E-2,4.534377E-2],"categories":[],"categories_nodes":[],"categories_segments":[],"categories_sizes":[],"default_left":[0,0,0,0,0],"id":75,"left_children":[1,3,-1,-1,-1],"loss_changes":[1.1722391E0,1.9520354E0,0E0,0E0,0E0],"parents":[2147483647,0,0,1,1],"right_children":[2,4,-1,-1,-1],"split_conditions":[7.3304824E-3,3.3759113E-2,-2.0434791E-2,-1.1755002E-2,4.534377E-2],"split_indices":[19,64,0,0,0],"split_type":[0,0,0,0,0],"sum_hessian":[1.7213087E1,1.1050905E1,6.1621814E0,5.4363503E0,5.6145554E0],"tree_param":{"num_deleted":"0","num_feature":"86","num_nodes":"5","size_leaf_vector":"1"}},{"base_weights":[2.9596033E-2,-1.9524743E-1,4.320007E-2,6.8314496E-4,-3.7040684E-2],"categories":[],"categories_nodes":[],"categories_segments":[],"categories_sizes":[],"default_left":[0,0,0,0,0],"id":76,"left_children":[1,3,-1,-1,-1],"loss_changes":[2.5983043E0,9.5602477E-1,0E0,0E0,0E0],"parents":[2147483647,0,0,1,1],"right_children":[2,4,-1,-1,-1],"split_conditions":[2.8001352E1,1E0,4.320007E-2,6.8314496E-4,-3.7040684E-2],"split_indices":[11,30,0,0,0],"split_type":[0,0,0,0,0],"sum_hessian":[1.7902294E1,1.2876918E1,5.025376E0,7.7752066E0,5.1017118E0],"tree_param":{"num_deleted":"0","num_feature":"86","num_nodes":"5","size_leaf_vector":"1"}},{"base_weights":[1.37923565E-2,-1.847955E-2,2.3419533E-2],"categories":[],"categories_nodes":[],"categories_segments":[],"categories_sizes":[],"default_left":[0,0,0],"id":77,"left_children":[1,-1,-1],"loss_changes":[1.5436296E0,0E0,0E0],"parents":[2147483647,0,0],"right_children":[2,-1,-1],"split_conditions":[3.9280716E1,-1.847955E-2,2.3419533E-2],"split_indices":[10,0,0],"split_type":[0,0,0],"sum_hessian":[1.83542E1,9.38608E0,8.96812E0],"tree_param":{"num_deleted":"0","num_feature":"86","num_nodes":"3","size_leaf_vector":"1"}},{"base_weights":[3.1510342E-3,-3.105486E-2,2.901713E-1,-1.3274512E-2,5.5364624E-2],"categories":[],"categories_nodes":[],"categories_segments":[],"categories_sizes":[],"default_left":[0,0,0,0,0],"id":78,"left_children":[1,-1,3,-1,-1],"loss_changes":[2.272198E0,0E0,2.6331005E0,0E0,0E0],"parents":[2147483647,0,0,2,2],"right_children":[2,-1,4,-1,-1],"split_conditions":[2.9482073E-1,-3.105486E-2,3.4661606E-2,-1.3274512E-2,5.5364624E-2],"split_indices":[29,0,64,0,0],"split_type":[0,0,0,0,0],"sum_hessian":[1.6485508E1,6.234687E0,1.0250822E1,5.001901E0,5.2489204E0],"tree_param":{"num_deleted":"0","num_feature":"86","num_nodes":"5","size_leaf_vector":"1"}},{"base_weights":[-0E0,-2.0610003E-1,3.187046E-2,2.305777E-3,-3.4854937E-2],"categories":[],"categories_nodes":[],"categories_segments":[],"categories_sizes":[],"default_left":[0,0,0,0,0],"id":79,"left_children":[1,3,-1,-1,-1],"loss_changes":[1.6798604E0,8.684649E-1,0E0,0E0,0E0],"parents":[2147483647,0,0,1,1],"right_children":[2,4,-1,-1,-1],"split_conditions":[1.7387909E-1,2.7603257E-2,3.187046E-2,2.305777E-3,-3.4854937E-2],"split_indices":[4,6,0,0,0],"split_type":[0,0,0,0,0],"sum_hessian":[1.6378672E1,1.1373327E1,5.0053444E0,5.8399167E0,5.53341E0],"tree_param":{"num_deleted":"0","num_feature":"86","num_nodes":"5","size_leaf_vector":"1"}},{"base_weights":[2.356718E-2,-2.0858912E-2,2.2784178E-1,-1.356673E-2,4.8402563E-2],"categories":[],"categories_nodes":[],"categories_segments":[],"categories_sizes":[],"default_left":[0,0,0,0,0],"id":80,"left_children":[1,-1,3,-1,-1],"loss_changes":[1.1708223E0,0E0,2.1828194E0,0E0,0E0],"parents":[2147483647,0,0,2,2],"right_children":[2,-1,4,-1,-1],"split_conditions":[2.3716559E-1,-2.0858912E-2,2.2871172E0,-1.356673E-2,4.8402563E-2],"split_indices":[29,0,68,0,0],"split_type":[0,0,0,0,0],"sum_hessian":[1.6284275E1,5.963304E0,1.0320971E1,5.1744103E0,5.14656E0],"tree_param":{"num_deleted":"0","num_feature":"86","num_nodes":"5","size_leaf_vector":"1"}},{"base_weights":[2.1264594E-2,-1.811636E-1,2.9333243E-2,-0E0,-2.7975144E-2],"categories":[],"categories_nodes":[],"categories_segments":[],"categories_sizes":[],"default_left":[0,0,0,0,0],"id":81,"left_children":[1,3,-1,-1,-1],"loss_changes":[1.4336888E0,4.6190396E-1,0E0,0E0,0E0],"parents":[2147483647,0,0,1,1],"right_children":[2,4,-1,-1,-1],"split_conditions":[4.8E-1,4.2731276E-1,2.9333243E-2,-0E0,-2.7975144E-2],"split_indices":[44,21,0,0,0],"split_type":[0,0,0,0,0],"sum_hessian":[1.5808997E1,1.0019397E1,5.789601E0,5.0160823E0,5.0033145E0],"tree_param":{"num_deleted":"0","num_feature":"86","num_nodes":"5","size_leaf_vector":"1"}},{"base_weights":[9.2938684E-2,2.6470311E-2,-2.1532042E-2],"categories":[],"categories_nodes":[],"categories_segments":[],"categories_sizes":[],"default_left":[0,0,0],"id":82,"left_children":[1,-1,-1],"loss_changes":[1.6331427E0,0E0,0E0],"parents":[2147483647,0,0],"right_children":[2,-1,-1],"split_conditions":[4E0,2.6470311E-2,-2.1532042E-2],"split_indices":[42,0,0],"split_type":[0,0,0],"sum_hessian":[1.467346E1,9.45874E0,5.2147202E0],"tree_param":{"num_deleted":"0","num_feature":"86","num_nodes":"3","size_leaf_vector":"1"}},{"base_weights":[-1.5044959E-1,1.5443027E-2,-3.356063E-2,-2.4814643E-2,2.9995436E-2],"categories":[],"categories_nodes":[],"categories_segments":[],"categories_sizes":[],"default_left":[0,0,0,0,0],"id":83,"left_children":[1,3,-1,-1,-1],"loss_changes":[9.2616284E-1,1.6819978E0,0E0,0E0,0E0],"parents":[2147483647,0,0,1,1],"right_children":[2,4,-1,-1,-1],"split_conditions":[3.7390006E0,4.4989622E-1,-3.356063E-2,-2.4814643E-2,2.9995436E-2],"split_indices":[26,51,0,0,0],"split_type":[0,0,0,0,0],"sum_hessian":[1.5743706E1,1.0215417E1,5.528288E0,5.0663314E0,5.149086E0],"tree_param":{"num_deleted":"0","num_feature":"86","num_nodes":"5","size_leaf_vector":"1"}},{"base_weights":[-8.240489E-2,9.506055E-2,-3.258096E-2,-1.1528284E-2,2.9819863E-2],"categories":[],"categories_nodes":[],"categories_segments":[],"categories_sizes":[],"default_left":[0,0,0,0,0],"id":84,"left_children":[1,3,-1,-1,-1],"loss_changes":[1.2281969E0,1.0315932E0,0E0,0E0,0E0],"parents":[2147483647,0,0,1,1],"right_children":[2,4,-1,-1,-1],"split_conditions":[4.929876E-3,4.6754676E-1,-3.258096E-2,-1.1528284E-2,2.9819863E-2],"split_indices":[17,21,0,0,0],"split_type":[0,0,0,0,0],"sum_hessian":[1.6336353E1,1.0882596E1,5.453757E0,5.783344E0,5.0992527E0],"tree_param":{"num_deleted":"0","num_feature":"86","num_nodes":"5","size_leaf_vector":"1"}},{"base_weights":[4.5888625E-2,2.3139834E-2,-2.2251489E-2],"categories":[],"categories_nodes":[],"categories_segments":[],"categories_sizes":[],"default_left":[0,0,0],"id":85,"left_children":[1,-1,-1],"loss_changes":[1.6001629E0,0E0,0E0],"parents":[2147483647,0,0],"right_children":[2,-1,-1],"split_conditions":[1.0262655E0,2.3139834E-2,-2.2251489E-2],"split_indices":[15,0,0],"split_type":[0,0,0],"sum_hessian":[1.6209421E1,9.908402E0,6.301018E0],"tree_param":{"num_deleted":"0","num_feature":"86","num_nodes":"3","size_leaf_vector":"1"}},{"base_weights":[-9.592796E-3,1.4514893E-2,-2.6841888E-2],"categories":[],"categories_nodes":[],"categories_segments":[],"categories_sizes":[],"default_left":[0,0,0],"id":86,"left_children":[1,-1,-1],"loss_changes":[1.2477437E0,0E0,0E0],"parents":[2147483647,0,0],"right_children":[2,-1,-1],"split_conditions":[6.8659163E-3,1.4514893E-2,-2.6841888E-2],"split_indices":[19,0,0],"split_type":[0,0,0],"sum_hessian":[1.5342221E1,9.651606E0,5.6906157E0],"tree_param":{"num_deleted":"0","num_feature":"86","num_nodes":"3","size_leaf_vector":"1"}},{"base_weights":[3.3762906E-2,2.399137E-2,-2.3162965E-2],"categories":[],"categories_nodes":[],"categories_segments":[],"categories_sizes":[],"default_left":[0,0,0],"id":87,"left_children":[1,-1,-1],"loss_changes":[1.6554782E0,0E0,0E0],"parents":[2147483647,0,0],"right_children":[2,-1,-1],"split_conditions":[1.9948816E1,2.399137E-2,-2.3162965E-2],"split_indices":[12,0,0],"split_type":[0,0,0],"sum_hessian":[1.5186416E1,8.918091E0,6.2683244E0],"tree_param":{"num_deleted":"0","num_feature":"86","num_nodes":"3","size_leaf_vector":"1"}},{"base_weights":[-9.785725E-3,-1.8429935E-2,2.1104258E-2],"categories":[],"categories_nodes":[],"categories_segments":[],"categories_sizes":[],"default_left":[0,0,0],"id":88,"left_children":[1,-1,-1],"loss_changes":[1.214865E0,0E0,0E0],"parents":[2147483647,0,0],"right_children":[2,-1,-1],"split_conditions":[4.8E-1,-1.8429935E-2,2.1104258E-2],"split_indices":[44,0,0],"split_type":[0,0,0],"sum_hessian":[1.6282295E1,9.796249E0,6.4860454E0],"tree_param":{"num_deleted":"0","num_feature":"86","num_nodes":"3","size_leaf_vector":"1"}},{"base_weights":[-0E0,1.9922111E-2,-1.8206198E-2],"categories":[],"categories_nodes":[],"categories_segments":[],"categories_sizes":[],"default_left":[0,0,0],"id":89,"left_children":[1,-1,-1],"loss_changes":[1.173734E0,0E0,0E0],"parents":[2147483647,0,0],"right_children":[2,-1,-1],"split_conditions":[1E0,1.9922111E-2,-1.8206198E-2],"split_indices":[30,0,0],"split_type":[0,0,0],"sum_hessian":[1.6777515E1,7.5508714E0,9.2266445E0],"tree_param":{"num_deleted":"0","num_feature":"86","num_nodes":"3","size_leaf_vector":"1"}},{"base_weights":[-0E0,-2.6377698E-2,2.102358E-1,4.3677267E-2,-1.0087702E-2],"categories":[],"categories_nodes":[],"categories_segments":[],"categories_sizes":[],"default_left":[0,0,0,0,0],"id":90,"left_children":[1,-1,3,-1,-1],"loss_changes":[1.3804308E0,0E0,1.7162184E0,0E0,0E0],"parents":[2147483647,0,0,2,2],"right_children":[2,-1,4,-1,-1],"split_conditions":[-2.3134595E-3,-2.6377698E-2,5.99184E-3,4.3677267E-2,-1.0087702E-2],"split_indices":[16,0,20,0,0],"split_type":[0,0,0,0,0],"sum_hessian":[1.633169E1,5.4676237E0,1.0864066E1,5.259434E0,5.604632E0],"tree_param":{"num_deleted":"0","num_feature":"86","num_nodes":"5","size_leaf_vector":"1"}},{"base_weights":[-1.7108921E-2,-2.6473377E-2,1.5103948E-1,3.477947E-2,-1.0762846E-2],"categories":[],"categories_nodes":[],"categories_segments":[],"categories_sizes":[],"default_left":[0,0,0,0,0],"id":91,"left_children":[1,-1,3,-1,-1],"loss_changes":[1.1765801E0,0E0,1.2902476E0,0E0,0E0],"parents":[2147483647,0,0,2,2],"right_children":[2,-1,4,-1,-1],"split_conditions":[-6.810056E-4,-2.6473377E-2,6.961485E-3,3.477947E-2,-1.0762846E-2],"split_indices":[18,0,1,0,0],"split_type":[0,0,0,0,0],"sum_hessian":[1.7380789E1,6.010943E0,1.1369845E1,5.70653E0,5.6633153E0],"tree_param":{"num_deleted":"0","num_feature":"86","num_nodes":"5","size_leaf_vector":"1"}},{"base_weights":[-1.8560416E-1,-4.0671405E-1,1.5318975E-2,-7.21436E-3,-4.5783166E-2],"categories":[],"categories_nodes":[],"categories_segments":[],"categories_sizes":[],"default_left":[0,0,0,0,0],"id":92,"left_children":[1,3,-1,-1,-1],"loss_changes":[1.692899E0,3.413751E-1,0E0,0E0,0E0],"parents":[2147483647,0,0,1,1],"right_children":[2,4,-1,-1,-1],"split_conditions":[2.881856E1,6.578105E-3,1.5318975E-2,-7.21436E-3,-4.5783166E-2],"split_indices":[11,1,0,0,0],"split_type":[0,0,0,0,0],"sum_hessian":[1.5661237E1,1.0274922E1,5.386314E0,5.212058E0,5.0628643E0],"tree_param":{"num_deleted":"0","num_feature":"86","num_nodes":"5","size_leaf_vector":"1"}},{"base_weights":[-1.585368E-2,-2.713067E-2,1.5546107E-2],"categories":[],"categories_nodes":[],"categories_segments":[],"categories_sizes":[],"default_left":[0,0,0],"id":93,"left_children":[1,-1,-1],"loss_changes":[1.3729419E0,0E0,0E0],"parents":[2147483647,0,0],"right_children":[2,-1,-1],"split_conditions":[1.9053595E0,-2.713067E-2,1.5546107E-2],"split_indices":[26,0,0],"split_type":[0,0,0],"sum_hessian":[1.5626909E1,6.2358174E0,9.391092E0],"tree_param":{"num_deleted":"0","num_feature":"86","num_nodes":"3","size_leaf_vector":"1"}},{"base_weights":[2.1433767E-2,2.0207828E-1,-1.9987537E-2,-5.834179E-3,3.7966993E-2],"categories":[],"categories_nodes":[],"categories_segments":[],"categories_sizes":[],"default_left":[0,0,0,0,0],"id":94,"left_children":[1,3,-1,-1,-1],"loss_changes":[1.0489041E0,1.2056642E0,0E0,0E0,0E0],"parents":[2147483647,0,0,1,1],"right_children":[2,4,-1,-1,-1],"split_conditions":[3.7390006E0,1.756021E0,-1.9987537E-2,-5.834179E-3,3.7966993E-2],"split_indices":[26,26,0,0,0],"split_type":[0,0,0,0,0],"sum_hessian":[1.7635958E1,1.1556509E1,6.0794487E0,5.9330244E0,5.623484E0],"tree_param":{"num_deleted":"0","num_feature":"86","num_nodes":"5","size_leaf_vector":"1"}},{"base_weights":[-0E0,2.28221E-1,-2.6568322E-2,-5.2916555E-4,3.5520997E-2],"categories":[],"categories_nodes":[],"categories_segments":[],"categories_sizes":[],"default_left":[0,0,0,0,0],"id":95,"left_children":[1,3,-1,-1,-1],"loss_changes":[1.4808567E0,7.53747E-1,0E0,0E0,0E0],"parents":[2147483647,0,0,1,1],"right_children":[2,4,-1,-1,-1],"split_conditions":[3.7390006E0,3.1219047E-2,-2.6568322E-2,-5.2916555E-4,3.5520997E-2],"split_indices":[26,64,0,0,0],"split_type":[0,0,0,0,0],"sum_hessian":[1.5848697E1,1.0168673E1,5.680024E0,5.1321077E0,5.036565E0],"tree_param":{"num_deleted":"0","num_feature":"86","num_nodes":"5","size_leaf_vector":"1"}},{"base_weights":[-0E0,2.0911831E-2,-2.576328E-2],"categories":[],"categories_nodes":[],"categories_segments":[],"categories_sizes":[],"default_left":[0,0,0],"id":96,"left_children":[1,-1,-1],"loss_changes":[1.6240311E0,0E0,0E0],"parents":[2147483647,0,0],"right_children":[2,-1,-1],"split_conditions":[7.5397617E-3,2.0911831E-2,-2.576328E-2],"split_indices":[0,0,0],"split_type":[0,0,0],"sum_hessian":[1.5484929E1,9.213727E0,6.271202E0],"tree_param":{"num_deleted":"0","num_feature":"86","num_nodes":"3","size_leaf_vector":"1"}},{"base_weights":[1.0783933E-1,-1.5057504E-2,3.5524085E-2],"categories":[],"categories_nodes":[],"categories_segments":[],"categories_sizes":[],"default_left":[0,0,0],"id":97,"left_children":[1,-1,-1],"loss_changes":[1.9103398E0,0E0,0E0],"parents":[2147483647,0,0],"right_children":[2,-1,-1],"split_conditions":[4.9174167E-2,-1.5057504E-2,3.5524085E-2],"split_indices":[63,0,0],"split_type":[0,0,0],"sum_hessian":[1.4741635E1,7.8325677E0,6.9090676E0],"tree_param":{"num_deleted":"0","num_feature":"86","num_nodes":"3","size_leaf_vector":"1"}},{"base_weights":[9.134805E-2,2.37364E-2,-1.7293822E-2],"categories":[],"categories_nodes":[],"categories_segments":[],"categories_sizes":[],"default_left":[0,0,0],"id":98,"left_children":[1,-1,-1],"loss_changes":[1.2411846E0,0E0,0E0],"parents":[2147483647,0,0],"right_children":[2,-1,-1],"split_conditions":[1.4567256E0,2.37364E-2,-1.7293822E-2],"split_indices":[8,0,0],"split_type":[0,0,0],"sum_hessian":[1.524021E1,9.7651205E0,5.475089E0],"tree_param":{"num_deleted":"0","num_feature":"86","num_nodes":"3","size_leaf_vector":"1"}},{"base_weights":[-1.929382E-2,1.429695E-2,-2.167965E-2],"categories":[],"categories_nodes":[],"categories_segments":[],"categories_sizes":[],"default_left":[0,0,0],"id":99,"left_children":[1,-1,-1],"loss_changes":[1.0292962E0,0E0,0E0],"parents":[2147483647,0,0],"right_children":[2,-1,-1],"split_conditions":[5.5E-1,1.429695E-2,-2.167965E-2],"split_indices":[33,0,0],"split_type":[0,0,0],"sum_hessian":[1.6153692E1,8.6987505E0,7.454942E0],"tree_param":{"num_deleted":"0","num_feature":"86","num_nodes":"3","size_leaf_vector":"1"}},{"base_weights":[-7.321436E-2,-3.3197258E-2,1.1897965E-1,3.8517084E-2,-1.7902419E-2],"categories":[],"categories_nodes":[],"categories_segments":[],"categories_sizes":[],"default_left":[0,0,0,0,0],"id":100,"left_children":[1,-1,3,-1,-1],"loss_changes":[1.3546959E0,0E0,1.8291928E0,0E0,0E0],"parents":[2147483647,0,0,2,2],"right_children":[2,-1,4,-1,-1],"split_conditions":[4.5782322E1,-3.3197258E-2,7.686189E-3,3.8517084E-2,-1.7902419E-2],"split_indices":[2,0,19,0,0],"split_type":[0,0,0,0,0],"sum_hessian":[1.5769632E1,5.4037085E0,1.0365924E1,5.0700417E0,5.2958817E0],"tree_param":{"num_deleted":"0","num_feature":"86","num_nodes":"5","size_leaf_vector":"1"}},{"base_weights":[1.3899936E-1,2.807139E-2,-2.8016062E-3],"categories":[],"categories_nodes":[],"categories_segments":[],"categories_sizes":[],"default_left":[0,0,0],"id":101,"left_children":[1,-1,-1],"loss_changes":[7.3159695E-1,0E0,0E0],"parents":[2147483647,0,0],"right_children":[2,-1,-1],"split_conditions":[1.568395E1,2.807139E-2,-2.8016062E-3],"split_indices":[12,0,0],"split_type":[0,0,0],"sum_hessian":[1.46043005E1,6.446245E0,8.158055E0],"tree_param":{"num_deleted":"0","num_feature":"86","num_nodes":"3","size_leaf_vector":"1"}},{"base_weights":[-7.4370645E-2,9.245048E-2,-2.9008815E-2,-1.3256121E-2,2.92343E-2],"categories":[],"categories_nodes":[],"categories_segments":[],"categories_sizes":[],"default_left":[0,0,0,0,0],"id":102,"left_children":[1,3,-1,-1,-1],"loss_changes":[9.992384E-1,1.0369784E0,0E0,0E0,0E0],"parents":[2147483647,0,0,1,1],"right_children":[2,4,-1,-1,-1],"split_conditions":[3.7390006E0,7.639075E-1,-2.9008815E-2,-1.3256121E-2,2.92343E-2],"split_indices":[26,59,0,0,0],"split_type":[0,0,0,0,0],"sum_hessian":[1.5701016E1,1.0146409E1,5.5546064E0,5.0539446E0,5.092465E0],"tree_param":{"num_deleted":"0","num_feature":"86","num_nodes":"5","size_leaf_vector":"1"}},{"base_weights":[-1.3881867E-3,-2.7245583E-2,1.7287442E-2],"categories":[],"categories_nodes":[],"categories_segments":[],"categories_sizes":[],"default_left":[0,0,0],"id":103,"left_children":[1,-1,-1],"loss_changes":[1.5390841E0,0E0,0E0],"parents":[2147483647,0,0],"right_children":[2,-1,-1],"split_conditions":[-1.4208871E-3,-2.7245583E-2,1.7287442E-2],"split_indices":[16,0,0],"split_type":[0,0,0],"sum_hessian":[1.6362907E1,6.4894724E0,9.873435E0],"tree_param":{"num_deleted":"0","num_feature":"86","num_nodes":"3","size_leaf_vector":"1"}},{"base_weights":[2.66926E-3,2.6980085E-2,-2.1384312E-2],"categories":[],"categories_nodes":[],"categories_segments":[],"categories_sizes":[],"default_left":[0,0,0],"id":104,"left_children":[1,-1,-1],"loss_changes":[1.781249E0,0E0,0E0],"parents":[2147483647,0,0],"right_children":[2,-1,-1],"split_conditions":[1.568395E1,2.6980085E-2,-2.1384312E-2],"split_indices":[12,0,0],"split_type":[0,0,0],"sum_hessian":[1.5491428E1,7.1915946E0,8.299833E0],"tree_param":{"num_deleted":"0","num_feature":"86","num_nodes":"3","size_leaf_vector":"1"}},{"base_weights":[-4.81388E-2,-2.2486798E-2,1.9335145E-2],"categories":[],"categories_nodes":[],"categories_segments":[],"categories_sizes":[],"default_left":[0,0,0],"id":105,"left_children":[1,-1,-1],"loss_changes":[1.3781264E0,0E0,0E0],"parents":[2147483647,0,0],"right_children":[2,-1,-1],"split_conditions":[4.8E-1,-2.2486798E-2,1.9335145E-2],"split_indices":[44,0,0],"split_type":[0,0,0],"sum_hessian":[1.6224821E1,9.602414E0,6.6224065E0],"tree_param":{"num_deleted":"0","num_feature":"86","num_nodes":"3","size_leaf_vector":"1"}},{"base_weights":[-0E0,1.80981E-2,-2.8666653E-2],"categories":[],"categories_nodes":[],"categories_segments":[],"categories_sizes":[],"default_left":[0,0,0],"id":106,"left_children":[1,-1,-1],"loss_changes":[1.6068256E0,0E0,0E0],"parents":[2147483647,0,0],"right_children":[2,-1,-1],"split_conditions":[2.3249865E0,1.80981E-2,-2.8666653E-2],"split_indices":[54,0,0],"split_type":[0,0,0],"sum_hessian":[1.5351597E1,9.369095E0,5.982502E0],"tree_param":{"num_deleted":"0","num_feature":"86","num_nodes":"3","size_leaf_vector":"1"}},{"base_weights":[-2.4467353E-2,1.3111525E-2,-2.3402097E-2],"categories":[],"categories_nodes":[],"categories_segments":[],"categories_sizes":[],"default_left":[0,0,0],"id":107,"left_children":[1,-1,-1],"loss_changes":[1.0066376E0,0E0,0E0],"parents":[2147483647,0,0],"right_children":[2,-1,-1],"split_conditions":[7.5397617E-3,1.3111525E-2,-2.3402097E-2],"split_indices":[0,0,0],"split_type":[0,0,0],"sum_hessian":[1.5273278E1,8.769258E0,6.50402E0],"tree_param":{"num_deleted":"0","num_feature":"86","num_nodes":"3","size_leaf_vector":"1"}},{"base_weights":[4.9621366E-2,2.1571891E-2,-1.6379828E-2],"categories":[],"categories_nodes":[],"categories_segments":[],"categories_sizes":[],"default_left":[0,0,0],"id":108,"left_children":[1,-1,-1],"loss_changes":[1.1613588E0,0E0,0E0],"parents":[2147483647,0,0],"right_children":[2,-1,-1],"split_conditions":[3E0,2.1571891E-2,-1.6379828E-2],"split_indices":[23,0,0],"split_type":[0,0,0],"sum_hessian":[1.6429558E1,9.377419E0,7.052138E0],"tree_param":{"num_deleted":"0","num_feature":"86","num_nodes":"3","size_leaf_vector":"1"}},{"base_weights":[-0E0,-2.0492429E-2,2.1475788E-2],"categories":[],"categories_nodes":[],"categories_segments":[],"categories_sizes":[],"default_left":[0,0,0],"id":109,"left_children":[1,-1,-1],"loss_changes":[1.3374938E0,0E0,0E0],"parents":[2147483647,0,0],"right_children":[2,-1,-1],"split_conditions":[6.495E-1,-2.0492429E-2,2.1475788E-2],"split_indices":[36,0,0],"split_type":[0,0,0],"sum_hessian":[1.5496179E1,8.464369E0,7.03181E0],"tree_param":{"num_deleted":"0","num_feature":"86","num_nodes":"3","size_leaf_vector":"1"}},{"base_weights":[3.8383503E-2,2.7047677E-2,-1.2032813E-1,1.1013024E-2,-3.0840784E-2],"categories":[],"categories_nodes":[],"categories_segments":[],"categories_sizes":[],"default_left":[0,0,0,0,0],"id":110,"left_children":[1,-1,3,-1,-1],"loss_changes":[9.874243E-1,0E0,1.0271842E0,0E0,0E0],"parents":[2147483647,0,0,2,2],"right_children":[2,-1,4,-1,-1],"split_conditions":[8.8278633E-1,2.7047677E-2,1.9168553E0,1.1013024E-2,-3.0840784E-2],"split_indices":[14,0,54,0,0],"split_type":[0,0,0,0,0],"sum_hessian":[1.5674311E1,5.298427E0,1.0375883E1,5.1733065E0,5.202577E0],"tree_param":{"num_deleted":"0","num_feature":"86","num_nodes":"5","size_leaf_vector":"1"}},{"base_weights":[-0E0,1.717812E-2,-2.3254158E-2],"categories":[],"categories_nodes":[],"categories_segments":[],"categories_sizes":[],"default_left":[0,0,0],"id":111,"left_children":[1,-1,-1],"loss_changes":[1.215131E0,0E0,0E0],"parents":[2147483647,0,0],"right_children":[2,-1,-1],"split_conditions":[2.3249865E0,1.717812E-2,-2.3254158E-2],"split_indices":[54,0,0],"split_type":[0,0,0],"sum_hessian":[1.5143229E1,8.48152E0,6.6617084E0],"tree_param":{"num_deleted":"0","num_feature":"86","num_nodes":"3","size_leaf_vector":"1"}},{"base_weights":[1.1127401E-3,2.0380686E-1,-2.2339985E-2,-8.98692E-3,4.0377405E-2],"categories":[],"categories_nodes":[],"categories_segments":[],"categories_sizes":[],"default_left":[0,0,0,0,0],"id":112,"left_children":[1,3,-1,-1,-1],"loss_changes":[1.1036266E0,1.3838487E0,0E0,0E0,0E0],"parents":[2147483647,0,0,1,1],"right_children":[2,4,-1,-1,-1],"split_conditions":[7.3304824E-3,3.4110926E-2,-2.2339985E-2,-8.98692E-3,4.0377405E-2],"split_indices":[19,64,0,0,0],"split_type":[0,0,0,0,0],"sum_hessian":[1.5815798E1,1.0117382E1,5.6984158E0,5.0588393E0,5.058543E0],"tree_param":{"num_deleted":"0","num_feature":"86","num_nodes":"5","size_leaf_vector":"1"}},{"base_weights":[-2.7376781E-3,1.7675621E-2,-2.0729907E-2],"categories":[],"categories_nodes":[],"categories_segments":[],"categories_sizes":[],"default_left":[0,0,0],"id":113,"left_children":[1,-1,-1],"loss_changes":[1.1560055E0,0E0,0E0],"parents":[2147483647,0,0],"right_children":[2,-1,-1],"split_conditions":[1.7186972E1,1.7675621E-2,-2.0729907E-2],"split_indices":[12,0,0],"split_type":[0,0,0],"sum_hessian":[1.5960969E1,8.046869E0,7.9141E0],"tree_param":{"num_deleted":"0","num_feature":"86","num_nodes":"3","size_leaf_vector":"1"}},{"base_weights":[1.2395329E-2,-1.8187757E-1,2.6170883E-2,4.716793E-3,-3.300877E-2],"categories":[],"categories_nodes":[],"categories_segments":[],"categories_sizes":[],"default_left":[0,0,0,0,0],"id":114,"left_children":[1,3,-1,-1,-1],"loss_changes":[1.2872819E0,8.25444E-1,0E0,0E0,0E0],"parents":[2147483647,0,0,1,1],"right_children":[2,4,-1,-1,-1],"split_conditions":[4.8E-1,6.578105E-3,2.6170883E-2,4.716793E-3,-3.300877E-2],"split_indices":[44,1,0,0,0],"split_type":[0,0,0,0,0],"sum_hessian":[1.6393915E1,1.00695915E1,6.324324E0,5.0192423E0,5.0503488E0],"tree_param":{"num_deleted":"0","num_feature":"86","num_nodes":"5","size_leaf_vector":"1"}},{"base_weights":[-0E0,-1.6469132E-2,2.5587039E-2],"categories":[],"categories_nodes":[],"categories_segments":[],"categories_sizes":[],"default_left":[0,0,0],"id":115,"left_children":[1,-1,-1],"loss_changes":[1.2589417E0,0E0,0E0],"parents":[2147483647,0,0],"right_children":[2,-1,-1],"split_conditions":[4.8E-1,-1.6469132E-2,2.5587039E-2],"split_indices":[44,0,0],"split_type":[0,0,0],"sum_hessian":[1.4695835E1,8.9081135E0,5.7877216E0],"tree_param":{"num_deleted":"0","num_feature":"86","num_nodes":"3","size_leaf_vector":"1"}},{"base_weights":[-0E0,1.7156778E-2,-1.5729662E-2],"categories":[],"categories_nodes":[],"categories_segments":[],"categories_sizes":[],"default_left":[0,0,0],"id":116,"left_children":[1,-1,-1],"loss_changes":[8.044937E-1,0E0,0E0],"parents":[2147483647,0,0],"right_children":[2,-1,-1],"split_conditions":[1.7186972E1,1.7156778E-2,-1.5729662E-2],"split_indices":[12,0,0],"split_type":[0,0,0],"sum_hessian":[1.4995021E1,7.5662084E0,7.428812E0],"tree_param":{"num_deleted":"0","num_feature":"86","num_nodes":"3","size_leaf_vector":"1"}},{"base_weights":[-7.137501E-2,1.4373674E-2,-4.040931E-2],"categories":[],"categories_nodes":[],"categories_segments":[],"categories_sizes":[],"default_left":[0,0,0],"id":117,"left_children":[1,-1,-1],"loss_changes":[2.0955887E0,0E0,0E0],"parents":[2147483647,0,0],"right_children":[2,-1,-1],"split_conditions":[3.7390006E0,1.4373674E-2,-4.040931E-2],"split_indices":[26,0,0],"split_type":[0,0,0],"sum_hessian":[1.4681622E1,9.603227E0,5.078395E0],"tree_param":{"num_deleted":"0","num_feature":"86","num_nodes":"3","size_leaf_vector":"1"}},{"base_weights":[-9.621168E-3,1.7904192E-2,-2.8205127E-2],"categories":[],"categories_nodes":[],"categories_segments":[],"categories_sizes":[],"default_left":[0,0,0],"id":118,"left_children":[1,-1,-1],"loss_changes":[1.5765272E0,0E0,0E0],"parents":[2147483647,0,0],"right_children":[2,-1,-1],"split_conditions":[3.3730841E-3,1.7904192E-2,-2.8205127E-2],"split_indices":[17,0,0],"split_type":[0,0,0],"sum_hessian":[1.5240136E1,8.960927E0,6.2792096E0],"tree_param":{"num_deleted":"0","num_feature":"86","num_nodes":"3","size_leaf_vector":"1"}},{"base_weights":[3.056817E-2,-2.264482E-2,2.2705277E-2],"categories":[],"categories_nodes":[],"categories_segments":[],"categories_sizes":[],"default_left":[0,0,0],"id":119,"left_children":[1,-1,-1],"loss_changes":[1.5488356E0,0E0,0E0],"parents":[2147483647,0,0],"right_children":[2,-1,-1],"split_conditions":[-1.3502962E-3,-2.264482E-2,2.2705277E-2],"split_indices":[16,0,0],"split_type":[0,0,0],"sum_hessian":[1.547463E1,6.2787805E0,9.19585E0],"tree_param":{"num_deleted":"0","num_feature":"86","num_nodes":"3","size_leaf_vector":"1"}},{"base_weights":[-9.250084E-2,1.8580757E-2,-2.6804838E-2],"categories":[],"categories_nodes":[],"categories_segments":[],"categories_sizes":[],"default_left":[0,0,0],"id":120,"left_children":[1,-1,-1],"loss_changes":[1.5282464E0,0E0,0E0],"parents":[2147483647,0,0],"right_children":[2,-1,-1],"split_conditions":[5.132467E-3,1.8580757E-2,-2.6804838E-2],"split_indices":[20,0,0],"split_type":[0,0,0],"sum_hessian":[1.5033137E1,5.9349804E0,9.098157E0],"tree_param":{"num_deleted":"0","num_feature":"86","num_nodes":"3","size_leaf_vector":"1"}},{"base_weights":[-5.015416E-2,-3.0592974E-2,1.5495343E-2],"categories":[],"categories_nodes":[],"categories_segments":[],"categories_sizes":[],"default_left":[0,0,0],"id":121,"left_children":[1,-1,-1],"loss_changes":[1.6318413E0,0E0,0E0],"parents":[2147483647,0,0],"right_children":[2,-1,-1],"split_conditions":[1.1113445E0,-3.0592974E-2,1.5495343E-2],"split_indices":[59,0,0],"split_type":[0,0,0],"sum_hessian":[1.5614031E1,6.6486015E0,8.965429E0],"tree_param":{"num_deleted":"0","num_feature":"86","num_nodes":"3","size_leaf_vector":"1"}},{"base_weights":[-3.4166213E-2,1.0606606E-2,-2.3199389E-2],"categories":[],"categories_nodes":[],"categories_segments":[],"categories_sizes":[],"default_left":[0,0,0],"id":122,"left_children":[1,-1,-1],"loss_changes":[8.392399E-1,0E0,0E0],"parents":[2147483647,0,0],"right_children":[2,-1,-1],"split_conditions":[2.3249865E0,1.0606606E-2,-2.3199389E-2],"split_indices":[54,0,0],"split_type":[0,0,0],"sum_hessian":[1.476378E1,8.811332E0,5.9524474E0],"tree_param":{"num_deleted":"0","num_feature":"86","num_nodes":"3","size_leaf_vector":"1"}},{"base_weights":[-3.3652876E-2,-2.887493E-2,1.4276852E-2],"categories":[],"categories_nodes":[],"categories_segments":[],"categories_sizes":[],"default_left":[0,0,0],"id":123,"left_children":[1,-1,-1],"loss_changes":[1.3624432E0,0E0,0E0],"parents":[2147483647,0,0],"right_children":[2,-1,-1],"split_conditions":[2.1575894E0,-2.887493E-2,1.4276852E-2],"split_indices":[13,0,0],"split_type":[0,0,0],"sum_hessian":[1.4981449E1,5.8956947E0,9.085754E0],"tree_param":{"num_deleted":"0","num_feature":"86","num_nodes":"3","size_leaf_vector":"1"}},{"base_weights":[1.0919332E-1,-1.2613953E-2,2.4560077E-2],"categories":[],"categories_nodes":[],"categories_segments":[],"categories_sizes":[],"default_left":[0,0,0],"id":124,"left_children":[1,-1,-1],"loss_changes":[1.0434747E0,0E0,0E0],"parents":[2147483647,0,0],"right_children":[2,-1,-1],"split_conditions":[2.9482073E-1,-1.2613953E-2,2.4560077E-2],"split_indices":[29,0,0],"split_type":[0,0,0],"sum_hessian":[1.5084491E1,5.9484415E0,9.13605E0],"tree_param":{"num_deleted":"0","num_feature":"86","num_nodes":"3","size_leaf_vector":"1"}},{"base_weights":[3.530666E-2,1.8850144E-2,-1.6678503E-2],"categories":[],"categories_nodes":[],"categories_segments":[],"categories_sizes":[],"default_left":[0,0,0],"id":125,"left_children":[1,-1,-1],"loss_changes":[9.688361E-1,0E0,0E0],"parents":[2147483647,0,0],"right_children":[2,-1,-1],"split_conditions":[4E0,1.8850144E-2,-1.6678503E-2],"split_indices":[42,0,0],"split_type":[0,0,0],"sum_hessian":[1.5660156E1,9.308723E0,6.3514323E0],"tree_param":{"num_deleted":"0","num_feature":"86","num_nodes":"3","size_leaf_vector":"1"}},{"base_weights":[-0E0,2.2025593E-2,-1.9704986E-2],"categories":[],"categories_nodes":[],"categories_segments":[],"categories_sizes":[],"default_left":[0,0,0],"id":126,"left_children":[1,-1,-1],"loss_changes":[1.2877538E0,0E0,0E0],"parents":[2147483647,0,0],"right_children":[2,-1,-1],"split_conditions":[1.568395E1,2.2025593E-2,-1.9704986E-2],"split_indices":[12,0,0],"split_type":[0,0,0],"sum_hessian":[1.4866637E1,7.4585032E0,7.408134E0],"tree_param":{"num_deleted":"0","num_feature":"86","num_nodes":"3","size_leaf_vector":"1"}},{"base_weights":[-7.958098E-2,1.1912789E-2,-3.4639042E-2],"categories":[],"categories_nodes":[],"categories_segments":[],"categories_sizes":[],"default_left":[0,0,0],"id":127,"left_children":[1,-1,-1],"loss_changes":[1.6052806E0,0E0,0E0],"parents":[2147483647,0,0],"right_children":[2,-1,-1],"split_conditions":[3.3045507E-3,1.1912789E-2,-3.4639042E-2],"split_indices":[17,0,0],"split_type":[0,0,0],"sum_hessian":[1.5227246E1,9.43535E0,5.7918954E0],"tree_param":{"num_deleted":"0","num_feature":"86","num_nodes":"3","size_leaf_vector":"1"}},{"base_weights":[7.485548E-2,2.381503E-2,-1.9308886E-2],"categories":[],"categories_nodes":[],"categories_segments":[],"categories_sizes":[],"default_left":[0,0,0],"id":128,"left_children":[1,-1,-1],"loss_changes":[1.357452E0,0E0,0E0],"parents":[2147483647,0,0],"right_children":[2,-1,-1],"split_conditions":[1.4567256E0,2.381503E-2,-1.9308886E-2],"split_indices":[8,0,0],"split_type":[0,0,0],"sum_hessian":[1.4985487E1,9.416058E0,5.5694284E0],"tree_param":{"num_deleted":"0","num_feature":"86","num_nodes":"3","size_leaf_vector":"1"}},{"base_weights":[-2.7654016E-2,-2.0925578E-2,1.1484003E-2],"categories":[],"categories_nodes":[],"categories_segments":[],"categories_sizes":[],"default_left":[0,0,0],"id":129,"left_children":[1,-1,-1],"loss_changes":[8.4570736E-1,0E0,0E0],"parents":[2147483647,0,0],"right_children":[2,-1,-1],"split_conditions":[6E0,-2.0925578E-2,1.1484003E-2],"split_indices":[55,0,0],"split_type":[0,0,0],"sum_hessian":[1.63584E1,7.2074814E0,9.15092E0],"tree_param":{"num_deleted":"0","num_feature":"86","num_nodes":"3","size_leaf_vector":"1"}},{"base_weights":[-0E0,1.4635229E-2,-2.0865867E-2],"categories":[],"categories_nodes":[],"categories_segments":[],"categories_sizes":[],"default_left":[0,0,0],"id":130,"left_children":[1,-1,-1],"loss_changes":[8.9530915E-1,0E0,0E0],"parents":[2147483647,0,0],"right_children":[2,-1,-1],"split_conditions":[1.0227689E0,1.4635229E-2,-2.0865867E-2],"split_indices":[15,0,0],"split_type":[0,0,0],"sum_hessian":[1.4815503E1,9.13047E0,5.685033E0],"tree_param":{"num_deleted":"0","num_feature":"86","num_nodes":"3","size_leaf_vector":"1"}},{"base_weights":[-7.5470773E-3,1.6174685E-2,-2.435647E-2],"categories":[],"categories_nodes":[],"categories_segments":[],"categories_sizes":[],"default_left":[0,0,0],"id":131,"left_children":[1,-1,-1],"loss_changes":[1.2155812E0,0E0,0E0],"parents":[2147483647,0,0],"right_children":[2,-1,-1],"split_conditions":[7.5397617E-3,1.6174685E-2,-2.435647E-2],"split_indices":[0,0,0],"split_type":[0,0,0],"sum_hessian":[1.505111E1,8.602286E0,6.448824E0],"tree_param":{"num_deleted":"0","num_feature":"86","num_nodes":"3","size_leaf_vector":"1"}},{"base_weights":[2.0085122E-2,2.578242E-2,-1.5776936E-2],"categories":[],"categories_nodes":[],"categories_segments":[],"categories_sizes":[],"default_left":[0,0,0],"id":132,"left_children":[1,-1,-1],"loss_changes":[1.3411638E0,0E0,0E0],"parents":[2147483647,0,0],"right_children":[2,-1,-1],"split_conditions":[6.47541E-1,2.578242E-2,-1.5776936E-2],"split_indices":[30,0,0],"split_type":[0,0,0],"sum_hessian":[1.5916842E1,6.8311214E0,9.085721E0],"tree_param":{"num_deleted":"0","num_feature":"86","num_nodes":"3","size_leaf_vector":"1"}},{"base_weights":[-8.856305E-2,-3.1179842E-1,2.1882784E-2,-0E0,-4.2315774E-2],"categories":[],"categories_nodes":[],"categories_segments":[],"categories_sizes":[],"default_left":[0,0,0,0,0],"id":133,"left_children":[1,3,-1,-1,-1],"loss_changes":[1.5689548E0,7.926878E-1,0E0,0E0,0E0],"parents":[2147483647,0,0,1,1],"right_children":[2,4,-1,-1,-1],"split_conditions":[1.7387909E-1,1.279688E0,2.1882784E-2,-0E0,-4.2315774E-2],"split_indices":[4,68,0,0,0],"split_type":[0,0,0,0,0],"sum_hessian":[1.5157589E1,1.0061156E1,5.096432E0,5.037007E0,5.0241494E0],"tree_param":{"num_deleted":"0","num_feature":"86","num_nodes":"5","size_leaf_vector":"1"}},{"base_weights":[3.8667083E-2,-1.4614536E-2,2.4558468E-2],"categories":[],"categories_nodes":[],"categories_segments":[],"categories_sizes":[],"default_left":[0,0,0],"id":134,"left_children":[1,-1,-1],"loss_changes":[1.0906368E0,0E0,0E0],"parents":[2147483647,0,0],"right_children":[2,-1,-1],"split_conditions":[3.4E-1,-1.4614536E-2,2.4558468E-2],"split_indices":[44,0,0],"split_type":[0,0,0],"sum_hessian":[1.3847328E1,7.324826E0,6.5225024E0],"tree_param":{"num_deleted":"0","num_feature":"86","num_nodes":"3","size_leaf_vector":"1"}},{"base_weights":[-2.5851564E-2,-3.0607885E-2,1.9720726E-2],"categories":[],"categories_nodes":[],"categories_segments":[],"categories_sizes":[],"default_left":[0,0,0],"id":135,"left_children":[1,-1,-1],"loss_changes":[1.7838142E0,0E0,0E0],"parents":[2147483647,0,0],"right_children":[2,-1,-1],"split_conditions":[6E0,-3.0607885E-2,1.9720726E-2],"split_indices":[55,0,0],"split_type":[0,0,0],"sum_hessian":[1.39973E1,6.1862826E0,7.8110175E0],"tree_param":{"num_deleted":"0","num_feature":"86","num_nodes":"3","size_leaf_vector":"1"}},{"base_weights":[-2.625898E-2,1.9652909E-1,-3.2300718E-2,2.702703E-2,-0E0],"categories":[],"categories_nodes":[],"categories_segments":[],"categories_sizes":[],"default_left":[0,0,0,0,0],"id":136,"left_children":[1,3,-1,-1,-1],"loss_changes":[1.7651505E0,3.6378813E-1,0E0,0E0,0E0],"parents":[2147483647,0,0,1,1],"right_children":[2,4,-1,-1,-1],"split_conditions":[1.0262655E0,2.603919E0,-3.2300718E-2,2.702703E-2,-0E0],"split_indices":[15,26,0,0,0],"split_type":[0,0,0,0,0],"sum_hessian":[1.6361889E1,1.0392602E1,5.9692874E0,5.3810873E0,5.011515E0],"tree_param":{"num_deleted":"0","num_feature":"86","num_nodes":"5","size_leaf_vector":"1"}},{"base_weights":[1.00294845E-2,-1.5059365E-2,2.7793793E-2],"categories":[],"categories_nodes":[],"categories_segments":[],"categories_sizes":[],"default_left":[0,0,0],"id":137,"left_children":[1,-1,-1],"loss_changes":[1.2731686E0,0E0,0E0],"parents":[2147483647,0,0],"right_children":[2,-1,-1],"split_conditions":[4.8E-1,-1.5059365E-2,2.7793793E-2],"split_indices":[44,0,0],"split_type":[0,0,0],"sum_hessian":[1.4363085E1,9.043544E0,5.3195415E0],"tree_param":{"num_deleted":"0","num_feature":"86","num_nodes":"3","size_leaf_vector":"1"}},{"base_weights":[-1.0927819E-3,-3.2584455E-2,2.2538085E-2],"categories":[],"categories_nodes":[],"categories_segments":[],"categories_sizes":[],"default_left":[0,0,0],"id":138,"left_children":[1,-1,-1],"loss_changes":[2.2173421E0,0E0,0E0],"parents":[2147483647,0,0],"right_children":[2,-1,-1],"split_conditions":[-1.3502962E-3,-3.2584455E-2,2.2538085E-2],"split_indices":[16,0,0],"split_type":[0,0,0],"sum_hessian":[1.4975032E1,6.2206817E0,8.75435E0],"tree_param":{"num_deleted":"0","num_feature":"86","num_nodes":"3","size_leaf_vector":"1"}},{"base_weights":[-1.2119371E-2,1.6116664E-2,-2.761686E-2],"categories":[],"categories_nodes":[],"categories_segments":[],"categories_sizes":[],"default_left":[0,0,0],"id":139,"left_children":[1,-1,-1],"loss_changes":[1.3754461E0,0E0,0E0],"parents":[2147483647,0,0],"right_children":[2,-1,-1],"split_conditions":[3E0,1.6116664E-2,-2.761686E-2],"split_indices":[23,0,0],"split_type":[0,0,0],"sum_hessian":[1.4772761E1,8.934008E0,5.838753E0],"tree_param":{"num_deleted":"0","num_feature":"86","num_nodes":"3","size_leaf_vector":"1"}},{"base_weights":[-1.4752417E-2,1.435434E-2,-2.2499973E-2],"categories":[],"categories_nodes":[],"categories_segments":[],"categories_sizes":[],"default_left":[0,0,0],"id":140,"left_children":[1,-1,-1],"loss_changes":[1.0095277E0,0E0,0E0],"parents":[2147483647,0,0],"right_children":[2,-1,-1],"split_conditions":[1.9948816E1,1.435434E-2,-2.2499973E-2],"split_indices":[12,0,0],"split_type":[0,0,0],"sum_hessian":[1.4967573E1,8.385348E0,6.582225E0],"tree_param":{"num_deleted":"0","num_feature":"86","num_nodes":"3","size_leaf_vector":"1"}},{"base_weights":[-1.848601E-2,1.2405735E-2,-1.44286845E-2],"categories":[],"categories_nodes":[],"categories_segments":[],"categories_sizes":[],"default_left":[0,0,0],"id":141,"left_children":[1,-1,-1],"loss_changes":[5.4772544E-1,0E0,0E0],"parents":[2147483647,0,0],"right_children":[2,-1,-1],"split_conditions":[6.47541E-1,1.2405735E-2,-1.44286845E-2],"split_indices":[30,0,0],"split_type":[0,0,0],"sum_hessian":[1.5234941E1,6.498282E0,8.736658E0],"tree_param":{"num_deleted":"0","num_feature":"86","num_nodes":"3","size_leaf_vector":"1"}},{"base_weights":[-9.324182E-3,1.2519017E-2,-2.111791E-2],"categories":[],"categories_nodes":[],"categories_segments":[],"categories_sizes":[],"default_left":[0,0,0],"id":142,"left_children":[1,-1,-1],"loss_changes":[8.5492164E-1,0E0,0E0],"parents":[2147483647,0,0],"right_children":[2,-1,-1],"split_conditions":[3E0,1.2519017E-2,-2.111791E-2],"split_indices":[23,0,0],"split_type":[0,0,0],"sum_hessian":[1.5526979E1,9.157233E0,6.3697467E0],"tree_param":{"num_deleted":"0","num_feature":"86","num_nodes":"3","size_leaf_vector":"1"}},{"base_weights":[-1.4725317E-1,-3.3977795E-2,3.0174658E-3],"categories":[],"categories_nodes":[],"categories_segments":[],"categories_sizes":[],"default_left":[0,0,0],"id":143,"left_children":[1,-1,-1],"loss_changes":[9.4968224E-1,0E0,0E0],"parents":[2147483647,0,0],"right_children":[2,-1,-1],"split_conditions":[2.9482073E-1,-3.3977795E-2,3.0174658E-3],"split_indices":[29,0,0],"split_type":[0,0,0],"sum_hessian":[1.36173115E1,5.0586214E0,8.55869E0],"tree_param":{"num_deleted":"0","num_feature":"86","num_nodes":"3","size_leaf_vector":"1"}},{"base_weights":[-2.8464794E-2,-2.2818234E-2,1.15144355E-2],"categories":[],"categories_nodes":[],"categories_segments":[],"categories_sizes":[],"default_left":[0,0,0],"id":144,"left_children":[1,-1,-1],"loss_changes":[8.6367524E-1,0E0,0E0],"parents":[2147483647,0,0],"right_children":[2,-1,-1],"split_conditions":[1.9053595E0,-2.2818234E-2,1.15144355E-2],"split_indices":[26,0,0],"split_type":[0,0,0],"sum_hessian":[1.4699071E1,6.0779066E0,8.621164E0],"tree_param":{"num_deleted":"0","num_feature":"86","num_nodes":"3","size_leaf_vector":"1"}},{"base_weights":[-0E0,-1.6430974E-2,1.6588759E-2],"categories":[],"categories_nodes":[],"categories_segments":[],"categories_sizes":[],"default_left":[0,0,0],"id":145,"left_children":[1,-1,-1],"loss_changes":[7.6829934E-1,0E0,0E0],"parents":[2147483647,0,0],"right_children":[2,-1,-1],"split_conditions":[8.377679E-3,-1.6430974E-2,1.6588759E-2],"split_indices":[18,0,0],"split_type":[0,0,0],"sum_hessian":[1.402835E1,6.4549313E0,7.573419E0],"tree_param":{"num_deleted":"0","num_feature":"86","num_nodes":"3","size_leaf_vector":"1"}},{"base_weights":[3.305175E-2,-1.722571E-2,2.0431453E-2],"categories":[],"categories_nodes":[],"categories_segments":[],"categories_sizes":[],"default_left":[0,0,0],"id":146,"left_children":[1,-1,-1],"loss_changes":[1.0380874E0,0E0,0E0],"parents":[2147483647,0,0],"right_children":[2,-1,-1],"split_conditions":[6E0,-1.722571E-2,2.0431453E-2],"split_indices":[55,0,0],"split_type":[0,0,0],"sum_hessian":[1.4588598E1,6.2834044E0,8.305194E0],"tree_param":{"num_deleted":"0","num_feature":"86","num_nodes":"3","size_leaf_vector":"1"}},{"base_weights":[-0E0,-1.5044811E-2,2.163941E-2],"categories":[],"categories_nodes":[],"categories_segments":[],"categories_sizes":[],"default_left":[0,0,0],"id":147,"left_children":[1,-1,-1],"loss_changes":[9.100697E-1,0E0,0E0],"parents":[2147483647,0,0],"right_children":[2,-1,-1],"split_conditions":[7.578485E-3,-1.5044811E-2,2.163941E-2],"split_indices":[20,0,0],"split_type":[0,0,0],"sum_hessian":[1.42141E1,9.179679E0,5.03442E0],"tree_param":{"num_deleted":"0","num_feature":"86","num_nodes":"3","size_leaf_vector":"1"}},{"base_weights":[-0E0,-1.6398741E-1,2.4730956E-2,-3.3725914E-2,8.018113E-3],"categories":[],"categories_nodes":[],"categories_segments":[],"categories_sizes":[],"default_left":[0,0,0,0,0],"id":148,"left_children":[1,3,-1,-1,-1],"loss_changes":[1.0148305E0,1.0151172E0,0E0,0E0,0E0],"parents":[2147483647,0,0,1,1],"right_children":[2,4,-1,-1,-1],"split_conditions":[7.3426574E-1,4.4296898E1,2.4730956E-2,-3.3725914E-2,8.018113E-3],"split_indices":[29,10,0,0,0],"split_type":[0,0,0,0,0],"sum_hessian":[1.5427341E1,1.0257313E1,5.1700287E0,5.1655846E0,5.091728E0],"tree_param":{"num_deleted":"0","num_feature":"86","num_nodes":"5","size_leaf_vector":"1"}},{"base_weights":[-3.712082E-2,-2.652434E-2,1.1362538E-2],"categories":[],"categories_nodes":[],"categories_segments":[],"categories_sizes":[],"default_left":[0,0,0],"id":149,"left_children":[1,-1,-1],"loss_changes":[1.0527962E0,0E0,0E0],"parents":[2147483647,0,0],"right_children":[2,-1,-1],"split_conditions":[-1.4208871E-3,-2.652434E-2,1.1362538E-2],"split_indices":[16,0,0],"split_type":[0,0,0],"sum_hessian":[1.5095407E1,5.7002892E0,9.395117E0],"tree_param":{"num_deleted":"0","num_feature":"86","num_nodes":"3","size_leaf_vector":"1"}},{"base_weights":[6.1969347E-2,-1.7961983E-2,2.0139642E-2],"categories":[],"categories_nodes":[],"categories_segments":[],"categories_sizes":[],"default_left":[0,0,0],"id":150,"left_children":[1,-1,-1],"loss_changes":[1.0374322E0,0E0,0E0],"parents":[2147483647,0,0],"right_children":[2,-1,-1],"split_conditions":[2.9482073E-1,-1.7961983E-2,2.0139642E-2],"split_indices":[29,0,0],"split_type":[0,0,0],"sum_hessian":[1.4851645E1,5.1420193E0,9.709626E0],"tree_param":{"num_deleted":"0","num_feature":"86","num_nodes":"3","size_leaf_vector":"1"}},{"base_weights":[-8.374074E-2,8.099614E-3,-2.681218E-2],"categories":[],"categories_nodes":[],"categories_segments":[],"categories_sizes":[],"default_left":[0,0,0],"id":151,"left_children":[1,-1,-1],"loss_changes":[8.8466924E-1,0E0,0E0],"parents":[2147483647,0,0],"right_children":[2,-1,-1],"split_conditions":[5.405097E-3,8.099614E-3,-2.681218E-2],"split_indices":[19,0,0],"split_type":[0,0,0],"sum_hessian":[1.4053983E1,8.097357E0,5.956626E0],"tree_param":{"num_deleted":"0","num_feature":"86","num_nodes":"3","size_leaf_vector":"1"}},{"base_weights":[-1.2435098E-1,-2.693845E-2,1.26112895E-2],"categories":[],"categories_nodes":[],"categories_segments":[],"categories_sizes":[],"default_left":[0,0,0],"id":152,"left_children":[1,-1,-1],"loss_changes":[1.1472068E0,0E0,0E0],"parents":[2147483647,0,0],"right_children":[2,-1,-1],"split_conditions":[4.8E-1,-2.693845E-2,1.26112895E-2],"split_indices":[44,0,0],"split_type":[0,0,0],"sum_hessian":[1.4485639E1,8.648065E0,5.837574E0],"tree_param":{"num_deleted":"0","num_feature":"86","num_nodes":"3","size_leaf_vector":"1"}},{"base_weights":[1.0547577E-1,-1.187401E-2,2.7931068E-2],"categories":[],"categories_nodes":[],"categories_segments":[],"categories_sizes":[],"default_left":[0,0,0],"id":153,"left_children":[1,-1,-1],"loss_changes":[1.0870032E0,0E0,0E0],"parents":[2147483647,0,0],"right_children":[2,-1,-1],"split_conditions":[1.1329107E0,-1.187401E-2,2.7931068E-2],"split_indices":[59,0,0],"split_type":[0,0,0],"sum_hessian":[1.2921691E1,6.1077785E0,6.813912E0],"tree_param":{"num_deleted":"0","num_feature":"86","num_nodes":"3","size_leaf_vector":"1"}},{"base_weights":[-0E0,1.6960267E-2,-2.0277528E-2],"categories":[],"categories_nodes":[],"categories_segments":[],"categories_sizes":[],"default_left":[0,0,0],"id":154,"left_children":[1,-1,-1],"loss_changes":[1.009562E0,0E0,0E0],"parents":[2147483647,0,0],"right_children":[2,-1,-1],"split_conditions":[5.457621E-1,1.6960267E-2,-2.0277528E-2],"split_indices":[7,0,0],"split_type":[0,0,0],"sum_hessian":[1.4892192E1,8.579508E0,6.312685E0],"tree_param":{"num_deleted":"0","num_feature":"86","num_nodes":"3","size_leaf_vector":"1"}},{"base_weights":[9.941763E-2,2.6240623E-2,-7.31527E-3],"categories":[],"categories_nodes":[],"categories_segments":[],"categories_sizes":[],"default_left":[0,0,0],"id":155,"left_children":[1,-1,-1],"loss_changes":[8.643904E-1,0E0,0E0],"parents":[2147483647,0,0],"right_children":[2,-1,-1],"split_conditions":[1.568395E1,2.6240623E-2,-7.31527E-3],"split_indices":[12,0,0],"split_type":[0,0,0],"sum_hessian":[1.4810932E1,6.800579E0,8.010352E0],"tree_param":{"num_deleted":"0","num_feature":"86","num_nodes":"3","size_leaf_vector":"1"}},{"base_weights":[-3.7621646E-3,-2.6605727E-2,2.8393976E-2],"categories":[],"categories_nodes":[],"categories_segments":[],"categories_sizes":[],"default_left":[0,0,0],"id":156,"left_children":[1,-1,-1],"loss_changes":[2.0597427E0,0E0,0E0],"parents":[2147483647,0,0],"right_children":[2,-1,-1],"split_conditions":[3.534457E-2,-2.6605727E-2,2.8393976E-2],"split_indices":[64,0,0],"split_type":[0,0,0],"sum_hessian":[1.3519575E1,7.5658946E0,5.9536805E0],"tree_param":{"num_deleted":"0","num_feature":"86","num_nodes":"3","size_leaf_vector":"1"}},{"base_weights":[-0E0,-2.2203814E-2,1.668549E-2],"categories":[],"categories_nodes":[],"categories_segments":[],"categories_sizes":[],"default_left":[0,0,0],"id":157,"left_children":[1,-1,-1],"loss_changes":[1.0358623E0,0E0,0E0],"parents":[2147483647,0,0],"right_children":[2,-1,-1],"split_conditions":[-2.8965077E-3,-2.2203814E-2,1.668549E-2],"split_indices":[17,0,0],"split_type":[0,0,0],"sum_hessian":[1.42114315E1,5.266203E0,8.945229E0],"tree_param":{"num_deleted":"0","num_feature":"86","num_nodes":"3","size_leaf_vector":"1"}},{"base_weights":[5.0131332E-2,-1.2906029E-2,2.0592166E-2],"categories":[],"categories_nodes":[],"categories_segments":[],"categories_sizes":[],"default_left":[0,0,0],"id":158,"left_children":[1,-1,-1],"loss_changes":[8.4933746E-1,0E0,0E0],"parents":[2147483647,0,0],"right_children":[2,-1,-1],"split_conditions":[4.8805943E-1,-1.2906029E-2,2.0592166E-2],"split_indices":[51,0,0],"split_type":[0,0,0],"sum_hessian":[1.4826005E1,6.841892E0,7.984113E0],"tree_param":{"num_deleted":"0","num_feature":"86","num_nodes":"3","size_leaf_vector":"1"}},{"base_weights":[-3.6694907E-2,1.1986558E-2,-2.8664269E-2],"categories":[],"categories_nodes":[],"categories_segments":[],"categories_sizes":[],"default_left":[0,0,0],"id":159,"left_children":[1,-1,-1],"loss_changes":[1.1226591E0,0E0,0E0],"parents":[2147483647,0,0],