{"learner":{"attributes":{"scikit_learn":"{\"_estimator_type\": \"classifier\"}"},"feature_names":["atr_14","atr_pct","rsi_14","macd_hist","macd_hist_norm","bb_pct","bb_width","ema_short_dist","ema_long_dist","ema_cross","adx_14","plus_di","minus_di","di_diff","volume_ratio","volume_sma_ratio","returns_1","returns_5","returns_20","roc_10","high_low_range_pct","close_position","hour","day_of_week","donchian_upper_break","donchian_lower_break","donchian_position","donchian_width_pct","donchian_middle_dist","trend_bias","trend_bias_strength","adx_proxy","bb_squeeze_pctile","bb_expanding","atr_expansion","bars_since_upper_break","bars_since_lower_break"],"feature_types":["float","float","float","float","float","float","float","float","float","float","float","float","float","float","float","float","float","float","float","float","float","float","float","float","float","float","float","float","float","float","float","float","float","float","float","float","float"],"gradient_booster":{"model":{"cats":{"enc":[],"feature_segments":[],"sorted_idx":[]},"gbtree_model_param":{"num_parallel_tree":"1","num_trees":"200"},"iteration_indptr":[0,1,2,3,4,5,6,7,8,9,10,11,12,13,14,15,16,17,18,19,20,21,22,23,24,25,26,27,28,29,30,31,32,33,34,35,36,37,38,39,40,41,42,43,44,45,46,47,48,49,50,51,52,53,54,55,56,57,58,59,60,61,62,63,64,65,66,67,68,69,70,71,72,73,74,75,76,77,78,79,80,81,82,83,84,85,86,87,88,89,90,91,92,93,94,95,96,97,98,99,100,101,102,103,104,105,106,107,108,109,110,111,112,113,114,115,116,117,118,119,120,121,122,123,124,125,126,127,128,129,130,131,132,133,134,135,136,137,138,139,140,141,142,143,144,145,146,147,148,149,150,151,152,153,154,155,156,157,158,159,160,161,162,163,164,165,166,167,168,169,170,171,172,173,174,175,176,177,178,179,180,181,182,183,184,185,186,187,188,189,190,191,192,193,194,195,196,197,198,199,200],"tree_info":[0,0,0,0,0,0,0,0,0,0,0,0,0,0,0,0,0,0,0,0,0,0,0,0,0,0,0,0,0,0,0,0,0,0,0,0,0,0,0,0,0,0,0,0,0,0,0,0,0,0,0,0,0,0,0,0,0,0,0,0,0,0,0,0,0,0,0,0,0,0,0,0,0,0,0,0,0,0,0,0,0,0,0,0,0,0,0,0,0,0,0,0,0,0,0,0,0,0,0,0,0,0,0,0,0,0,0,0,0,0,0,0,0,0,0,0,0,0,0,0,0,0,0,0,0,0,0,0,0,0,0,0,0,0,0,0,0,0,0,0,0,0,0,0,0,0,0,0,0,0,0,0,0,0,0,0,0,0,0,0,0,0,0,0,0,0,0,0,0,0,0,0,0,0,0,0,0,0,0,0,0,0,0,0,0,0,0,0,0,0,0,0,0,0,0,0,0,0,0,0],"trees":[{"base_weights":[5.1674783E-2,-4.3798593E-1,1.2896079E-1,4.2280233E-1,-9.4679606E-1,3.5105318E-1,7.3448652E-3,5.403198E-2,-2.4869319E-2,-1.2692664E0,-1.8971947E-3,5.296927E-1,-2.2445136E-1,6.208601E-1,-5.9086744E-2,-8.0446765E-2,-4.1776866E-2,2.0165807E-2,6.4067714E-2,-2.7988901E-2,3.804339E-2,-9.161974E-4,4.7182664E-2,8.965503E-3,-1.6435446E-2],"categories":[],"categories_nodes":[],"categories_segments":[],"categories_sizes":[],"default_left":[0,0,0,0,0,1,0,0,0,0,0,1,0,1,0,0,0,0,0,0,0,0,0,0,0],"id":0,"left_children":[1,3,5,7,9,11,13,-1,-1,15,-1,17,19,21,23,-1,-1,-1,-1,-1,-1,-1,-1,-1,-1],"loss_changes":[1.18334465E1,1.9103928E1,7.2658887E0,1.0546724E1,7.7770576E0,9.954735E0,7.268293E0,0E0,0E0,1.3466415E0,0E0,6.2694435E0,8.058618E0,3.707034E0,1.0333791E1,0E0,0E0,0E0,0E0,0E0,0E0,0E0,0E0,0E0,0E0],"parents":[2147483647,0,0,1,1,2,2,3,3,4,4,5,5,6,6,9,9,11,11,12,12,13,13,14,14],"right_children":[2,4,6,8,10,12,14,-1,-1,16,-1,18,20,22,24,-1,-1,-1,-1,-1,-1,-1,-1,-1,-1],"split_conditions":[9.305605E0,2.2225298E-3,8.929071E-3,3.8776531E0,2.25642E-2,6.032021E1,1.1728796E1,5.403198E-2,-2.4869319E-2,9.6160626E-1,-1.8971947E-3,1.0185254E-2,8.068293E-3,1.3435411E0,-8.1359973E-4,-8.0446765E-2,-4.1776866E-2,2.0165807E-2,6.4067714E-2,-2.7988901E-2,3.804339E-2,-9.161974E-4,4.7182664E-2,8.965503E-3,-1.6435446E-2],"split_indices":[12,1,6,30,27,2,12,0,0,14,0,27,6,30,18,0,0,0,0,0,0,0,0,0,0],"split_type":[0,0,0,0,0,0,0,0,0,0,0,0,0,0,0,0,0,0,0,0,0,0,0,0,0],"sum_hessian":[3.110149E2,4.1584858E1,2.6943002E2,1.5438689E1,2.6146168E1,9.437521E1,1.7505481E2,8.9644E0,6.474289E0,1.8924845E1,7.2213225E0,7.221323E1,2.216199E1,1.6434734E1,1.5862009E2,8.9644E0,9.960444E0,6.324882E1,8.9644E0,1.6932756E1,5.2292333E0,5.727256E0,1.0707478E1,8.416576E1,7.445432E1],"tree_param":{"num_deleted":"0","num_feature":"37","num_nodes":"25","size_leaf_vector":"1"}},{"base_weights":[-2.3223054E-2,1.9168048E-1,-2.1294844E-1,5.866593E-1,1.5805425E-2,1.9243112E-2,-4.8621634E-1,6.3262045E-2,3.0180013E-1,-1.07153565E-1,9.265088E-1,1.392305E-1,-5.2093774E-1,-6.665787E-2,-3.66687E-1,4.6789856E-3,4.0891808E-2,4.242483E-3,-2.9742856E-2,6.0211908E-2,2.1416854E-2,1.972635E-2,-8.866598E-3,-5.1408242E-2,1.02317E-2,-3.4036875E-2,-2.638482E-3],"categories":[],"categories_nodes":[],"categories_segments":[],"categories_sizes":[],"default_left":[1,0,0,0,0,0,0,0,0,0,0,0,0,0,0,0,0,0,0,0,0,0,0,0,0,0,0],"id":1,"left_children":[1,3,5,7,9,11,13,-1,15,17,19,21,23,-1,25,-1,-1,-1,-1,-1,-1,-1,-1,-1,-1,-1,-1],"loss_changes":[1.3064599E1,1.0352514E1,1.086443E1,8.357056E0,1.1940042E1,6.052898E0,7.2866573E0,0E0,3.4673495E0,8.839772E0,1.07691E0,6.308215E0,6.525885E0,0E0,6.817586E0,0E0,0E0,0E0,0E0,0E0,0E0,0E0,0E0,0E0,0E0,0E0,0E0],"parents":[2147483647,0,0,1,1,2,2,3,3,4,4,5,5,6,6,8,8,9,9,10,10,11,11,12,12,14,14],"right_children":[2,4,6,8,10,12,14,-1,16,18,20,22,24,-1,26,-1,-1,-1,-1,-1,-1,-1,-1,-1,-1,-1,-1],"split_conditions":[8.091182E-4,1.8322774E0,2.7225057E-3,-8.8553786E-1,8.9E1,2E1,6.60393E-1,6.3262045E-2,2.447003E-1,1.7E1,6.5986395E-1,6.692015E-1,4.22116E-2,-6.665787E-2,5.504034E-1,4.6789856E-3,4.0891808E-2,4.242483E-3,-2.9742856E-2,6.0211908E-2,2.1416854E-2,1.972635E-2,-8.866598E-3,-5.1408242E-2,1.02317E-2,-3.4036875E-2,-2.638482E-3],"split_indices":[18,30,1,28,36,22,14,0,28,36,21,21,3,0,0,0,0,0,0,0,0,0,0,0,0,0,0],"split_type":[0,0,0,0,0,0,0,0,0,0,0,0,0,0,0,0,0,0,0,0,0,0,0,0,0,0,0],"sum_hessian":[3.183722E2,1.4902873E2,1.6934348E2,4.501967E1,1.0400907E2,9.185733E1,7.748614E1,1.2189523E1,3.2830147E1,9.231734E1,1.169173E1,7.592084E1,1.59365E1,8.223985E0,6.926215E1,2.4371414E1,8.458733E0,6.668515E1,2.5632189E1,6.4678636E0,5.223866E0,4.2065826E1,3.3855007E1,9.215194E0,6.721306E0,3.3880352E1,3.5381798E1],"tree_param":{"num_deleted":"0","num_feature":"37","num_nodes":"27","size_leaf_vector":"1"}},{"base_weights":[-1.324051E-2,2.1363187E-1,-1.8737713E-1,7.3157144E-1,8.381006E-2,-1.0022627E0,-1.2339806E-1,6.6257105E-3,1.0304154E0,2.1943012E-1,-3.175315E-1,-2.2074567E-2,-6.857249E-2,-2.8947747E-1,1.9104986E-1,2.2066576E-2,6.953002E-2,-2.693591E-2,1.6291725E-2,6.413817E-3,-4.3712422E-2,4.237439E-3,-2.560291E-2,5.1827706E-2,1.3520336E-3],"categories":[],"categories_nodes":[],"categories_segments":[],"categories_sizes":[],"default_left":[1,1,0,0,0,1,0,0,1,0,1,0,0,0,1,0,0,0,0,0,0,0,0,0,0],"id":2,"left_children":[1,3,5,7,9,11,13,-1,15,17,19,-1,-1,21,23,-1,-1,-1,-1,-1,-1,-1,-1,-1,-1],"loss_changes":[1.2663149E1,9.203224E0,9.230965E0,4.683463E0,6.179035E0,1.8973503E0,8.92343E0,0E0,3.0514355E0,6.9955573E0,7.2891545E0,0E0,0E0,9.38223E0,8.049845E0,0E0,0E0,0E0,0E0,0E0,0E0,0E0,0E0,0E0,0E0],"parents":[2147483647,0,0,1,1,2,2,3,3,4,4,5,5,6,6,8,8,9,9,10,10,13,13,14,14],"right_children":[2,4,6,8,10,12,14,-1,16,18,20,-1,-1,22,24,-1,-1,-1,-1,-1,-1,-1,-1,-1,-1],"split_conditions":[1.1989588E-2,-2.0183157E-3,5.944893E-1,2.7131784E-1,2.6702427E-3,3.504153E0,3.7799804E-3,6.6257105E-3,8.578567E-3,-9.6316636E-4,2.8E-1,-2.2074567E-2,-6.857249E-2,2.729028E-3,2.4072032E0,2.2066576E-2,6.953002E-2,-2.693591E-2,1.6291725E-2,6.413817E-3,-4.3712422E-2,4.237439E-3,-2.560291E-2,5.1827706E-2,1.3520336E-3],"split_indices":[27,17,14,21,1,30,1,0,27,17,32,0,0,1,31,0,0,0,0,0,0,0,0,0,0],"split_type":[0,0,0,0,0,0,0,0,0,0,0,0,0,0,0,0,0,0,0,0,0,0,0,0,0],"sum_hessian":[3.1858417E2,1.379961E2,1.8058807E2,2.6573292E1,1.114228E2,1.1964953E1,1.6862312E2,9.436034E0,1.7137257E1,8.3805824E1,2.7616974E1,5.729273E0,6.2356806E0,1.1060382E2,5.8019295E1,7.452153E0,9.685103E0,9.698648E0,7.410718E1,1.566373E1,1.1953243E1,4.131338E1,6.929044E1,8.462644E0,4.955665E1],"tree_param":{"num_deleted":"0","num_feature":"37","num_nodes":"25","size_leaf_vector":"1"}},{"base_weights":[-4.333262E-3,2.950111E-1,-9.535369E-2,5.359817E-1,2.592177E-3,7.210011E-2,-3.141713E-1,-1.0957249E-1,8.8451946E-1,-2.9113483E-1,3.4310736E-2,2.1395363E-1,-3.2135203E-1,-4.1147983E-1,3.2415676E-1,-4.497544E-2,2.0906126E-2,5.645739E-2,1.0366988E-2,1.1339969E-2,-4.3317884E-2,-1.5463153E-2,2.0019958E-2,-2.9934755E-2,1.3936427E-2,-2.3938393E-2,2.416622E-2,-2.3861E-2,4.1406866E-2],"categories":[],"categories_nodes":[],"categories_segments":[],"categories_sizes":[],"default_left":[0,0,0,0,0,0,0,0,1,0,0,0,0,0,0,0,0,0,0,0,0,0,0,0,0,0,0,0,0],"id":3,"left_children":[1,3,5,7,9,11,13,15,17,19,-1,21,23,25,27,-1,-1,-1,-1,-1,-1,-1,-1,-1,-1,-1,-1,-1,-1],"loss_changes":[8.781297E0,5.234241E0,9.1313095E0,9.390638E0,7.288344E0,7.9276443E0,6.845825E0,6.7396536E0,4.073593E0,7.7547083E0,0E0,1.0319604E1,6.4528227E0,5.9042044E0,6.3670883E0,0E0,0E0,0E0,0E0,0E0,0E0,0E0,0E0,0E0,0E0,0E0,0E0,0E0,0E0],"parents":[2147483647,0,0,1,1,2,2,3,3,4,4,5,5,6,6,7,7,8,8,9,9,11,11,12,12,13,13,14,14],"right_children":[2,4,6,8,10,12,14,16,18,20,-1,22,24,26,28,-1,-1,-1,-1,-1,-1,-1,-1,-1,-1,-1,-1,-1,-1],"split_conditions":[2.5603336E-1,1.2832305E-2,4.7286394E-1,8E0,2.0565871E-2,8.827267E-1,2.7843784E1,7.7572623E-3,4.2052258E1,4.0043645E0,3.4310736E-2,-5.917366E-4,2.4189496E-1,4.1821297E1,5.1127977E0,-4.497544E-2,2.0906126E-2,5.645739E-2,1.0366988E-2,1.1339969E-2,-4.3317884E-2,-1.5463153E-2,2.0019958E-2,-2.9934755E-2,1.3936427E-2,-2.3938393E-2,2.416622E-2,-2.3861E-2,4.1406866E-2],"split_indices":[5,6,0,22,6,26,12,6,2,30,0,19,4,11,31,0,0,0,0,0,0,0,0,0,0,0,0,0,0],"split_type":[0,0,0,0,0,0,0,0,0,0,0,0,0,0,0,0,0,0,0,0,0,0,0,0,0,0,0,0,0],"sum_hessian":[3.2099173E2,7.406614E1,2.4692558E2,3.9961E1,3.410514E1,1.4000099E2,1.06924576E2,1.4150485E1,2.5810514E1,2.4154644E1,9.950497E0,1.0342351E2,3.6577488E1,9.322512E1,1.3699461E1,5.460804E0,8.689681E0,1.8362162E1,7.4483533E0,1.2937507E1,1.1217137E1,2.6857895E1,7.656561E1,2.5131332E1,1.1446155E1,8.724139E1,5.9837284E0,5.233067E0,8.466394E0],"tree_param":{"num_deleted":"0","num_feature":"37","num_nodes":"29","size_leaf_vector":"1"}},{"base_weights":[1.7774817E-2,-1.7020954E-1,1.7260295E-1,-4.3697484E-2,-6.2496996E-1,1.2749107E-1,5.850169E-2,-2.4889997E-1,4.97648E-1,-1.0158894E0,3.3014912E-2,-9.116395E-2,2.6952443E-1,-5.939578E-3,-7.110853E-2,3.9446414E-2,2.7628883E-3,-6.282457E-2,-1.4864705E-2,-2.8659148E-2,3.3637486E-2,-4.36895E-2,1.519488E-3,-2.852654E-3,2.549561E-2],"categories":[],"categories_nodes":[],"categories_segments":[],"categories_sizes":[],"default_left":[0,0,1,0,0,0,0,0,0,0,0,0,0,0,0,0,0,0,0,0,0,0,0,0,0],"id":4,"left_children":[1,3,5,7,9,11,-1,13,15,17,19,21,23,-1,-1,-1,-1,-1,-1,-1,-1,-1,-1,-1,-1],"loss_changes":[9.10088E0,8.016495E0,7.4466953E0,1.2489405E1,7.960432E0,5.1817446E0,0E0,1.2145816E1,3.8483543E0,2.793993E0,5.133121E0,6.35484E0,7.991577E0,0E0,0E0,0E0,0E0,0E0,0E0,0E0,0E0,0E0,0E0,0E0,0E0],"parents":[2147483647,0,0,1,1,2,2,3,3,4,4,5,5,7,7,8,8,9,9,10,10,11,11,12,12],"right_children":[2,4,6,8,10,12,-1,14,16,18,20,22,24,-1,-1,-1,-1,-1,-1,-1,-1,-1,-1,-1,-1],"split_conditions":[1.3E1,4.3355376E-3,6.5305695E1,1.3927118E-1,3.731318E1,1E0,5.850169E-2,2.3891426E1,1.4964311E-2,3.3224065E0,1.0709798E0,1.6435493E0,9.654244E-1,-5.939578E-3,-7.110853E-2,3.9446414E-2,2.7628883E-3,-6.282457E-2,-1.4864705E-2,-2.8659148E-2,3.3637486E-2,-4.36895E-2,1.519488E-3,-2.852654E-3,2.549561E-2],"split_indices":[35,17,10,4,11,9,0,13,6,8,34,31,15,0,0,0,0,0,0,0,0,0,0,0,0],"split_type":[0,0,0,0,0,0,0,0,0,0,0,0,0,0,0,0,0,0,0,0,0,0,0,0,0],"sum_hessian":[3.1067078E2,1.3997505E2,1.7069572E2,1.10539505E2,2.943555E1,1.644845E2,6.211241E0,8.0681366E1,2.9858143E1,1.8219242E1,1.1216309E1,6.463517E1,9.984932E1,7.369547E1,6.9858894E0,1.7395292E1,1.246285E1,1.2984157E1,5.2350855E0,5.732264E0,5.4840446E0,7.967894E0,5.6667274E1,4.2482124E1,5.73672E1],"tree_param":{"num_deleted":"0","num_feature":"37","num_nodes":"25","size_leaf_vector":"1"}},{"base_weights":[-8.498637E-3,4.7047064E-2,-4.6379256E-1,2.388485E-1,-9.212426E-2,1.7406637E-2,-6.487822E-1,-1.0973849E-1,3.7464753E-1,-6.4949906E-1,-8.873167E-3,-6.355395E-2,-4.423426E-1,2.3535391E-2,-1.7354688E-2,2.5420895E-2,-4.6520513E-3,3.5578176E-2,-5.718543E-2,-5.0686188E-2,2.068051E-3,8.505354E-3,-4.333666E-2],"categories":[],"categories_nodes":[],"categories_segments":[],"categories_sizes":[],"default_left":[0,1,0,0,0,0,0,0,1,0,0,0,0,0,0,0,0,0,0,0,0,0,0],"id":5,"left_children":[1,3,5,7,9,-1,11,13,15,17,19,-1,21,-1,-1,-1,-1,-1,-1,-1,-1,-1,-1],"loss_changes":[8.054447E0,7.5730424E0,5.459589E0,5.714945E0,7.5398846E0,0E0,2.9490376E0,4.8370256E0,5.4871464E0,1.5081322E1,7.402255E0,0E0,6.2419195E0,0E0,0E0,0E0,0E0,0E0,0E0,0E0,0E0,0E0,0E0],"parents":[2147483647,0,0,1,1,2,2,3,3,4,4,6,6,7,7,8,8,9,9,10,10,12,12],"right_children":[2,4,6,8,10,-1,12,14,16,18,20,-1,22,-1,-1,-1,-1,-1,-1,-1,-1,-1,-1],"split_conditions":[9.290598E-1,1.1852445E-2,8.9898103E-1,7.836716E-3,1.2590406E-2,1.7406637E-2,5.095098E-3,9.3492824E-1,1.08923E-3,5.4513806E-1,5.811303E-1,-6.355395E-2,2.4742568E0,2.3535391E-2,-1.7354688E-2,2.5420895E-2,-4.6520513E-3,3.5578176E-2,-5.718543E-2,-5.0686188E-2,2.068051E-3,8.505354E-3,-4.333666E-2],"split_indices":[26,27,34,27,27,0,18,15,16,30,14,0,28,0,0,0,0,0,0,0,0,0,0],"split_type":[0,0,0,0,0,0,0,0,0,0,0,0,0,0,0,0,0,0,0,0,0,0,0],"sum_hessian":[3.1497754E2,2.8133215E2,3.3645397E1,1.18298836E2,1.6303333E2,5.9793534E0,2.7666044E1,3.3012775E1,8.528606E1,2.0146633E1,1.4288669E2,5.486337E0,2.2179707E1,9.173868E0,2.3838907E1,6.6416145E1,1.8869915E1,5.1956286E0,1.4951004E1,5.984644E0,1.3690204E2,9.227209E0,1.29524975E1],"tree_param":{"num_deleted":"0","num_feature":"37","num_nodes":"23","size_leaf_vector":"1"}},{"base_weights":[4.7466396E-3,3.579259E-1,-1.0471994E-1,4.4331977E-1,-2.9883487E-2,1.0435821E-1,-3.163573E-1,1.2996227E-1,7.1514946E-1,2.1240406E-1,-4.6800506E-1,-7.066479E-1,-1.6807109E-1,-1.1841061E-2,5.5101395E-2,5.4363944E-2,1.2218364E-2,2.2436697E-2,-8.385035E-3,-4.8114788E-2,2.4396619E-2,-4.733575E-2,1.2382972E-2,-1.2416436E-2,4.141713E-2],"categories":[],"categories_nodes":[],"categories_segments":[],"categories_sizes":[],"default_left":[0,0,0,0,0,0,0,0,0,0,0,0,1,0,0,0,0,0,0,0,0,0,0,0,0],"id":6,"left_children":[1,3,5,7,-1,9,11,13,15,17,19,21,23,-1,-1,-1,-1,-1,-1,-1,-1,-1,-1,-1,-1],"loss_changes":[1.2177699E1,6.335932E0,1.0663876E1,5.711731E0,0E0,7.56471E0,6.718066E0,1.2294685E1,6.018305E0,9.331604E0,9.683735E0,7.737118E0,7.2009964E0,0E0,0E0,0E0,0E0,0E0,0E0,0E0,0E0,0E0,0E0,0E0,0E0],"parents":[2147483647,0,0,1,1,2,2,3,3,5,5,6,6,7,7,8,8,9,9,10,10,11,11,12,12],"right_children":[2,4,6,8,-1,10,12,14,16,18,20,22,24,-1,-1,-1,-1,-1,-1,-1,-1,-1,-1,-1,-1],"split_conditions":[2.5603336E-1,1.4488399E0,2.7172086E-3,-1.147182E0,-2.9883487E-2,2E1,1.3182247E1,2.073157E-2,-3.4945784E-3,1.1328857E0,4.8690017E-2,4.1821297E1,1.17E2,-1.1841061E-2,5.5101395E-2,5.4363944E-2,1.2218364E-2,2.2436697E-2,-8.385035E-3,-4.8114788E-2,2.4396619E-2,-4.733575E-2,1.2382972E-2,-1.2416436E-2,4.141713E-2],"split_indices":[5,14,1,7,0,22,12,6,19,14,3,11,36,0,0,0,0,0,0,0,0,0,0,0,0],"split_type":[0,0,0,0,0,0,0,0,0,0,0,0,0,0,0,0,0,0,0,0,0,0,0,0,0],"sum_hessian":[3.1235962E2,7.358648E1,2.3877313E2,6.813824E1,5.4482374E0,1.20130104E2,1.18643036E2,3.2508896E1,3.5629345E1,1.01729996E2,1.8400106E1,3.144355E1,8.7199486E1,2.4077414E1,8.43148E0,1.9049643E1,1.6579704E1,6.277945E1,3.8950546E1,1.2193248E1,6.2068577E0,2.5213533E1,6.2300158E0,8.148712E1,5.712365E0],"tree_param":{"num_deleted":"0","num_feature":"37","num_nodes":"25","size_leaf_vector":"1"}},{"base_weights":[-9.295235E-3,2.107232E-1,-1.6749951E-1,3.387239E-1,-4.1491282E-1,2.3101153E-2,-3.101936E-1,-2.3521379E-2,4.1150177E-1,-7.271003E-1,1.7110175E-2,-1.329939E-1,6.7039216E-1,-1.6581798E-1,-6.7785275E-1,5.8644205E-2,1.7026361E-2,-6.124713E-2,-0E0,3.5536703E-2,-1.3723261E-2,6.0925945E-3,4.8219074E-2,-1.4686063E-2,2.0133432E-2,-7.720267E-2,-1.44152315E-2],"categories":[],"categories_nodes":[],"categories_segments":[],"categories_sizes":[],"default_left":[1,0,0,0,0,0,0,0,0,0,0,0,0,0,0,0,0,0,0,0,0,0,0,0,0,0,0],"id":7,"left_children":[1,3,5,7,9,11,13,-1,15,17,-1,19,21,23,25,-1,-1,-1,-1,-1,-1,-1,-1,-1,-1,-1,-1],"loss_changes":[1.0959456E1,1.0664101E1,5.0255656E0,6.6567516E0,5.6414156E0,8.142758E0,5.3918533E0,0E0,4.930666E0,5.8921986E0,0E0,7.8506627E0,2.301474E0,5.7146773E0,9.213473E0,0E0,0E0,0E0,0E0,0E0,0E0,0E0,0E0,0E0,0E0,0E0,0E0],"parents":[2147483647,0,0,1,1,2,2,3,3,4,4,5,5,6,6,8,8,9,9,11,11,12,12,13,13,14,14],"right_children":[2,4,6,8,10,12,14,-1,16,18,-1,20,22,24,26,-1,-1,-1,-1,-1,-1,-1,-1,-1,-1,-1,-1],"split_conditions":[1.1852445E-2,8.827267E-1,2E0,8.355321E-1,1.3813257E1,1.1031313E0,3.014884E1,-2.3521379E-2,-4.761905E-3,4.407622E0,1.7110175E-2,1.0474661E1,5.787368E0,1.190119E-1,1.4075506E-1,5.8644205E-2,1.7026361E-2,-6.124713E-2,-0E0,3.5536703E-2,-1.3723261E-2,6.0925945E-3,4.8219074E-2,-1.4686063E-2,2.0133432E-2,-7.720267E-2,-1.44152315E-2],"split_indices":[27,26,23,31,13,34,11,0,18,30,0,11,31,4,4,0,0,0,0,0,0,0,0,0,0,0,0],"split_type":[0,0,0,0,0,0,0,0,0,0,0,0,0,0,0,0,0,0,0,0,0,0,0,0,0,0,0],"sum_hessian":[3.1296594E2,1.305052E2,1.8246075E2,1.0885307E2,2.1652134E1,7.817603E1,1.0428471E2,8.418412E0,1.0043466E2,1.5452296E1,6.199837E0,6.3502396E1,1.4673637E1,7.61173E1,2.816741E1,7.1200185E0,9.3314644E1,8.723603E0,6.728693E0,8.439414E0,5.506298E1,5.7324204E0,8.941216E0,6.2675285E1,1.344202E1,7.738855E0,2.0428556E1],"tree_param":{"num_deleted":"0","num_feature":"37","num_nodes":"27","size_leaf_vector":"1"}},{"base_weights":[1.9976176E-2,2.4346404E-1,-1.2900034E-1,6.456378E-1,5.3716023E-2,1.556236E-1,-2.6089057E-1,1.0233583E0,-6.921603E-3,1.4167094E-1,-4.5053743E-2,-2.9332453E-2,3.0541337E-1,-8.029071E-1,-1.793863E-1,2.168726E-2,6.2086876E-2,1.6544094E-2,-1.978878E-2,-2.520738E-2,1.5218988E-2,2.6539082E-2,-1.438609E-2,-3.828259E-3,-5.5914875E-2,-1.8676579E-2,4.4152583E-3],"categories":[],"categories_nodes":[],"categories_segments":[],"categories_sizes":[],"default_left":[1,0,0,0,0,0,0,0,0,0,0,0,0,0,0,0,0,0,0,0,0,0,0,0,0,0,0],"id":8,"left_children":[1,3,5,7,9,11,13,15,17,19,-1,-1,21,23,25,-1,-1,-1,-1,-1,-1,-1,-1,-1,-1,-1,-1],"loss_changes":[1.061215E1,9.631737E0,7.2159424E0,1.0125841E1,7.4373646E0,6.9136863E0,5.5466156E0,2.621542E0,2.2122903E0,8.696329E0,0E0,0E0,7.0451903E0,3.616166E0,6.056801E0,0E0,0E0,0E0,0E0,0E0,0E0,0E0,0E0,0E0,0E0,0E0,0E0],"parents":[2147483647,0,0,1,1,2,2,3,3,4,4,5,5,6,6,7,7,8,8,9,9,12,12,13,13,14,14],"right_children":[2,4,6,8,10,12,14,16,18,20,-1,-1,22,24,26,-1,-1,-1,-1,-1,-1,-1,-1,-1,-1,-1,-1],"split_conditions":[1.1668548E-2,-8.5263915E-2,-4.1139782E-3,3.1482979E1,1.07356E0,2.0135376E-3,6.503677E-1,1.9001864E0,-2.5158399E-3,7.3419E-3,-4.5053743E-2,-2.9332453E-2,-4.4513293E-2,9.2336684E-1,7.8360945E-2,2.168726E-2,6.2086876E-2,1.6544094E-2,-1.978878E-2,-2.520738E-2,1.5218988E-2,2.6539082E-2,-1.438609E-2,-3.828259E-3,-5.5914875E-2,-1.8676579E-2,4.4152583E-3],"split_indices":[27,4,18,10,34,20,14,31,19,27,0,0,4,34,3,0,0,0,0,0,0,0,0,0,0,0,0],"split_type":[0,0,0,0,0,0,0,0,0,0,0,0,0,0,0,0,0,0,0,0,0,0,0,0,0,0,0],"sum_hessian":[3.164493E2,1.2658667E2,1.8986263E2,3.963983E1,8.694684E1,5.9823395E1,1.3003923E2,2.4844263E1,1.47955675E1,8.048862E1,6.4582205E0,9.443367E0,5.0380028E1,1.5680872E1,1.1435836E2,7.6456113E0,1.7198652E1,7.859669E0,6.9358983E0,1.5651629E1,6.483699E1,3.670665E1,1.3673378E1,5.21972E0,1.0461152E1,6.6272156E1,4.8086205E1],"tree_param":{"num_deleted":"0","num_feature":"37","num_nodes":"27","size_leaf_vector":"1"}},{"base_weights":[-4.2575214E-2,1.23415664E-1,-1.6371748E-1,4.0075937E-1,-5.3505376E-2,-7.0036106E-2,-1.00315094E-1,5.169638E-2,2.2627486E-1,3.313817E-1,-2.497434E-1,-8.234869E-1,-2.0501481E-2,2.3604782E-2,-1.2026123E-2,2.810795E-2,-1.6529394E-2,2.5980461E-2,-1.967776E-2,-1.6225217E-2,-7.446646E-2,-1.7931778E-2,4.402413E-3],"categories":[],"categories_nodes":[],"categories_segments":[],"categories_sizes":[],"default_left":[1,0,1,0,0,0,0,0,0,0,1,0,0,0,0,0,0,0,0,0,0,0,0],"id":9,"left_children":[1,3,5,7,9,-1,11,-1,13,15,17,19,21,-1,-1,-1,-1,-1,-1,-1,-1,-1,-1],"loss_changes":[6.3172936E0,6.5458174E0,1.3959662E1,5.3681154E0,6.2234716E0,0E0,9.941341E0,0E0,4.961989E0,4.448118E0,6.2397394E0,5.0313196E0,5.8523364E0,0E0,0E0,0E0,0E0,0E0,0E0,0E0,0E0,0E0,0E0],"parents":[2147483647,0,0,1,1,2,2,3,3,4,4,6,6,8,8,9,9,10,10,11,11,12,12],"right_children":[2,4,6,8,10,-1,12,-1,14,16,18,20,22,-1,-1,-1,-1,-1,-1,-1,-1,-1,-1],"split_conditions":[-1.2578458E-5,1.1989588E-2,1.1E1,7.0954674E-1,9.698525E0,-7.0036106E-2,-3.0660817E-1,5.169638E-2,1.6E1,7.4725276E-1,-2.7068248E-3,-4.397067E-1,9.305605E0,2.3604782E-2,-1.2026123E-2,2.810795E-2,-1.6529394E-2,2.5980461E-2,-1.967776E-2,-1.6225217E-2,-7.446646E-2,-1.7931778E-2,4.402413E-3],"split_indices":[18,27,36,14,11,0,7,0,22,21,16,28,12,0,0,0,0,0,0,0,0,0,0],"split_type":[0,0,0,0,0,0,0,0,0,0,0,0,0,0,0,0,0,0,0,0,0,0,0],"sum_hessian":[3.1195493E2,1.3125845E2,1.8069647E2,5.08482E1,8.0410255E1,7.704717E0,1.7299176E2,9.7972555E0,4.1050945E1,2.6748812E1,5.3661446E1,1.6144033E1,1.5684773E2,2.7023132E1,1.4027812E1,2.0057993E1,6.690819E0,7.9299536E0,4.573149E1,1.0164384E1,5.97965E0,3.7779953E1,1.1906777E2],"tree_param":{"num_deleted":"0","num_feature":"37","num_nodes":"23","size_leaf_vector":"1"}},{"base_weights":[-2.0281786E-2,1.7051145E-1,-1.7752318E-1,4.1782713E-1,-1.6068988E-2,-4.987527E-1,2.666941E-2,-3.2545805E-1,5.880408E-1,3.3014527E-1,-3.529263E-1,-8.203904E-2,-6.9975275E-1,3.155836E-1,-1.7958817E-1,-4.342983E-2,9.754769E-3,-6.7694596E-4,3.9224777E-2,3.7173893E-2,-1.2717925E-2,-2.9421523E-2,1.2819854E-2,1.0327075E-2,-4.4156816E-2,-4.1725602E-2,5.8700587E-3,4.9616307E-2,1.2032008E-3,2.2368718E-2,-2.122836E-2],"categories":[],"categories_nodes":[],"categories_segments":[],"categories_sizes":[],"default_left":[1,0,0,1,0,1,0,0,0,0,0,0,0,0,0,0,0,0,0,0,0,0,0,0,0,0,0,0,0,0,0],"id":10,"left_children":[1,3,5,7,9,11,13,15,17,19,21,23,25,27,29,-1,-1,-1,-1,-1,-1,-1,-1,-1,-1,-1,-1,-1,-1,-1,-1],"loss_changes":[9.536363E0,6.662617E0,1.150444E1,8.051405E0,9.734745E0,5.5637817E0,6.4718165E0,3.649852E0,6.09696E0,1.0151016E1,6.2713323E0,5.6680055E0,5.192053E0,8.813644E0,9.881493E0,0E0,0E0,0E0,0E0,0E0,0E0,0E0,0E0,0E0,0E0,0E0,0E0,0E0,0E0,0E0,0E0],"parents":[2147483647,0,0,1,1,2,2,3,3,4,4,5,5,6,6,7,7,8,8,9,9,10,10,11,11,12,12,13,13,14,14],"right_children":[2,4,6,8,10,12,14,16,18,20,22,24,26,28,30,-1,-1,-1,-1,-1,-1,-1,-1,-1,-1,-1,-1,-1,-1,-1,-1],"split_conditions":[2.6787752E-3,5.285054E-1,1.2E1,2.0379684E1,1.2E1,2.7050316E1,1.2737046E-2,9.2935425E-1,8.035248E-3,8.0035186E-1,2.483061E-3,2.2566506E-1,3.9644363E1,-1.7339049E-3,1E0,-4.342983E-2,9.754769E-3,-6.7694596E-4,3.9224777E-2,3.7173893E-2,-1.2717925E-2,-2.9421523E-2,1.2819854E-2,1.0327075E-2,-4.4156816E-2,-4.1725602E-2,5.8700587E-3,4.9616307E-2,1.2032008E-3,2.2368718E-2,-2.122836E-2],"split_indices":[1,21,35,10,22,10,6,14,27,5,1,4,11,17,23,0,0,0,0,0,0,0,0,0,0,0,0,0,0,0,0],"split_type":[0,0,0,0,0,0,0,0,0,0,0,0,0,0,0,0,0,0,0,0,0,0,0,0,0,0,0,0,0,0,0],"sum_hessian":[3.158401E2,1.4237051E2,1.7346959E2,6.0918507E1,8.1452E1,6.7044464E1,1.0642512E2,1.1071629E1,4.9846878E1,4.003155E1,4.142045E1,2.2435925E1,4.460854E1,4.4311214E1,6.2113907E1,5.1850834E0,5.886545E0,1.23748665E1,3.7472015E1,2.3390228E1,1.6641323E1,3.0017181E1,1.1403269E1,1.694805E1,5.4878755E0,3.838027E1,6.2282724E0,1.2513946E1,3.179727E1,1.7104597E1,4.5009308E1],"tree_param":{"num_deleted":"0","num_feature":"37","num_nodes":"31","size_leaf_vector":"1"}},{"base_weights":[-6.4060986E-3,6.264898E-1,-4.8184082E-2,9.870825E-1,-1.5097386E-2,3.1848845E-1,-9.705704E-2,1.9807907E-2,7.112672E-2,6.8189865E-1,-1.3037598E-1,5.3869624E-2,-2.309167E-1,5.836978E-3,5.9429E-2,-5.1960655E-2,2.1806752E-2,-2.0156836E-2,7.9233525E-3,-2.4388457E-2,3.020125E-4],"categories":[],"categories_nodes":[],"categories_segments":[],"categories_sizes":[],"default_left":[1,0,0,0,0,0,0,0,0,0,0,0,0,0,0,0,0,0,0,0,0],"id":11,"left_children":[1,3,5,7,-1,9,11,-1,-1,13,15,17,19,-1,-1,-1,-1,-1,-1,-1,-1],"loss_changes":[8.440509E0,6.9802966E0,5.4119306E0,2.996152E0,0E0,5.927367E0,5.4254656E0,0E0,0E0,5.422181E0,9.049206E0,6.0617266E0,8.697941E0,0E0,0E0,0E0,0E0,0E0,0E0,0E0,0E0],"parents":[2147483647,0,0,1,1,2,2,3,3,5,5,6,6,9,9,10,10,11,11,12,12],"right_children":[2,4,6,8,-1,10,12,-1,-1,14,16,18,20,-1,-1,-1,-1,-1,-1,-1,-1],"split_conditions":[4E-2,8.118245E-3,4E0,8.079212E-1,-1.5097386E-2,3.3277683E-3,2.6894733E-3,1.9807907E-2,7.112672E-2,2.5266877E-3,5.8553994E-1,7.626674E-3,5.5557066E-1,5.836978E-3,5.9429E-2,-5.1960655E-2,2.1806752E-2,-2.0156836E-2,7.9233525E-3,-2.4388457E-2,3.020125E-4],"split_indices":[32,6,36,14,0,1,1,0,0,20,0,27,0,0,0,0,0,0,0,0,0],"split_type":[0,0,0,0,0,0,0,0,0,0,0,0,0,0,0,0,0,0,0,0,0],"sum_hessian":[3.1926456E2,1.875501E1,3.0050952E2,1.3540576E1,5.214435E0,3.4453926E1,2.660556E2,6.652414E0,6.8881626E0,1.8875523E1,1.5578403E1,1.2498529E2,1.4107031E2,9.597787E0,9.277735E0,5.729248E0,9.849155E0,2.2568584E1,1.0241671E2,6.73879E1,7.368241E1],"tree_param":{"num_deleted":"0","num_feature":"37","num_nodes":"21","size_leaf_vector":"1"}},{"base_weights":[1.9438285E-2,1.8476622E-1,-1.5473528E-1,5.2860375E-2,1.2939383E-1,-3.834063E-1,6.655206E-4,4.3360668E-1,2.4583071E-2,-5.380176E-1,2.844091E-1,4.8269784E-1,-1.4342722E-1,3.2529444E-2,-1.7097449E-2,-3.1369966E-2,6.4338073E-3,-1.329629E-2,-5.272246E-2,-1.3300948E-2,4.0505778E-2,4.548187E-2,6.1073476E-3,1.9521978E-3,-2.537903E-2],"categories":[],"categories_nodes":[],"categories_segments":[],"categories_sizes":[],"default_left":[1,1,0,0,0,0,0,0,0,0,0,0,1,0,0,0,0,0,0,0,0,0,0,0,0],"id":12,"left_children":[1,3,5,-1,7,9,11,13,15,17,19,21,23,-1,-1,-1,-1,-1,-1,-1,-1,-1,-1,-1,-1],"loss_changes":[9.196841E0,7.6691327E0,5.5552835E0,0E0,4.90149E0,6.6911535E0,6.574429E0,6.9073224E0,7.9682674E0,6.8503113E0,3.8553088E0,3.1461015E0,4.8734055E0,0E0,0E0,0E0,0E0,0E0,0E0,0E0,0E0,0E0,0E0,0E0,0E0],"parents":[2147483647,0,0,1,1,2,2,4,4,5,5,6,6,7,7,8,8,9,9,10,10,11,11,12,12],"right_children":[2,4,6,-1,8,10,12,14,16,18,20,22,24,-1,-1,-1,-1,-1,-1,-1,-1,-1,-1,-1,-1],"split_conditions":[4.7286394E-1,-4.9440637E-3,3.386086E-3,5.2860375E-2,9.1827273E-1,3.0005838E1,1E0,8.396947E-1,7.3419E-3,2.2203997E1,-1.1685452E0,9.787776E-1,4.1953926E1,3.2529444E-2,-1.7097449E-2,-3.1369966E-2,6.4338073E-3,-1.329629E-2,-5.272246E-2,-1.3300948E-2,4.0505778E-2,4.548187E-2,6.1073476E-3,1.9521978E-3,-2.537903E-2],"split_indices":[0,17,1,0,15,12,23,21,27,12,7,34,10,0,0,0,0,0,0,0,0,0,0,0,0],"split_type":[0,0,0,0,0,0,0,0,0,0,0,0,0,0,0,0,0,0,0,0,0,0,0,0,0],"sum_hessian":[3.1728467E2,1.6303908E2,1.542456E2,8.542694E0,1.5449638E2,6.2076633E1,9.216897E1,3.8540775E1,1.15955605E2,5.0686012E1,1.1390619E1,2.0830141E1,7.133883E1,3.03419E1,8.198875E0,1.5139853E1,1.0081576E2,3.431505E1,1.6370964E1,5.712863E0,5.677756E0,8.71279E0,1.2117352E1,4.793671E1,2.3402113E1],"tree_param":{"num_deleted":"0","num_feature":"37","num_nodes":"25","size_leaf_vector":"1"}},{"base_weights":[3.3823077E-2,-1.4422819E-1,1.4458922E-1,-5.548982E-1,4.9120247E-2,7.435011E-1,8.5767016E-2,-4.426777E-2,-8.063727E-1,-6.0003865E-1,1.8910469E-1,5.5985983E-2,1.696827E-2,-2.462394E-1,1.9025826E-1,2.4653455E-2,-3.4137476E-2,-7.152092E-2,-2.6683122E-2,-6.224093E-2,7.722349E-3,1.7294174E-2,-1.7762762E-2,9.337742E-3,-2.6180292E-2,2.367944E-2,2.1866446E-3],"categories":[],"categories_nodes":[],"categories_segments":[],"categories_sizes":[],"default_left":[0,0,0,0,0,0,0,0,0,1,0,0,0,0,1,0,0,0,0,0,0,0,0,0,0,0,0],"id":13,"left_children":[1,3,5,7,9,11,13,15,17,19,21,-1,-1,23,25,-1,-1,-1,-1,-1,-1,-1,-1,-1,-1,-1,-1],"loss_changes":[6.265292E0,9.731848E0,6.759553E0,4.9085865E0,7.652681E0,2.0967617E0,6.278396E0,5.197529E0,3.4740353E0,7.5547285E0,6.0539613E0,0E0,0E0,5.3251495E0,5.6376357E0,0E0,0E0,0E0,0E0,0E0,0E0,0E0,0E0,0E0,0E0,0E0,0E0],"parents":[2147483647,0,0,1,1,2,2,3,3,4,4,5,5,6,6,7,7,8,8,9,9,10,10,13,13,14,14],"right_children":[2,4,6,8,10,12,14,16,18,20,22,-1,-1,24,26,-1,-1,-1,-1,-1,-1,-1,-1,-1,-1,-1,-1],"split_conditions":[1.6609497E1,2.6451012E-2,7E-2,8E0,4E0,6.443408E0,2.5438598E-1,2.5503554E-3,1.5978956E-3,2.8796942E0,7.8531075E1,5.5985983E-2,1.696827E-2,2.4345708E0,-7.475603E-5,2.4653455E-2,-3.4137476E-2,-7.152092E-2,-2.6683122E-2,-6.224093E-2,7.722349E-3,1.7294174E-2,-1.7762762E-2,9.337742E-3,-2.6180292E-2,2.367944E-2,2.1866446E-3],"split_indices":[12,3,32,22,22,31,21,1,20,30,2,0,0,30,16,0,0,0,0,0,0,0,0,0,0,0,0],"split_type":[0,0,0,0,0,0,0,0,0,0,0,0,0,0,0,0,0,0,0,0,0,0,0,0,0,0,0],"sum_hessian":[3.1562033E2,1.205834E2,1.9503694E2,3.8166153E1,8.2417244E1,1.6249456E1,1.7878749E2,1.3113096E1,2.5053057E1,1.3910119E1,6.8507126E1,7.3702455E0,8.87921E0,4.224531E1,1.3654218E2,7.1591697E0,5.953926E0,6.2163153E0,1.883674E1,7.2213964E0,6.688722E0,5.3614227E1,1.4892897E1,1.6481829E1,2.5763483E1,4.5549747E1,9.0992424E1],"tree_param":{"num_deleted":"0","num_feature":"37","num_nodes":"27","size_leaf_vector":"1"}},{"base_weights":[-1.3066814E-2,-4.319087E-1,5.2622963E-2,3.6295763E-1,-7.784082E-1,6.3205075E-1,1.2039872E-2,-1.5284504E-2,4.3989506E-2,-1.0647638E0,-2.4534899E-1,5.222101E-2,-0E0,4.4782534E-1,-3.227875E-2,-6.930652E-2,-2.319192E-2,7.9222405E-3,-2.9235506E-2,-2.8000964E-2,3.79575E-2,-2.1724893E-2,1.0380977E-3],"categories":[],"categories_nodes":[],"categories_segments":[],"categories_sizes":[],"default_left":[0,0,1,0,0,0,0,0,0,0,0,0,0,0,0,0,0,0,0,0,0,0,0],"id":14,"left_children":[1,3,5,7,9,11,13,-1,-1,15,17,-1,-1,19,21,-1,-1,-1,-1,-1,-1,-1,-1],"loss_changes":[8.849665E0,1.2338739E1,6.4373727E0,5.1083264E0,4.306965E0,4.6035237E0,5.0751867E0,0E0,0E0,2.9582348E0,1.8042948E0,0E0,0E0,8.058666E0,5.09834E0,0E0,0E0,0E0,0E0,0E0,0E0,0E0,0E0],"parents":[2147483647,0,0,1,1,2,2,3,3,4,4,5,5,6,6,9,9,10,10,13,13,14,14],"right_children":[2,4,6,8,10,12,14,-1,-1,16,18,-1,-1,20,22,-1,-1,-1,-1,-1,-1,-1,-1],"split_conditions":[9.305605E0,9.3577033E-1,1.4395018E1,1.2628455E-1,5.0081387E1,5.7986225E1,1.1728796E1,-1.5284504E-2,4.3989506E-2,1.003015E0,1.940145E-3,5.222101E-2,-0E0,7.4813753E-1,1.4071491E1,-6.930652E-2,-2.319192E-2,7.9222405E-3,-2.9235506E-2,-2.8000964E-2,3.79575E-2,-2.1724893E-2,1.0380977E-3],"split_indices":[12,34,10,4,10,2,12,0,0,34,17,0,0,14,12,0,0,0,0,0,0,0,0],"split_type":[0,0,0,0,0,0,0,0,0,0,0,0,0,0,0,0,0,0,0,0,0,0,0],"sum_hessian":[3.1844196E2,4.262294E1,2.7581903E2,1.2837576E1,2.9785364E1,1.6938608E1,2.5888043E2,5.690537E0,7.147039E0,1.8605545E1,1.1179819E1,9.789913E0,7.148694E0,2.3265198E1,2.3561522E2,1.1162775E1,7.4427695E0,5.214138E0,5.965681E0,5.2262697E0,1.8038927E1,2.683246E1,2.0878276E2],"tree_param":{"num_deleted":"0","num_feature":"37","num_nodes":"23","size_leaf_vector":"1"}},{"base_weights":[1.5400425E-3,-2.1647613E-1,8.799069E-2,1.4359173E-1,-4.4086292E-1,3.0576104E-2,4.7545934E-1,4.523638E-1,-3.9792782E-1,-1.1202383E0,-2.4887559E-1,-2.6920522E-2,5.1012975E-1,8.3644E-1,-1.3333234E-1,1.9391321E-3,5.2046496E-2,-4.0364534E-2,5.402121E-4,-2.5255824E-2,-7.520397E-2,-4.2750318E-2,-3.0574978E-3,-5.4542213E-3,1.5070063E-2,-1.590582E-2,4.0837247E-2,5.840599E-2,1.9459693E-2,-3.078664E-2,1.8715208E-2],"categories":[],"categories_nodes":[],"categories_segments":[],"categories_sizes":[],"default_left":[0,0,1,0,0,0,0,0,0,0,0,0,0,0,0,0,0,0,0,0,0,0,0,0,0,0,0,0,0,0,0],"id":15,"left_children":[1,3,5,7,9,11,13,15,17,19,21,23,25,27,29,-1,-1,-1,-1,-1,-1,-1,-1,-1,-1,-1,-1,-1,-1,-1,-1],"loss_changes":[5.976845E0,7.3571653E0,5.0042686E0,6.0546293E0,6.8633223E0,5.5700054E0,6.580235E0,5.435815E0,2.2904706E0,1.8480148E0,4.9664345E0,4.8461137E0,5.800839E0,2.13667E0,3.0945318E0,0E0,0E0,0E0,0E0,0E0,0E0,0E0,0E0,0E0,0E0,0E0,0E0,0E0,0E0,0E0,0E0],"parents":[2147483647,0,0,1,1,2,2,3,3,4,4,5,5,6,6,7,7,8,8,9,9,10,10,11,11,12,12,13,13,14,14],"right_children":[2,4,6,8,10,12,14,16,18,20,22,24,26,28,30,-1,-1,-1,-1,-1,-1,-1,-1,-1,-1,-1,-1,-1,-1,-1,-1],"split_conditions":[1.4071491E1,2.3903707E-3,1.09E2,7.4363995E-1,1.2903067E-2,5.568833E-3,5.3685898E1,1.8260847E-1,3.3093365E1,2.7906403E-3,8.446943E-2,1.8275304E-2,1.2E1,9.93232E-1,9.0053666E-1,1.9391321E-3,5.2046496E-2,-4.0364534E-2,5.402121E-4,-2.5255824E-2,-7.520397E-2,-4.2750318E-2,-3.0574978E-3,-5.4542213E-3,1.5070063E-2,-1.590582E-2,4.0837247E-2,5.840599E-2,1.9459693E-2,-3.078664E-2,1.8715208E-2],"split_indices":[12,1,36,21,27,19,2,4,10,18,4,27,36,14,14,0,0,0,0,0,0,0,0,0,0,0,0,0,0,0,0],"split_type":[0,0,0,0,0,0,0,0,0,0,0,0,0,0,0,0,0,0,0,0,0,0,0,0,0,0,0,0,0,0,0],"sum_hessian":[3.1578482E2,8.890879E1,2.2687602E2,3.4101456E1,5.4807335E1,1.9876091E2,2.8115126E1,2.1940426E1,1.2161028E1,1.089565E1,4.3911686E1,1.7813817E2,2.062274E1,1.7518137E1,1.0596988E1,1.3611514E1,8.328913E0,5.7108817E0,6.450146E0,5.176523E0,5.7191267E0,9.417407E0,3.4494278E1,1.4325926E2,3.4878902E1,5.473571E0,1.5149169E1,9.004766E0,8.513371E0,5.425375E0,5.1716127E0],"tree_param":{"num_deleted":"0","num_feature":"37","num_nodes":"31","size_leaf_vector":"1"}},{"base_weights":[1.9514872E-3,7.5454585E-2,-3.6084822E-1,5.0170237E-1,8.852751E-3,-8.0408657E-1,-1.6391414E-1,6.9304776E-1,-1.7333195E-2,4.7441304E-2,-3.9431363E-2,-1.712435E-2,-5.739305E-2,3.4253734E-1,-5.2634513E-1,-4.622218E-3,4.575782E-2,-1.51105E-2,6.141544E-3,3.5705347E-2,-7.0645213E-3,-4.720328E-2,1.1319409E-2],"categories":[],"categories_nodes":[],"categories_segments":[],"categories_sizes":[],"default_left":[0,0,0,0,0,0,0,0,0,0,0,0,0,0,0,0,0,0,0,0,0,0,0],"id":16,"left_children":[1,3,5,7,9,11,13,15,-1,17,-1,-1,-1,19,21,-1,-1,-1,-1,-1,-1,-1,-1],"loss_changes":[8.535234E0,7.531271E0,4.473935E0,6.1015224E0,7.113565E0,2.0223055E0,7.3045387E0,5.3515015E0,0E0,5.889294E0,0E0,0E0,0E0,3.149404E0,7.540722E0,0E0,0E0,0E0,0E0,0E0,0E0,0E0,0E0],"parents":[2147483647,0,0,1,1,2,2,3,3,4,4,5,5,6,6,7,7,9,9,13,13,14,14],"right_children":[2,4,6,8,10,12,14,16,-1,18,-1,-1,-1,20,22,-1,-1,-1,-1,-1,-1,-1,-1],"split_conditions":[8.969746E-1,3.7881628E-1,1.8806429E0,8.1E1,1.491585E0,9.697092E-1,2.4742568E0,4.0605545E1,-1.7333195E-2,1.3869762E1,-3.9431363E-2,-1.712435E-2,-5.739305E-2,3E0,3.9644363E1,-4.622218E-3,4.575782E-2,-1.51105E-2,6.141544E-3,3.5705347E-2,-7.0645213E-3,-4.720328E-2,1.1319409E-2],"split_indices":[26,0,28,36,14,34,28,2,0,12,0,0,0,23,11,0,0,0,0,0,0,0,0],"split_type":[0,0,0,0,0,0,0,0,0,0,0,0,0,0,0,0,0,0,0,0,0,0,0],"sum_hessian":[3.1911765E2,2.662443E2,5.2873356E1,3.489352E1,2.3135078E2,1.5160622E1,3.771273E1,2.871739E1,6.176131E0,2.2168956E2,9.661232E0,7.4475904E0,7.7130313E0,1.5638658E1,2.2074074E1,6.359706E0,2.2357685E1,3.8552197E1,1.8313736E2,8.693197E0,6.945461E0,1.4118079E1,7.955995E0],"tree_param":{"num_deleted":"0","num_feature":"37","num_nodes":"23","size_leaf_vector":"1"}},{"base_weights":[-1.3154381E-2,-4.2093188E-1,5.0636176E-2,3.105669E-1,-7.194243E-1,7.799268E-2,-4.533894E-2,-1.5860196E-2,4.353414E-2,-0E0,-9.536793E-1,4.7764037E-2,4.0394086E-2,-6.2056866E-2,-1.5038948E-2,1.5444063E-2,-2.15513E-3],"categories":[],"categories_nodes":[],"categories_segments":[],"categories_sizes":[],"default_left":[0,0,0,0,0,0,0,0,0,0,0,0,0,0,0,0,0],"id":17,"left_children":[1,3,5,7,9,11,-1,-1,-1,-1,13,15,-1,-1,-1,-1,-1],"loss_changes":[8.400978E0,9.806954E0,7.269457E0,4.9964843E0,5.372938E0,5.8619843E0,0E0,0E0,0E0,0E0,3.9388447E0,6.249635E0,0E0,0E0,0E0,0E0,0E0],"parents":[2147483647,0,0,1,1,2,2,3,3,4,4,5,5,10,10,11,11],"right_children":[2,4,6,8,10,12,-1,-1,-1,-1,14,16,-1,-1,-1,-1,-1],"split_conditions":[9.305605E0,9.3577033E-1,1.608221E0,1.2628455E-1,7.8276783E-1,7.551309E1,-4.533894E-2,-1.5860196E-2,4.353414E-2,-0E0,5.0081387E1,2.5603336E-1,4.0394086E-2,-6.2056866E-2,-1.5038948E-2,1.5444063E-2,-2.15513E-3],"split_indices":[12,34,14,4,5,2,0,0,0,0,10,5,0,0,0,0,0],"split_type":[0,0,0,0,0,0,0,0,0,0,0,0,0,0,0,0,0],"sum_hessian":[3.1971817E2,4.2704037E1,2.7701413E2,1.226686E1,3.0437176E1,2.703134E2,6.700758E0,5.9044147E0,6.3624454E0,7.6396866E0,2.279749E1,2.6071808E2,9.595294E0,1.5096642E1,7.700848E0,6.697057E1,1.9374751E2],"tree_param":{"num_deleted":"0","num_feature":"37","num_nodes":"17","size_leaf_vector":"1"}},{"base_weights":[-1.0103313E-2,1.4106155E-2,-4.915943E-2,-2.9989973E-1,6.3087136E-2,2.1195446E-1,-6.05084E-1,-1.6647888E-2,3.512235E-1,4.3632433E-2,-2.354336E-2,-5.137681E-2,-8.196678E-3,2.6658764E-3,-2.4960175E-2,5.7424422E-2,1.2306712E-2],"categories":[],"categories_nodes":[],"categories_segments":[],"categories_sizes":[],"default_left":[0,0,0,0,1,0,0,1,0,0,0,0,0,0,0,0,0],"id":18,"left_children":[1,3,-1,5,7,9,11,13,15,-1,-1,-1,-1,-1,-1,-1,-1],"loss_changes":[7.475089E0,4.700109E0,0E0,6.5997143E0,6.144238E0,7.6686215E0,4.5910225E0,7.1212063E0,4.429983E0,0E0,0E0,0E0,0E0,0E0,0E0,0E0,0E0],"parents":[2147483647,0,0,1,1,3,3,4,4,5,5,6,6,7,7,8,8],"right_children":[2,4,-1,6,8,10,12,14,16,-1,-1,-1,-1,-1,-1,-1,-1],"split_conditions":[1.608221E0,9.305605E0,-4.915943E-2,3.8681793E-1,4.572861E0,3.8776531E0,9.577126E-3,3.7478414E0,1.1728796E1,4.3632433E-2,-2.354336E-2,-5.137681E-2,-8.196678E-3,2.6658764E-3,-2.4960175E-2,5.7424422E-2,1.2306712E-2],"split_indices":[14,12,0,0,30,30,18,30,12,0,0,0,0,0,0,0,0],"split_type":[0,0,0,0,0,0,0,0,0,0,0,0,0,0,0,0,0],"sum_hessian":[3.1160507E2,3.049021E2,6.702947E0,4.0176346E1,2.6472577E2,1.4998583E1,2.5177761E1,2.0781342E2,5.691235E1,7.5559435E0,7.4426394E0,1.2066656E1,1.3111105E1,1.8209401E2,2.5719408E1,5.3609543E0,5.1551395E1],"tree_param":{"num_deleted":"0","num_feature":"37","num_nodes":"17","size_leaf_vector":"1"}},{"base_weights":[-0E0,4.284666E-2,-2.3953682E-2,7.2838895E-2,-1.7156021E-1,-1.467945E-1,2.749245E-1,-4.4716425E-2,-1.0431592E-1,-2.5610922E-2,2.587621E-3,2.109681E-2,-5.5763684E-3,-4.066982E-2,-9.137834E-4],"categories":[],"categories_nodes":[],"categories_segments":[],"categories_sizes":[],"default_left":[0,0,1,0,0,0,0,0,1,0,0,0,0,0,0],"id":19,"left_children":[1,-1,3,5,7,9,11,-1,13,-1,-1,-1,-1,-1,-1],"loss_changes":[6.478434E0,0E0,4.4096093E0,8.297752E0,5.7519407E0,6.560787E0,5.6074824E0,0E0,6.8063335E0,0E0,0E0,0E0,0E0,0E0,0E0],"parents":[2147483647,0,0,2,2,3,3,4,4,5,5,6,6,8,8],"right_children":[2,-1,4,6,8,10,12,-1,14,-1,-1,-1,-1,-1,-1],"split_conditions":[-2.0515406E0,4.284666E-2,5.233976E-4,-6.9048424E-4,1.4846622E-3,2.615211E-3,2.3950685E-3,-4.4716425E-2,1.0190578E0,-2.5610922E-2,2.587621E-3,2.109681E-2,-5.5763684E-3,-4.066982E-2,-9.137834E-4],"split_indices":[7,0,16,16,20,20,20,0,31,0,0,0,0,0,0],"split_type":[0,0,0,0,0,0,0,0,0,0,0,0,0,0,0],"sum_hessian":[3.1365683E2,7.5822496E0,3.060746E2,1.8475262E2,1.2132196E2,8.8426506E1,9.632612E1,9.153178E0,1.1216878E2,3.0751835E1,5.767467E1,6.9901535E1,2.6424583E1,1.1097276E1,1.010715E2],"tree_param":{"num_deleted":"0","num_feature":"37","num_nodes":"15","size_leaf_vector":"1"}},{"base_weights":[-1.4571704E-2,-3.5902023E-1,3.4309104E-2,2.5007963E-1,-6.345888E-1,-2.3577304E-1,9.466587E-2,-1.7215712E-2,3.6749054E-2,-8.04938E-1,3.2924307E-3,-1.9609654E-2,-7.726803E-1,3.8963372E-1,2.4106309E-2,-1.3994533E-2,-5.3118635E-2,-1.1380194E-2,3.54321E-2,-1.2534405E-2,-7.011527E-2,3.265727E-2,-1.1682241E-2,-1.9252416E-2,6.874911E-3],"categories":[],"categories_nodes":[],"categories_segments":[],"categories_sizes":[],"default_left":[0,0,0,0,0,1,0,0,0,0,0,0,0,0,0,0,0,0,0,0,0,0,0,0,0],"id":20,"left_children":[1,3,5,7,9,11,13,-1,-1,15,-1,17,19,21,23,-1,-1,-1,-1,-1,-1,-1,-1,-1,-1],"loss_changes":[5.357702E0,6.8366494E0,4.523581E0,4.017655E0,3.423767E0,5.77577E0,4.6823997E0,0E0,0E0,2.5982609E0,0E0,5.7508726E0,4.2025185E0,7.3488555E0,8.604568E0,0E0,0E0,0E0,0E0,0E0,0E0,0E0,0E0,0E0,0E0],"parents":[2147483647,0,0,1,1,2,2,3,3,4,4,5,5,6,6,9,9,11,11,12,12,13,13,14,14],"right_children":[2,4,6,8,10,12,14,-1,-1,16,-1,18,20,22,24,-1,-1,-1,-1,-1,-1,-1,-1,-1,-1],"split_conditions":[9.305605E0,9.3577033E-1,9.1574514E-1,1.2628455E-1,1.0948483E0,6.3E-1,9.1988367E-1,-1.7215712E-2,3.6749054E-2,8.1729287E-1,3.2924307E-3,3.191514E-3,3.8322702E-4,1.0007375E0,9.728279E-1,-1.3994533E-2,-5.3118635E-2,-1.1380194E-2,3.54321E-2,-1.2534405E-2,-7.011527E-2,3.265727E-2,-1.1682241E-2,-1.9252416E-2,6.874911E-3],"split_indices":[12,34,34,4,34,32,15,0,0,26,0,17,16,34,15,0,0,0,0,0,0,0,0,0,0],"split_type":[0,0,0,0,0,0,0,0,0,0,0,0,0,0,0,0,0,0,0,0,0,0,0,0,0],"sum_hessian":[3.1455133E2,3.855645E1,2.7599487E2,1.1925862E1,2.6630589E1,4.9578728E1,2.2641614E2,5.3956084E0,6.530254E0,2.1415762E1,5.214825E0,3.6219303E1,1.3359423E1,4.2559734E1,1.8385641E2,7.8602257E0,1.3555536E1,2.8814457E1,7.404847E0,8.155263E0,5.20416E0,2.9992102E1,1.2567632E1,3.9185356E1,1.4467105E2],"tree_param":{"num_deleted":"0","num_feature":"37","num_nodes":"25","size_leaf_vector":"1"}},{"base_weights":[2.2924013E-2,1.7480987E-1,-8.666976E-2,6.4546406E-1,7.181435E-2,-6.6418284E-1,-4.694358E-3,-0E0,8.274983E-1,-3.4353323E-2,7.150077E-1,-9.244227E-1,4.930135E-3,3.4878716E-1,-8.575197E-2,1.7614339E-2,4.9994096E-2,3.8040325E-3,-4.9490463E-2,6.3343264E-2,5.1364764E-3,-1.315999E-2,-5.9396844E-2,-3.9053906E-3,3.4188256E-2,-2.7739024E-2,1.7530591E-3],"categories":[],"categories_nodes":[],"categories_segments":[],"categories_sizes":[],"default_left":[1,1,0,1,0,0,0,0,0,0,0,0,0,0,0,0,0,0,0,0,0,0,0,0,0,0,0],"id":21,"left_children":[1,3,5,7,9,11,13,-1,15,17,19,21,-1,23,25,-1,-1,-1,-1,-1,-1,-1,-1,-1,-1,-1,-1],"loss_changes":[5.1882215E0,6.219897E0,8.475119E0,2.7181969E0,7.5065665E0,4.5959663E0,4.5656595E0,0E0,9.928179E-1,1.0086114E1,4.990948E0,2.4702806E0,0E0,4.3564777E0,7.4691877E0,0E0,0E0,0E0,0E0,0E0,0E0,0E0,0E0,0E0,0E0,0E0,0E0],"parents":[2147483647,0,0,1,1,2,2,3,3,4,4,5,5,6,6,8,8,9,9,10,10,11,11,13,13,14,14],"right_children":[2,4,6,8,10,12,14,-1,16,18,20,22,-1,24,26,-1,-1,-1,-1,-1,-1,-1,-1,-1,-1,-1,-1],"split_conditions":[1.1852445E-2,-1.30408745E1,1.1358517E-2,9.0629274E-1,1.5261261E1,1.0630996E0,1.2737046E-2,-0E0,-1.0267281E-3,6.709145E1,1.9966963E1,8.976474E-1,4.930135E-3,1.9017208E1,1.4117891E-2,1.7614339E-2,4.9994096E-2,3.8040325E-3,-4.9490463E-2,6.3343264E-2,5.1364764E-3,-1.315999E-2,-5.9396844E-2,-3.9053906E-3,3.4188256E-2,-2.7739024E-2,1.7530591E-3],"split_indices":[27,13,6,31,13,34,6,0,16,2,13,15,0,11,6,0,0,0,0,0,0,0,0,0,0,0,0],"split_type":[0,0,0,0,0,0,0,0,0,0,0,0,0,0,0,0,0,0,0,0,0,0,0,0,0,0,0],"sum_hessian":[3.0924487E2,1.2974661E2,1.7949826E2,2.2175295E1,1.0757132E2,2.127745E1,1.5822081E2,5.105174E0,1.7070122E1,9.30099E1,1.4561415E1,1.5804589E1,5.4728622E0,2.866778E1,1.2955304E2,5.508503E0,1.1561619E1,8.41046E1,8.905309E0,7.0103936E0,7.551021E0,5.181416E0,1.0623173E1,1.2810462E1,1.5857319E1,2.5969246E1,1.03583786E2],"tree_param":{"num_deleted":"0","num_feature":"37","num_nodes":"27","size_leaf_vector":"1"}},{"base_weights":[-1.4867432E-2,4.8844793E-1,-5.0240383E-2,7.6990664E-1,-0E0,2.3236577E-1,-1.2992686E-1,6.100728E-2,7.847319E-3,7.621311E-1,4.0681515E-2,-6.118549E-1,-8.128182E-2,5.3230044E-2,4.9941605E-3,3.1126902E-2,-4.803197E-3,-5.938248E-2,-4.743313E-3,8.673857E-3,-9.26566E-3],"categories":[],"categories_nodes":[],"categories_segments":[],"categories_sizes":[],"default_left":[1,0,0,0,0,1,0,0,0,0,0,0,0,0,0,0,0,0,0,0,0],"id":22,"left_children":[1,3,5,7,-1,9,11,-1,-1,13,15,17,19,-1,-1,-1,-1,-1,-1,-1,-1],"loss_changes":[5.4296155E0,2.7531462E0,6.484252E0,3.1747289E0,0E0,6.3084707E0,5.151726E0,0E0,0E0,3.1027412E0,3.901175E0,5.7935157E0,5.48122E0,0E0,0E0,0E0,0E0,0E0,0E0,0E0,0E0],"parents":[2147483647,0,0,1,1,2,2,3,3,5,5,6,6,9,9,10,10,11,11,12,12],"right_children":[2,4,6,8,-1,10,12,-1,-1,14,16,18,20,-1,-1,-1,-1,-1,-1,-1,-1],"split_conditions":[4E-2,2.9909065E1,-4.1139782E-3,-9.962846E-3,-0E0,2.7132627E1,6.5067788E-3,6.100728E-2,7.847319E-3,5.686275E-1,1E0,5.1562984E1,2.1E1,5.3230044E-2,4.9941605E-3,3.1126902E-2,-4.803197E-3,-5.938248E-2,-4.743313E-3,8.673857E-3,-9.26566E-3],"split_indices":[32,10,18,3,0,10,6,0,0,32,23,2,36,0,0,0,0,0,0,0,0],"split_type":[0,0,0,0,0,0,0,0,0,0,0,0,0,0,0,0,0,0,0,0,0],"sum_hessian":[3.050533E2,1.900461E1,2.860487E2,1.1696404E1,7.308205E0,6.2219135E1,2.2382959E2,6.078114E0,5.618291E0,1.5601897E1,4.6617237E1,1.9271595E1,2.0455798E2,1.018948E1,5.412417E0,8.334103E0,3.8283134E1,8.412037E0,1.0859557E1,5.8839397E1,1.457186E2],"tree_param":{"num_deleted":"0","num_feature":"37","num_nodes":"21","size_leaf_vector":"1"}},{"base_weights":[1.541247E-2,1.9465351E-1,-6.9356136E-2,5.0326217E-2,9.501598E-1,4.4350263E-1,-1.1615037E-1,1.6399464E-1,-4.4625472E-2,1.4650466E-2,6.388775E-2,-6.7154146E-3,4.1666806E-2,-6.1863816E-1,-4.200077E-2,4.4307794E-2,2.1940758E-3,-9.04549E-3,-5.408854E-2,-8.60019E-3,1.5141248E-2],"categories":[],"categories_nodes":[],"categories_segments":[],"categories_sizes":[],"default_left":[0,0,0,1,0,0,0,1,0,0,0,0,0,0,0,0,0,0,0,0,0],"id":23,"left_children":[1,3,5,7,9,11,13,15,-1,-1,-1,-1,-1,17,19,-1,-1,-1,-1,-1,-1],"loss_changes":[4.8375654E0,1.1009052E1,5.187016E0,9.405405E0,2.9655876E0,4.2442613E0,7.2971563E0,6.6899595E0,0E0,0E0,0E0,0E0,0E0,4.7979736E0,7.8419733E0,0E0,0E0,0E0,0E0,0E0,0E0],"parents":[2147483647,0,0,1,1,2,2,3,3,4,4,5,5,6,6,7,7,13,13,14,14],"right_children":[2,4,6,8,10,12,14,16,-1,-1,-1,-1,-1,18,20,-1,-1,-1,-1,-1,-1],"split_conditions":[8.929071E-3,8.2650725E-3,3.8204297E-1,4.2374623E-3,3.4E-1,3.608595E-1,8.550538E0,-3.4945784E-3,-4.4625472E-2,1.4650466E-2,6.388775E-2,-6.7154146E-3,4.1666806E-2,2E0,4.110574E-3,4.4307794E-2,2.1940758E-3,-9.04549E-3,-5.408854E-2,-8.60019E-3,1.5141248E-2],"split_indices":[6,6,0,19,32,0,12,19,0,0,0,0,0,23,19,0,0,0,0,0,0],"split_type":[0,0,0,0,0,0,0,0,0,0,0,0,0,0,0,0,0,0,0,0,0],"sum_hessian":[3.156731E2,1.01319336E2,2.1435374E2,8.607506E1,1.5244278E1,1.7035217E1,1.9731853E2,7.764615E1,8.428906E0,5.8030796E0,9.441198E0,7.0236793E0,1.00115385E1,2.4255451E1,1.7306308E2,1.0044563E1,6.7601585E1,1.32956505E1,1.0959801E1,1.2625483E2,4.680825E1],"tree_param":{"num_deleted":"0","num_feature":"37","num_nodes":"21","size_leaf_vector":"1"}},{"base_weights":[-4.7090694E-2,-2.5039938E-1,2.6616909E-2,-3.4699908E-1,3.1079207E-2,1.7634843E-1,-1.06217206E-1,-2.1328504E-1,-9.0278155E-1,4.1724828E-1,-1.872323E-1,1.060989E-1,-3.8032442E-1,-7.635781E-4,-2.9978706E-2,-6.483214E-2,-2.2497203E-2,1.1753293E-2,4.4630505E-2,-1.0959031E-3,-3.675819E-2,5.667433E-2,-1.5611496E-3,-6.980624E-2,-1.0692637E-2],"categories":[],"categories_nodes":[],"categories_segments":[],"categories_sizes":[],"default_left":[0,0,0,0,0,0,0,0,0,0,0,0,0,0,0,0,0,0,0,0,0,0,0,0,0],"id":24,"left_children":[1,3,5,7,-1,9,11,13,15,17,19,21,23,-1,-1,-1,-1,-1,-1,-1,-1,-1,-1,-1,-1],"loss_changes":[4.7927704E0,7.3514805E0,4.676908E0,5.440778E0,0E0,9.793716E0,7.2951736E0,4.806923E0,1.8347158E0,5.482932E0,3.950501E0,1.0100144E1,8.778423E0,0E0,0E0,0E0,0E0,0E0,0E0,0E0,0E0,0E0,0E0,0E0,0E0],"parents":[2147483647,0,0,1,1,2,2,3,3,5,5,6,6,7,7,8,8,9,9,10,10,11,11,12,12],"right_children":[2,4,6,8,-1,10,12,14,16,18,20,22,24,-1,-1,-1,-1,-1,-1,-1,-1,-1,-1,-1,-1],"split_conditions":[7.752979E-1,1.78E2,1.0928991E0,8.639456E-1,3.1079207E-2,1.0923688E1,1.2737046E-2,6.989396E-1,1.7484047E1,1.447914E-2,8.904931E-1,-9.060189E-1,1.3620326E-2,-7.635781E-4,-2.9978706E-2,-6.483214E-2,-2.2497203E-2,1.1753293E-2,4.4630505E-2,-1.0959031E-3,-3.675819E-2,5.667433E-2,-1.5611496E-3,-6.980624E-2,-1.0692637E-2],"split_indices":[14,36,14,21,0,31,6,14,12,6,5,7,6,0,0,0,0,0,0,0,0,0,0,0,0],"split_type":[0,0,0,0,0,0,0,0,0,0,0,0,0,0,0,0,0,0,0,0,0,0,0,0,0],"sum_hessian":[3.1689133E2,8.404057E1,2.3285074E2,7.6304214E1,7.73636E0,1.0966304E2,1.23187706E2,6.276698E1,1.3537234E1,6.603637E1,4.3626675E1,6.955803E1,5.3629673E1,4.2354355E1,2.0412624E1,6.125392E0,7.4118423E0,4.8972515E1,1.7063852E1,3.445415E1,9.172521E0,7.4316163E0,6.2126415E1,6.4267526E0,4.720292E1],"tree_param":{"num_deleted":"0","num_feature":"37","num_nodes":"25","size_leaf_vector":"1"}},{"base_weights":[-6.1628014E-2,5.4852422E-2,-2.1954146E-1,-1.6911026E-2,4.8303625E-1,-1.1942433E-1,-6.726476E-1,1.7543198E-1,-1.8621218E-1,-4.217508E-3,7.7129877E-1,3.3887425E-1,-2.2350833E-1,-9.297244E-1,8.748544E-3,-1.73021E-3,3.501602E-2,1.0731439E-2,-2.4237951E-2,1.3509932E-3,5.681921E-2,3.1474616E-2,-1.8823858E-2,5.8012553E-3,-2.0998253E-2,-2.9639695E-2,-7.3720336E-2],"categories":[],"categories_nodes":[],"categories_segments":[],"categories_sizes":[],"default_left":[1,1,0,0,0,1,0,0,0,0,0,0,0,0,0,0,0,0,0,0,0,0,0,0,0,0,0],"id":25,"left_children":[1,3,5,7,9,11,13,15,17,-1,19,21,23,25,-1,-1,-1,-1,-1,-1,-1,-1,-1,-1,-1,-1,-1],"loss_changes":[5.7248397E0,5.5446434E0,5.8296824E0,5.041458E0,4.3664417E0,5.2889743E0,5.3580694E0,8.053836E0,1.0009941E1,0E0,4.5744686E0,4.5222807E0,6.0850625E0,2.2735176E0,0E0,0E0,0E0,0E0,0E0,0E0,0E0,0E0,0E0,0E0,0E0,0E0,0E0],"parents":[2147483647,0,0,1,1,2,2,3,3,4,4,5,5,6,6,7,7,8,8,10,10,11,11,12,12,13,13],"right_children":[2,4,6,8,10,12,14,16,18,-1,20,22,24,26,-1,-1,-1,-1,-1,-1,-1,-1,-1,-1,-1,-1,-1],"split_conditions":[2.7906403E-3,8.6E1,1.1198255E0,9.871065E-1,2.3903707E-3,2.0471941E-1,1.8372232E1,1.7628559E-3,-4.251789E-3,-4.217508E-3,9.699636E-1,2.0298645E0,2.3964457E-3,1.3930644E1,8.748544E-3,-1.73021E-3,3.501602E-2,1.0731439E-2,-2.4237951E-2,1.3509932E-3,5.681921E-2,3.1474616E-2,-1.8823858E-2,5.8012553E-3,-2.0998253E-2,-2.9639695E-2,-7.3720336E-2],"split_indices":[18,36,15,34,1,30,12,19,18,0,15,28,1,12,0,0,0,0,0,0,0,0,0,0,0,0,0],"split_type":[0,0,0,0,0,0,0,0,0,0,0,0,0,0,0,0,0,0,0,0,0,0,0,0,0,0,0],"sum_hessian":[3.0868695E2,1.7766023E2,1.3102672E2,1.5278113E2,2.4879099E1,1.08530396E2,2.249632E1,7.122994E1,8.155119E1,8.503049E0,1.637605E1,1.9491156E1,8.903924E1,1.7277336E1,5.2189846E0,5.1403984E1,1.9825953E1,3.4788666E1,4.6762527E1,5.832856E0,1.0543195E1,1.4045044E1,5.446113E0,3.2599083E1,5.6440155E1,1.2078019E1,5.199318E0],"tree_param":{"num_deleted":"0","num_feature":"37","num_nodes":"27","size_leaf_vector":"1"}},{"base_weights":[-2.7040254E-2,2.9456444E-2,-3.1662866E-1,-3.311551E-2,4.699335E-1,-9.579713E-1,-8.434292E-2,1.2936825E-1,-1.5629797E-1,7.348563E-1,-4.316422E-2,-1.2214701E-2,-6.8392076E-2,3.917434E-1,-2.9674187E-1,2.8764982E-2,-1.7207841E-3,-2.4069993E-2,6.9059142E-6,6.3886486E-2,9.788515E-3,2.3103476E-2,-2.9573286E-2,-6.5965685E-3,4.2591233E-2,-4.149145E-2,-0E0],"categories":[],"categories_nodes":[],"categories_segments":[],"categories_sizes":[],"default_left":[1,0,0,0,0,0,0,0,0,0,1,0,0,1,0,0,0,0,0,0,0,0,0,0,0,0,0],"id":26,"left_children":[1,3,5,7,9,11,13,15,17,19,21,-1,-1,23,25,-1,-1,-1,-1,-1,-1,-1,-1,-1,-1,-1,-1],"loss_changes":[5.074783E0,7.176301E0,7.3575253E0,4.56316E0,4.502884E0,3.3806753E0,3.9876413E0,7.232421E0,6.650905E0,5.9065886E0,3.5669947E0,0E0,0E0,3.1058652E0,4.2813206E0,0E0,0E0,0E0,0E0,0E0,0E0,0E0,0E0,0E0,0E0,0E0,0E0],"parents":[2147483647,0,0,1,1,2,2,3,3,4,4,5,5,6,6,7,7,8,8,9,9,10,10,13,13,14,14],"right_children":[2,4,6,8,10,12,14,16,18,20,22,-1,-1,24,26,-1,-1,-1,-1,-1,-1,-1,-1,-1,-1,-1,-1],"split_conditions":[4.259402E-3,8.170186E-2,7.3298013E-1,3.8905776E-1,7E0,8.6966634E-2,9.697092E-1,8.765101E-3,-7.004462E-4,6.0298643E-3,6.1996226E0,-1.2214701E-2,-6.8392076E-2,3.1482979E1,5.9E-1,2.8764982E-2,-1.7207841E-3,-2.4069993E-2,6.9059142E-6,6.3886486E-2,9.788515E-3,2.3103476E-2,-2.9573286E-2,-6.5965685E-3,4.2591233E-2,-4.149145E-2,-0E0],"split_indices":[17,3,14,26,35,3,34,6,17,19,31,0,0,10,32,0,0,0,0,0,0,0,0,0,0,0,0],"split_type":[0,0,0,0,0,0,0,0,0,0,0,0,0,0,0,0,0,0,0,0,0,0,0,0,0,0,0],"sum_hessian":[3.0685428E2,2.5722452E2,4.9629757E1,2.2584053E2,3.1383976E1,1.2250748E1,3.737901E1,9.7013245E1,1.2882729E2,2.054096E1,1.0843016E1,5.140309E0,7.1104383E0,1.1125755E1,2.6253256E1,2.5549128E1,7.146411E1,4.1384636E1,8.744265E1,9.459413E0,1.1081547E1,5.6300664E0,5.212949E0,5.43519E0,5.6905646E0,8.7022505E0,1.7551004E1],"tree_param":{"num_deleted":"0","num_feature":"37","num_nodes":"27","size_leaf_vector":"1"}},{"base_weights":[2.433955E-2,7.778619E-2,-2.3448463E-1,3.7273016E-2,4.8325697E-1,-5.421271E-1,1.679511E-1,-1.673324E-1,1.16265655E-1,7.0530427E-1,-9.387496E-3,-6.434189E-2,-3.1021154E-1,3.9313857E-2,-1.323561E-1,-4.0374164E-2,-2.3786032E-3,-5.634378E-4,1.5824733E-2,1.0812697E-2,6.0011964E-2,-2.618782E-2,1.659025E-2,-2.7460847E-2,2.090444E-2],"categories":[],"categories_nodes":[],"categories_segments":[],"categories_sizes":[],"default_left":[0,0,0,0,0,0,0,0,1,0,0,0,0,0,0,0,0,0,0,0,0,0,0,0,0],"id":27,"left_children":[1,3,5,7,9,11,13,15,17,19,-1,-1,21,-1,23,-1,-1,-1,-1,-1,-1,-1,-1,-1,-1],"loss_changes":[4.343752E0,4.2203255E0,6.769552E0,3.8733094E0,3.6733255E0,4.756817E0,4.600464E0,4.979012E0,4.4569674E0,3.935687E0,0E0,0E0,3.605314E0,0E0,4.0996776E0,0E0,0E0,0E0,0E0,0E0,0E0,0E0,0E0,0E0,0E0],"parents":[2147483647,0,0,1,1,2,2,3,3,4,4,5,5,6,6,7,7,8,8,9,9,12,12,14,14],"right_children":[2,4,6,8,10,12,14,16,18,20,-1,-1,22,-1,24,-1,-1,-1,-1,-1,-1,-1,-1,-1,-1],"split_conditions":[8.942591E-1,8.465388E-1,2.4801305E-1,1.7484047E1,7.225194E1,2.6E1,1.3351588E-2,6.66948E-1,-1.1236753E-3,5.9234645E-2,-9.387496E-3,-6.434189E-2,1E1,3.9313857E-2,1.0556566E0,-4.0374164E-2,-2.3786032E-3,-5.634378E-4,1.5824733E-2,1.0812697E-2,6.0011964E-2,-2.618782E-2,1.659025E-2,-2.7460847E-2,2.090444E-2],"split_indices":[26,26,4,12,2,36,27,14,19,3,0,0,35,0,34,0,0,0,0,0,0,0,0,0,0],"split_type":[0,0,0,0,0,0,0,0,0,0,0,0,0,0,0,0,0,0,0,0,0,0,0,0,0],"sum_hessian":[3.1282153E2,2.6018063E2,5.264092E1,2.3776277E2,2.2417845E1,2.9778261E1,2.2862656E1,6.55617E1,1.7220108E2,1.6917484E1,5.5003605E0,5.888764E0,2.3889498E1,7.0537953E0,1.5808861E1,9.295781E0,5.6265915E1,1.05468185E2,6.6732895E1,9.333721E0,7.583764E0,1.8181877E1,5.7076206E0,9.100675E0,6.708186E0],"tree_param":{"num_deleted":"0","num_feature":"37","num_nodes":"25","size_leaf_vector":"1"}},{"base_weights":[-1.96723E-3,-1.4285457E-1,1.0001642E-1,-3.7193164E-1,8.089469E-2,2.904904E-1,-3.8255855E-2,-2.1160874E-1,-6.1315425E-2,-3.5353214E-2,1.9048408E-1,5.62438E-1,5.7094373E-2,-1.0254563E-1,3.601576E-2,-3.6118783E-2,-2.4877517E-3,3.2892477E-2,-1.4442868E-3,4.4849444E-2,1.5454589E-2,-1.6735787E-2,2.494615E-2,-9.622539E-3,1.8628463E-2],"categories":[],"categories_nodes":[],"categories_segments":[],"categories_sizes":[],"default_left":[1,0,1,1,0,0,0,0,0,0,0,0,0,0,0,0,0,0,0,0,0,0,0,0,0],"id":28,"left_children":[1,3,5,7,9,11,13,15,-1,-1,17,19,21,23,-1,-1,-1,-1,-1,-1,-1,-1,-1,-1,-1],"loss_changes":[4.5639925E0,6.9101896E0,4.874227E0,8.698035E0,5.9738045E0,4.8364916E0,5.230716E0,4.6199565E0,0E0,0E0,6.3142495E0,2.6166782E0,7.6471214E0,4.310046E0,0E0,0E0,0E0,0E0,0E0,0E0,0E0,0E0,0E0,0E0,0E0],"parents":[2147483647,0,0,1,1,2,2,3,3,4,4,5,5,6,6,7,7,10,10,11,11,12,12,13,13],"right_children":[2,4,6,8,10,12,14,16,-1,-1,18,20,22,24,-1,-1,-1,-1,-1,-1,-1,-1,-1,-1,-1],"split_conditions":[1.7484047E1,1.2628455E-1,2.7050316E1,2.1710915E1,3.5E-1,1.8140646E1,6.498071E1,5.485437E1,-6.1315425E-2,-3.5353214E-2,1.7230816E0,3.841736E1,2.3175022E1,1.1299787E0,3.601576E-2,-3.6118783E-2,-2.4877517E-3,3.2892477E-2,-1.4442868E-3,4.4849444E-2,1.5454589E-2,-1.6735787E-2,2.494615E-2,-9.622539E-3,1.8628463E-2],"split_indices":[12,4,10,13,32,11,10,2,0,0,8,2,11,15,0,0,0,0,0,0,0,0,0,0,0],"split_type":[0,0,0,0,0,0,0,0,0,0,0,0,0,0,0,0,0,0,0,0,0,0,0,0,0],"sum_hessian":[3.1535272E2,1.3266283E2,1.8268991E2,6.544457E1,6.721825E1,7.668143E1,1.0600848E2,5.6253403E1,9.191172E0,7.4301653E0,5.9788086E1,3.456677E1,4.2114655E1,9.864486E1,7.3636208E0,1.2554327E1,4.3699074E1,1.8605745E1,4.118234E1,1.3631159E1,2.0935612E1,2.2329304E1,1.9785353E1,8.362589E1,1.5018967E1],"tree_param":{"num_deleted":"0","num_feature":"37","num_nodes":"25","size_leaf_vector":"1"}},{"base_weights":[2.3390523E-3,1.3942039E-1,-1.1606518E-1,7.49718E-2,7.1272075E-1,-4.7672167E-1,-0E0,-1.706459E-1,2.285993E-1,5.906651E-2,-4.9960776E-3,1.5841353E-1,-7.2762847E-1,-3.1268656E-2,5.3887896E-2,6.267242E-3,-4.547699E-2,1.6439049E-2,-3.5832107E-2,-9.274566E-3,2.6201317E-2,-4.648255E-2,-0E0,4.2429846E-2,2.9531505E-4],"categories":[],"categories_nodes":[],"categories_segments":[],"categories_sizes":[],"default_left":[0,0,0,0,0,0,0,0,0,0,0,0,1,0,0,0,0,0,0,0,0,0,0,0,0],"id":29,"left_children":[1,3,5,7,9,11,13,15,17,-1,-1,19,21,-1,23,-1,-1,-1,-1,-1,-1,-1,-1,-1,-1],"loss_changes":[5.1081533E0,5.268591E0,7.0196505E0,5.051079E0,5.746878E0,6.6852007E0,4.400852E0,1.1428304E1,7.9902716E0,0E0,0E0,1.675316E0,4.388835E0,0E0,4.4534945E0,0E0,0E0,0E0,0E0,0E0,0E0,0E0,0E0,0E0,0E0],"parents":[2147483647,0,0,1,1,2,2,3,3,4,4,5,5,6,6,7,7,8,8,11,11,12,12,14,14],"right_children":[2,4,6,8,10,12,14,16,18,-1,-1,20,22,-1,24,-1,-1,-1,-1,-1,-1,-1,-1,-1,-1],"split_conditions":[2.7172086E-3,1.4184616E-2,2.5438598E-1,9.633925E-1,1.7849665E-2,1.7245372E-1,5.944893E-1,9.3492824E-1,3.4965374E1,5.906651E-2,-4.9960776E-3,-2.3316614E-1,5.8E1,-3.1268656E-2,2.955975E-1,6.267242E-3,-4.547699E-2,1.6439049E-2,-3.5832107E-2,-9.274566E-3,2.6201317E-2,-4.648255E-2,-0E0,4.2429846E-2,2.9531505E-4],"split_indices":[1,27,21,15,6,5,14,15,11,0,0,4,36,0,21,0,0,0,0,0,0,0,0,0,0],"split_type":[0,0,0,0,0,0,0,0,0,0,0,0,0,0,0,0,0,0,0,0,0,0,0,0,0],"sum_hessian":[3.125748E2,1.4517126E2,1.6740353E2,1.3167409E2,1.3497177E1,3.986988E1,1.2753365E2,5.037441E1,8.1299675E1,8.3509655E0,5.1462116E0,1.1281766E1,2.8588118E1,9.36792E0,1.1816573E2,3.64629E1,1.391151E1,7.419415E1,7.1055217E0,5.9263916E0,5.3553743E0,2.2203978E1,6.3841386E0,5.65945E0,1.1250629E2],"tree_param":{"num_deleted":"0","num_feature":"37","num_nodes":"25","size_leaf_vector":"1"}},{"base_weights":[-8.096219E-3,-1.7104796E-1,7.9151005E-2,3.3450548E-2,-3.924484E-1,-2.5657037E-1,1.3013934E-1,5.3578204E-1,-1.6199718E-1,-5.6528723E-1,7.078621E-2,2.2941263E-1,-6.3912696E-1,2.2614365E-2,3.3757493E-1,5.126154E-2,-2.1106493E-2,5.6280144E-3,-2.2365352E-2,-9.327768E-3,-4.3429192E-2,2.3869608E-2,-2.316903E-2,-1.9281069E-2,3.8205132E-2,-3.4662237E-4,-6.088934E-2,9.885377E-3,-1.2165491E-2,1.1000442E-2,5.206653E-2],"categories":[],"categories_nodes":[],"categories_segments":[],"categories_sizes":[],"default_left":[0,0,0,0,0,0,0,0,0,0,0,0,0,0,0,0,0,0,0,0,0,0,0,0,0,0,0,0,0,0,0],"id":30,"left_children":[1,3,5,7,9,11,13,15,17,19,21,23,25,27,29,-1,-1,-1,-1,-1,-1,-1,-1,-1,-1,-1,-1,-1,-1,-1,-1],"loss_changes":[4.4200506E0,4.9647355E0,3.4738748E0,5.7328744E0,4.2884665E0,5.1470757E0,3.8830683E0,8.171293E0,3.3542862E0,4.1505814E0,3.4766912E0,4.4005365E0,5.468237E0,5.506963E0,4.58528E0,0E0,0E0,0E0,0E0,0E0,0E0,0E0,0E0,0E0,0E0,0E0,0E0,0E0,0E0,0E0,0E0],"parents":[2147483647,0,0,1,1,2,2,3,3,4,4,5,5,6,6,7,7,8,8,9,9,10,10,11,11,12,12,13,13,14,14],"right_children":[2,4,6,8,10,12,14,16,18,20,22,24,26,28,30,-1,-1,-1,-1,-1,-1,-1,-1,-1,-1,-1,-1,-1,-1,-1,-1],"split_conditions":[9E0,2.7483874E-3,7.85113E-3,3.3E1,1.9156059E0,-1.2578458E-5,5.939321E-1,8.025088E-4,5.7831323E-1,1.5005465E0,4.122449E-3,-5.39415E-4,2.5075505E-4,-6.4649954E-2,1.2896461E0,5.126154E-2,-2.1106493E-2,5.6280144E-3,-2.2365352E-2,-9.327768E-3,-4.3429192E-2,2.3869608E-2,-2.316903E-2,-1.9281069E-2,3.8205132E-2,-3.4662237E-4,-6.088934E-2,9.885377E-3,-1.2165491E-2,1.1000442E-2,5.206653E-2],"split_indices":[35,1,27,36,7,18,8,16,21,8,20,17,16,4,14,0,0,0,0,0,0,0,0,0,0,0,0,0,0,0,0],"split_type":[0,0,0,0,0,0,0,0,0,0,0,0,0,0,0,0,0,0,0,0,0,0,0,0,0,0,0,0,0,0,0],"sum_hessian":[3.082984E2,1.0757191E2,2.007265E2,5.612697E1,5.1444942E1,2.5675917E1,1.750506E2,1.5376718E1,4.075025E1,3.746269E1,1.398225E1,1.1370391E1,1.4305525E1,1.16337654E2,5.8712933E1,1.0199409E1,5.177309E0,2.0896376E1,1.9853874E1,1.7524426E1,1.9938265E1,8.105707E0,5.8765426E0,5.3305864E0,6.0398045E0,7.402727E0,6.9027977E0,7.053059E1,4.580707E1,5.15551E1,7.1578336E0],"tree_param":{"num_deleted":"0","num_feature":"37","num_nodes":"31","size_leaf_vector":"1"}},{"base_weights":[3.1699076E-2,9.686912E-2,-3.0256647E-1,1.4120692E-1,-4.892961E-1,-4.9736075E-2,-1.5971802E-1,9.840267E-2,7.7865875E-1,1.1138247E-2,-9.143765E-1,-2.9575345E-1,3.273199E-2,6.276437E-3,-2.3756184E-2,6.149442E-2,-1.9881127E-3,-1.413242E-2,-6.7200735E-2,-3.060636E-2,9.13937E-3],"categories":[],"categories_nodes":[],"categories_segments":[],"categories_sizes":[],"default_left":[1,0,0,0,0,0,0,0,0,0,0,0,0,0,0,0,0,0,0,0,0],"id":31,"left_children":[1,3,5,7,9,-1,11,13,15,-1,17,19,-1,-1,-1,-1,-1,-1,-1,-1,-1],"loss_changes":[6.7583733E0,6.799229E0,4.723188E0,6.464113E0,5.83309E0,0E0,4.944447E0,3.5863183E0,5.7052345E0,0E0,2.6565456E0,5.8803816E0,0E0,0E0,0E0,0E0,0E0,0E0,0E0,0E0,0E0],"parents":[2147483647,0,0,1,1,2,2,3,3,4,4,6,6,7,7,8,8,10,10,11,11],"right_children":[2,4,6,8,10,-1,12,14,16,-1,18,20,-1,-1,-1,-1,-1,-1,-1,-1,-1],"split_conditions":[4.3355376E-3,9.519231E-1,1.8232554E-3,2.4189496E-1,5.769467E-1,-4.9736075E-2,2E1,3.2809632E0,4.5783013E-1,1.1138247E-2,7.513133E-3,4.0563173E0,3.273199E-2,6.276437E-3,-2.3756184E-2,6.149442E-2,-1.9881127E-3,-1.413242E-2,-6.7200735E-2,-3.060636E-2,9.13937E-3],"split_indices":[17,21,20,4,26,0,22,8,0,0,6,30,0,0,0,0,0,0,0,0,0],"split_type":[0,0,0,0,0,0,0,0,0,0,0,0,0,0,0,0,0,0,0,0,0],"sum_hessian":[3.0884222E2,2.5929764E2,4.9544567E1,2.4192783E2,1.7369825E1,7.3358884E0,4.220868E1,2.2793356E2,1.3994262E1,6.5830755E0,1.078675E1,3.6817993E1,5.3906865E0,2.1855219E2,9.381369E0,8.77543E0,5.218832E0,5.1317687E0,5.654981E0,2.2122288E1,1.4695707E1],"tree_param":{"num_deleted":"0","num_feature":"37","num_nodes":"21","size_leaf_vector":"1"}},{"base_weights":[1.0513675E-2,-1.3677901E-2,5.2365565E-1,9.330265E-2,-1.1544129E-1,3.9646346E-2,3.6492178E-3,2.0790564E-1,-2.5959238E-1,-3.7674806E-1,4.5765422E-2,-8.067853E-3,1.5864264E-2,-3.3860408E-2,6.8104737E-3,-3.4129526E-2,1.2197093E-3,-2.2178538E-2,7.4036787E-3],"categories":[],"categories_nodes":[],"categories_segments":[],"categories_sizes":[],"default_left":[0,0,0,0,0,0,0,0,0,0,0,0,0,0,0,0,0,0,0],"id":32,"left_children":[1,3,5,7,9,-1,-1,11,13,15,17,-1,-1,-1,-1,-1,-1,-1,-1],"loss_changes":[4.0151725E0,3.3355925E0,1.6227605E0,6.0690947E0,6.6781645E0,0E0,0E0,4.6363716E0,6.2162952E0,7.48985E0,4.940447E0,0E0,0E0,0E0,0E0,0E0,0E0,0E0,0E0],"parents":[2147483647,0,0,1,1,2,2,3,3,4,4,7,7,8,8,9,9,10,10],"right_children":[2,4,6,8,10,-1,-1,12,14,16,18,-1,-1,-1,-1,-1,-1,-1,-1],"split_conditions":[2.5443587E-2,2.7172086E-3,4.168285E-3,8.090909E-1,1.4E1,3.9646346E-2,3.6492178E-3,2.126562E1,2.309165E-3,4.9E1,4E0,-8.067853E-3,1.5864264E-2,-3.3860408E-2,6.8104737E-3,-3.4129526E-2,1.2197093E-3,-2.2178538E-2,7.4036787E-3],"split_indices":[6,1,20,21,35,0,0,10,1,36,22,0,0,0,0,0,0,0,0],"split_type":[0,0,0,0,0,0,0,0,0,0,0,0,0,0,0,0,0,0,0],"sum_hessian":[3.1776132E2,3.0419864E2,1.356268E1,1.4785936E2,1.5633928E2,7.8757052E0,5.6869745E0,1.12137E2,3.5722366E1,5.937657E1,9.6962715E1,2.5308098E1,8.68289E1,1.7159172E1,1.8563194E1,3.343354E1,2.594303E1,1.6021133E1,8.094158E1],"tree_param":{"num_deleted":"0","num_feature":"37","num_nodes":"19","size_leaf_vector":"1"}},{"base_weights":[6.343865E-2,9.853789E-2,-4.1924438E-1,-8.0620155E-2,1.9142033E-1,-3.6980234E-2,-3.943201E-2,-5.240812E-1,5.2387252E-2,2.2794725E-1,-2.7548045E-2,-3.467314E-2,2.9123237E-2,1.4806478E-2,-4.1876566E-2,4.093896E-2,-3.029579E-3,2.0838419E-2,4.040381E-3],"categories":[],"categories_nodes":[],"categories_segments":[],"categories_sizes":[],"default_left":[0,0,0,0,0,0,0,0,1,0,0,0,0,0,0,0,0,0,0],"id":33,"left_children":[1,3,5,7,9,11,-1,13,15,17,-1,-1,-1,-1,-1,-1,-1,-1,-1],"loss_changes":[5.2890544E0,4.877611E0,2.870955E0,5.9653034E0,5.3174005E0,5.1170955E0,0E0,6.294301E0,6.8412776E0,5.0412283E0,0E0,0E0,0E0,0E0,0E0,0E0,0E0,0E0,0E0],"parents":[2147483647,0,0,1,1,2,2,3,3,4,4,5,5,7,7,8,8,9,9],"right_children":[2,4,6,8,10,12,-1,14,16,18,-1,-1,-1,-1,-1,-1,-1,-1,-1],"split_conditions":[1.435503E0,8.241968E-1,-7.183575E-3,-7.660581E-4,1.95E2,1.496112E1,-3.943201E-2,-1.8930405E-3,-3.6654467E-4,1.0713285E0,-2.7548045E-2,-3.467314E-2,2.9123237E-2,1.4806478E-2,-4.1876566E-2,4.093896E-2,-3.029579E-3,2.0838419E-2,4.040381E-3],"split_indices":[14,14,3,16,36,11,0,16,16,14,0,0,0,0,0,0,0,0,0],"split_type":[0,0,0,0,0,0,0,0,0,0,0,0,0,0,0,0,0,0,0],"sum_hessian":[3.10644E2,2.9052124E2,2.0122793E1,9.886978E1,1.9165146E2,1.0562823E1,9.55997E0,2.23071E1,7.656268E1,1.8345279E2,8.198661E0,5.148467E0,5.4143567E0,6.094842E0,1.6212257E1,9.147634E0,6.741505E1,7.9246E1,1.0420679E2],"tree_param":{"num_deleted":"0","num_feature":"37","num_nodes":"19","size_leaf_vector":"1"}},{"base_weights":[-2.9823033E-2,2.6476698E-3,-4.8152146E-1,-5.4560516E-2,4.2485648E-1,6.703225E-2,-5.1119734E-2,-9.675119E-3,-6.9714195E-1,-1.3043202E-2,6.5592074E-1,-3.9385602E-2,4.643404E-2,-6.5761483E-3,8.27938E-3,-3.7535694E-3,-5.835692E-2,-8.5961735E-3,4.312978E-2],"categories":[],"categories_nodes":[],"categories_segments":[],"categories_sizes":[],"default_left":[0,0,0,0,0,0,0,0,0,0,0,0,0,0,0,0,0,0,0],"id":34,"left_children":[1,3,5,7,9,11,-1,13,15,-1,17,-1,-1,-1,-1,-1,-1,-1,-1],"loss_changes":[4.628609E0,7.1149826E0,6.439695E0,7.3611045E0,5.784022E0,9.103234E0,0E0,5.1911263E0,4.664648E0,0E0,4.786212E0,0E0,0E0,0E0,0E0,0E0,0E0,0E0,0E0],"parents":[2147483647,0,0,1,1,2,2,3,3,4,4,5,5,7,7,8,8,10,10],"right_children":[2,4,6,8,10,12,-1,14,16,-1,18,-1,-1,-1,-1,-1,-1,-1,-1],"split_conditions":[1.435503E0,1.2683661E0,-7.183575E-3,1.2213664E0,9.6456426E-1,1.6064516E1,-5.1119734E-2,6.031746E-1,4.1E-1,-1.3043202E-2,-5.3324294E-3,-3.9385602E-2,4.643404E-2,-6.5761483E-3,8.27938E-3,-3.7535694E-3,-5.835692E-2,-8.5961735E-3,4.312978E-2],"split_indices":[14,14,3,14,15,11,0,32,32,0,18,0,0,0,0,0,0,0,0],"split_type":[0,0,0,0,0,0,0,0,0,0,0,0,0,0,0,0,0,0,0],"sum_hessian":[3.1122867E2,2.9107712E2,2.015156E1,2.5690155E2,3.417556E1,1.0347899E1,9.803661E0,2.4122244E2,1.5679115E1,8.471946E0,2.5703615E1,5.179577E0,5.168322E0,1.4277863E2,9.844381E1,7.3385563E0,8.340559E0,5.0719614E0,2.0631653E1],"tree_param":{"num_deleted":"0","num_feature":"37","num_nodes":"19","size_leaf_vector":"1"}},{"base_weights":[3.4543794E-2,8.9056246E-2,-1.8509066E-1,5.907767E-2,6.0928756E-1,-8.750246E-1,-2.7068451E-2,1.2204953E-1,-2.2333354E-1,7.047579E-2,-1.0128674E-2,-2.4247406E-2,-5.5369474E-2,-3.885707E-2,1.1104724E-1,2.0236778E-3,2.4468133E-2,-1.862966E-2,2.7202437E-2,4.135951E-2,-3.0512905E-3],"categories":[],"categories_nodes":[],"categories_segments":[],"categories_sizes":[],"default_left":[1,0,0,0,0,0,1,1,0,0,0,0,0,0,0,0,0,0,0,0,0],"id":35,"left_children":[1,3,5,7,9,11,13,15,17,-1,-1,-1,-1,-1,19,-1,-1,-1,-1,-1,-1],"loss_changes":[3.6864064E0,3.75329E0,6.544199E0,4.1976275E0,8.9706745E0,3.2170486E-1,5.419631E0,5.7146864E0,5.1019454E0,0E0,0E0,0E0,0E0,0E0,5.511642E0,0E0,0E0,0E0,0E0,0E0,0E0],"parents":[2147483647,0,0,1,1,2,2,3,3,4,4,5,5,6,6,7,7,8,8,14,14],"right_children":[2,4,6,8,10,12,14,16,18,-1,-1,-1,-1,-1,20,-1,-1,-1,-1,-1,-1],"split_conditions":[3.488214E-3,2.456671E-1,1.8232554E-3,1.9881518E0,2.023617E-3,4.965976E-3,7E0,7.734121E-1,1.926714E1,7.047579E-2,-1.0128674E-2,-2.4247406E-2,-5.5369474E-2,-3.885707E-2,1.0155553E0,2.0236778E-3,2.4468133E-2,-1.862966E-2,2.7202437E-2,4.135951E-2,-3.0512905E-3],"split_indices":[17,4,20,8,20,17,36,28,12,0,0,0,0,0,28,0,0,0,0,0,0],"split_type":[0,0,0,0,0,0,0,0,0,0,0,0,0,0,0,0,0,0,0,0,0],"sum_hessian":[3.0632343E2,2.4625394E2,6.006949E1,2.3407126E2,1.2182686E1,1.0230848E1,4.983864E1,1.9214812E2,4.1923138E1,5.8265963E0,6.356089E0,5.132375E0,5.0984735E0,7.1431584E0,4.269548E1,1.5836052E2,3.3787598E1,3.5636448E1,6.2866898E0,7.6463656E0,3.5049114E1],"tree_param":{"num_deleted":"0","num_feature":"37","num_nodes":"21","size_leaf_vector":"1"}},{"base_weights":[1.1327474E-2,2.738599E-1,-5.0268807E-2,5.625911E-1,8.019901E-3,3.8678432E-1,-9.584264E-2,-1.9847572E-2,7.8903157E-1,-3.0045715E-1,4.3307745E-1,8.147426E-1,-9.667325E-2,-5.156547E-1,-4.166592E-2,1.4113793E-2,5.690677E-2,-5.1844634E-2,3.6521652E-3,-2.037442E-3,3.9451014E-2,1.4881588E-2,5.909821E-2,-2.79324E-2,1.7627986E-2,-4.2283013E-2,3.908224E-3,3.393138E-2,-5.146843E-3],"categories":[],"categories_nodes":[],"categories_segments":[],"categories_sizes":[],"default_left":[0,0,0,0,0,0,0,0,0,0,0,0,0,1,0,0,0,0,0,0,0,0,0,0,0,0,0,0,0],"id":36,"left_children":[1,3,5,7,9,11,13,-1,15,17,19,21,23,25,27,-1,-1,-1,-1,-1,-1,-1,-1,-1,-1,-1,-1,-1,-1],"loss_changes":[5.0710692E0,4.515603E0,5.0417657E0,6.521145E0,4.3709464E0,5.0863113E0,5.150901E0,0E0,3.674471E0,5.4359465E0,2.4858143E0,1.9441853E0,2.705018E0,5.2329836E0,9.05483E0,0E0,0E0,0E0,0E0,0E0,0E0,0E0,0E0,0E0,0E0,0E0,0E0,0E0,0E0],"parents":[2147483647,0,0,1,1,2,2,3,3,4,4,5,5,6,6,8,8,9,9,10,10,11,11,12,12,13,13,14,14],"right_children":[2,4,6,8,10,12,14,-1,16,18,20,22,24,26,28,-1,-1,-1,-1,-1,-1,-1,-1,-1,-1,-1,-1,-1,-1],"split_conditions":[2.2971043E-1,3.6706417E1,8.874895E-1,1.7293709E1,1.2331901E-1,8.76276E-1,-1.7850141E-1,-1.9847572E-2,4.0710826E0,8E0,1.5269597E-1,8.976474E-1,1.067537E0,4.4455357E0,-1.1315878E-1,1.4113793E-2,5.690677E-2,-5.1844634E-2,3.6521652E-3,-2.037442E-3,3.9451014E-2,1.4881588E-2,5.909821E-2,-2.79324E-2,1.7627986E-2,-4.2283013E-2,3.908224E-3,3.393138E-2,-5.146843E-3],"split_indices":[5,10,34,10,5,14,4,0,31,22,26,15,14,30,4,0,0,0,0,0,0,0,0,0,0,0,0,0,0],"split_type":[0,0,0,0,0,0,0,0,0,0,0,0,0,0,0,0,0,0,0,0,0,0,0,0,0,0,0,0,0],"sum_hessian":[3.1035593E2,5.8632595E1,2.5172333E2,2.7390783E1,3.1241814E1,2.2855717E1,2.2886761E2,5.00165E0,2.2389133E1,1.813707E1,1.3104743E1,1.1869976E1,1.0985741E1,2.497489E1,2.0389273E2,9.98705E0,1.2402083E1,5.5956492E0,1.2541421E1,5.880832E0,7.223911E0,5.793935E0,6.076041E0,5.4057293E0,5.580012E0,1.5889082E1,9.085808E0,1.5066375E1,1.8882635E2],"tree_param":{"num_deleted":"0","num_feature":"37","num_nodes":"29","size_leaf_vector":"1"}},{"base_weights":[-8.101457E-3,7.2465595E-3,-3.7109982E-2,-1.2089891E-2,3.85347E-2,6.4024623E-3,-3.2266233E-2,6.347558E-3,-6.1824443E-3],"categories":[],"categories_nodes":[],"categories_segments":[],"categories_sizes":[],"default_left":[0,0,0,0,0,0,0,0,0],"id":37,"left_children":[1,3,-1,5,-1,7,-1,-1,-1],"loss_changes":[3.575611E0,4.5855536E0,0E0,3.5597224E0,0E0,4.5712395E0,0E0,0E0,0E0],"parents":[2147483647,0,0,1,1,3,3,5,5],"right_children":[2,4,-1,6,-1,8,-1,-1,-1],"split_conditions":[8.577561E1,4.1821297E1,-3.7109982E-2,3.0317951E1,3.85347E-2,4.7286394E-1,-3.2266233E-2,6.347558E-3,-6.1824443E-3],"split_indices":[2,11,0,13,0,0,0,0,0],"split_type":[0,0,0,0,0,0,0,0,0],"sum_hessian":[3.0935352E2,3.0385464E2,5.4988756E0,2.9718088E2,6.673761E0,2.8955692E2,7.6239605E0,1.5067981E2,1.388771E2],"tree_param":{"num_deleted":"0","num_feature":"37","num_nodes":"9","size_leaf_vector":"1"}},{"base_weights":[-1.820049E-2,-2.3530477E-3,-3.9595474E-2,-1.9902581E-2,3.243788E-2,5.8592963E-3,-5.3445524E-1,1.2221379E-2,-2.666963E-3,-6.2464114E-2,-0E0],"categories":[],"categories_nodes":[],"categories_segments":[],"categories_sizes":[],"default_left":[1,1,0,0,0,0,0,0,0,0,0],"id":38,"left_children":[1,3,-1,5,-1,7,9,-1,-1,-1,-1],"loss_changes":[3.732154E0,3.445468E0,0E0,4.019391E0,0E0,4.064813E0,5.4959164E0,0E0,0E0,0E0,0E0],"parents":[2147483647,0,0,1,1,3,3,5,5,6,6],"right_children":[2,4,-1,6,-1,8,10,-1,-1,-1,-1],"split_conditions":[8.467545E1,4.1821297E1,-3.9595474E-2,1.1823978E0,3.243788E-2,2.3204605E-1,2.0906658E1,1.2221379E-2,-2.666963E-3,-6.2464114E-2,-0E0],"split_indices":[2,11,0,34,0,5,12,0,0,0,0],"split_type":[0,0,0,0,0,0,0,0,0,0,0],"sum_hessian":[3.100144E2,3.0490158E2,5.112838E0,2.9799274E2,6.9088492E0,2.8454102E2,1.3451717E1,5.6282925E1,2.2825809E2,5.1664004E0,8.285316E0],"tree_param":{"num_deleted":"0","num_feature":"37","num_nodes":"11","size_leaf_vector":"1"}},{"base_weights":[-1.6180988E-3,-4.7391992E-2,2.169251E-1,5.9470907E-2,-2.0608942E-1,3.5241348E-1,-2.5661264E-2,1.4231074E-1,-3.8368833E-1,4.7429613E-4,-3.7611446E-1,1.5335107E-1,9.026804E-1,-1.0257821E-2,1.4645605E-2,-3.8245752E-2,1.9382833E-2,-1.1366202E-2,1.733878E-2,7.5357067E-3,-2.9460678E-2,2.003215E-2,-2.4261726E-2,2.030412E-2,6.0428817E-2],"categories":[],"categories_nodes":[],"categories_segments":[],"categories_sizes":[],"default_left":[0,1,0,0,0,0,0,0,0,0,0,0,0,0,0,0,0,0,0,0,0,0,0,0,0],"id":39,"left_children":[1,3,5,7,9,11,-1,13,15,17,19,21,23,-1,-1,-1,-1,-1,-1,-1,-1,-1,-1,-1,-1],"loss_changes":[3.0641756E0,4.3516474E0,5.4041824E0,5.6397147E0,3.6628995E0,4.726904E0,0E0,6.8533163E0,7.4339724E0,3.824908E0,6.5188046E0,5.659912E0,1.127738E0,0E0,0E0,0E0,0E0,0E0,0E0,0E0,0E0,0E0,0E0,0E0,0E0],"parents":[2147483647,0,0,1,1,2,2,3,3,4,4,5,5,7,7,8,8,9,9,10,10,11,11,12,12],"right_children":[2,4,6,8,10,12,-1,14,16,18,20,22,24,-1,-1,-1,-1,-1,-1,-1,-1,-1,-1,-1,-1],"split_conditions":[1.2683661E0,4.9036136E-4,1.608221E0,1.1122024E0,9.6994376E-1,1.5241833E-3,-2.5661264E-2,2.0404984E-1,1.0754582E0,9.728279E-1,-5.550535E-2,1.0838985E0,8.289963E-1,-1.0257821E-2,1.4645605E-2,-3.8245752E-2,1.9382833E-2,-1.1366202E-2,1.733878E-2,7.5357067E-3,-2.9460678E-2,2.003215E-2,-2.4261726E-2,2.030412E-2,6.0428817E-2],"split_indices":[14,16,14,15,34,16,0,21,34,15,3,34,21,0,0,0,0,0,0,0,0,0,0,0,0],"split_type":[0,0,0,0,0,0,0,0,0,0,0,0,0,0,0,0,0,0,0,0,0,0,0,0,0],"sum_hessian":[3.0597516E2,2.5401286E2,5.19623E1,1.5179381E2,1.02219055E2,4.4381134E1,7.5811653E0,1.2864981E2,2.3144007E1,4.6335293E1,5.5883762E1,3.366355E1,1.0717581E1,3.8589634E1,9.006017E1,1.5581194E1,7.562813E0,2.798286E1,1.8352432E1,1.604368E1,3.984008E1,2.4647879E1,9.015673E0,5.0971637E0,5.620417E0],"tree_param":{"num_deleted":"0","num_feature":"37","num_nodes":"25","size_leaf_vector":"1"}},{"base_weights":[-2.4928667E-3,9.437426E-2,-1.2531261E-1,9.589653E-3,5.945726E-1,-5.3189248E-2,-5.5842318E-2,-3.1252727E-1,8.341227E-2,-1.1575792E-2,9.077165E-1,-0E0,-4.786883E-2,-3.1026809E-2,2.6463654E-3,5.2504133E-2,4.9408816E-4,6.9663845E-2,2.4124566E-2,4.411284E-2,-3.0231162E-3],"categories":[],"categories_nodes":[],"categories_segments":[],"categories_sizes":[],"default_left":[0,0,0,0,0,0,0,0,0,0,0,0,0,0,0,0,0,0,0,0,0],"id":40,"left_children":[1,3,5,7,9,-1,11,13,15,-1,17,19,-1,-1,-1,-1,-1,-1,-1,-1,-1],"loss_changes":[3.731941E0,7.346304E0,8.867702E0,3.5852718E0,6.782383E0,0E0,6.566306E0,3.246392E0,8.668669E0,0E0,2.964939E0,6.6565485E0,0E0,0E0,0E0,0E0,0E0,0E0,0E0,0E0,0E0],"parents":[2147483647,0,0,1,1,2,2,3,3,4,4,6,6,7,7,8,8,10,10,11,11],"right_children":[2,4,6,8,10,-1,12,14,16,-1,18,20,-1,-1,-1,-1,-1,-1,-1,-1,-1],"split_conditions":[1.2687394E-2,1.155754E-2,5.944893E-1,2.2736418E-1,8E0,-5.3189248E-2,1.4413607E0,-3.0660817E-1,2.955975E-1,-1.1575792E-2,-2.791902E-3,-1.0224999E-2,-4.786883E-2,-3.1026809E-2,2.6463654E-3,5.2504133E-2,4.9408816E-4,6.9663845E-2,2.4124566E-2,4.411284E-2,-3.0231162E-3],"split_indices":[6,6,14,21,22,0,14,7,21,0,7,19,0,0,0,0,0,0,0,0,0],"split_type":[0,0,0,0,0,0,0,0,0,0,0,0,0,0,0,0,0,0,0,0,0],"sum_hessian":[3.1142828E2,1.7378366E2,1.3764464E2,1.496387E2,2.4144962E1,8.401172E0,1.2924345E2,2.704457E1,1.22594124E2,6.620665E0,1.7524298E1,1.22636345E2,6.6071153E0,1.4445447E1,1.2599123E1,7.631079E0,1.1496305E2,7.0090275E0,1.051527E1,7.0040603E0,1.15632286E2],"tree_param":{"num_deleted":"0","num_feature":"37","num_nodes":"21","size_leaf_vector":"1"}},{"base_weights":[-3.3927836E-2,-1.760479E-2,-3.511187E-2,-2.6788723E-3,-3.5988495E-2,1.2725306E-1,-8.761414E-2,-1.4664308E-3,2.5647188E-2,-6.791737E-3,2.7651682E-2],"categories":[],"categories_nodes":[],"categories_segments":[],"categories_sizes":[],"default_left":[1,0,0,0,0,0,0,0,0,0,0],"id":41,"left_children":[1,3,-1,5,-1,7,9,-1,-1,-1,-1],"loss_changes":[3.2926195E0,3.105109E0,0E0,3.2978673E0,0E0,7.1782837E0,5.636388E0,0E0,0E0,0E0,0E0],"parents":[2147483647,0,0,1,1,3,3,5,5,6,6],"right_children":[2,4,-1,6,-1,8,10,-1,-1,-1,-1],"split_conditions":[8.399194E1,1.2847785E0,-3.511187E-2,9.841595E-3,-3.5988495E-2,8.173995E-3,5.4E1,-1.4664308E-3,2.5647188E-2,-6.791737E-3,2.7651682E-2],"split_indices":[2,15,0,6,0,6,35,0,0,0,0],"split_type":[0,0,0,0,0,0,0,0,0,0,0],"sum_hessian":[3.0856216E2,3.0235333E2,6.2088184E0,2.9718237E2,5.1709714E0,1.1681144E2,1.8037094E2,8.355477E1,3.3256664E1,1.68623E2,1.1747935E1],"tree_param":{"num_deleted":"0","num_feature":"37","num_nodes":"11","size_leaf_vector":"1"}},{"base_weights":[2.3597976E-2,7.646779E-2,-2.4381396E-1,-1.7126027E-1,1.680812E-1,-6.019493E-1,5.0522856E-2,1.9763012E-1,-4.0911093E-1,3.6031935E-1,2.5124019E-2,-9.3431014E-1,6.373433E-3,-4.2733744E-1,3.4074432E-1,3.7019208E-2,-1.1132086E-2,2.0013422E-2,-3.0866427E-2,5.5605114E-2,1.2407003E-2,-2.4857009E-2,8.218978E-3,-2.703538E-2,-7.149375E-2,-3.1914786E-2,-6.4389124E-3,4.4268798E-2,-1.0723612E-2],"categories":[],"categories_nodes":[],"categories_segments":[],"categories_sizes":[],"default_left":[0,0,1,0,0,0,0,0,0,0,0,0,0,0,0,0,0,0,0,0,0,0,0,0,0,0,0,0,0],"id":42,"left_children":[1,3,5,7,9,11,13,15,17,19,21,23,-1,25,27,-1,-1,-1,-1,-1,-1,-1,-1,-1,-1,-1,-1,-1,-1],"loss_changes":[4.389602E0,5.93355E0,5.478074E0,6.282936E0,5.1944327E0,5.8503056E0,4.1378207E0,6.6320457E0,7.569456E0,6.4172144E0,8.1043825E0,2.194809E0,0E0,5.4738617E-1,5.8918695E0,0E0,0E0,0E0,0E0,0E0,0E0,0E0,0E0,0E0,0E0,0E0,0E0,0E0,0E0],"parents":[2147483647,0,0,1,1,2,2,3,3,4,4,5,5,6,6,7,7,8,8,9,9,10,10,11,11,13,13,14,14],"right_children":[2,4,6,8,10,12,14,16,18,20,22,24,-1,26,28,-1,-1,-1,-1,-1,-1,-1,-1,-1,-1,-1,-1,-1,-1],"split_conditions":[8.969746E-1,2.5842696E-1,2.725568E0,1.0852713E-1,9.841595E-3,3.6129646E1,6.6677546E-3,1.8205555E1,1.8857056E-3,-6.520539E-1,1.155754E-2,2.124079E0,6.373433E-3,5.1730543E-2,7.2307694E-1,3.7019208E-2,-1.1132086E-2,2.0013422E-2,-3.0866427E-2,5.5605114E-2,1.2407003E-2,-2.4857009E-2,8.218978E-3,-2.703538E-2,-7.149375E-2,-3.1914786E-2,-6.4389124E-3,4.4268798E-2,-1.0723612E-2],"split_indices":[26,21,30,21,6,11,18,11,20,7,6,28,0,3,32,0,0,0,0,0,0,0,0,0,0,0,0,0,0],"split_type":[0,0,0,0,0,0,0,0,0,0,0,0,0,0,0,0,0,0,0,0,0,0,0,0,0,0,0,0,0],"sum_hessian":[3.0934708E2,2.5919067E2,5.0156395E1,6.944537E1,1.8974532E2,2.2307865E1,2.7848528E1,2.7124996E1,4.2320374E1,7.9977516E1,1.0976779E2,1.5226208E1,7.0816574E0,1.0213919E1,1.763461E1,1.1608992E1,1.5516005E1,8.372465E0,3.394791E1,9.111391E0,7.086613E1,2.2414885E1,8.7352905E1,9.764016E0,5.4621916E0,5.121949E0,5.0919695E0,8.692899E0,8.941711E0],"tree_param":{"num_deleted":"0","num_feature":"37","num_nodes":"29","size_leaf_vector":"1"}},{"base_weights":[-1.8924274E-2,5.457317E-1,-4.4516843E-2,-5.7361606E-3,5.026878E-2,3.9880406E-2,-1.7334056E-1,9.472727E-4,4.5582518E-2,-2.3948374E-1,3.4576304E-2,6.1008404E-3,-1.0705404E-2,-4.4310655E-2,-7.882244E-3],"categories":[],"categories_nodes":[],"categories_segments":[],"categories_sizes":[],"default_left":[0,0,1,0,0,0,1,0,0,0,0,0,0,0,0],"id":43,"left_children":[1,3,5,-1,-1,7,9,11,-1,13,-1,-1,-1,-1,-1],"loss_changes":[4.416871E0,4.2224917E0,3.2297382E0,0E0,0E0,5.9729266E0,6.842036E0,4.4995627E0,0E0,5.5781074E0,0E0,0E0,0E0,0E0,0E0],"parents":[2147483647,0,0,1,1,2,2,5,5,6,6,7,7,9,9],"right_children":[2,4,6,-1,-1,8,10,12,-1,14,-1,-1,-1,-1,-1],"split_conditions":[1.4395018E1,2.5336759E-3,4.9036136E-4,-5.7361606E-3,5.026878E-2,4.039912E-4,3.5239033E1,1.1012697E0,4.5582518E-2,7.0041034E-4,3.4576304E-2,6.1008404E-3,-1.0705404E-2,-4.4310655E-2,-7.882244E-3],"split_indices":[10,1,16,0,0,16,12,14,0,16,0,0,0,0,0],"split_type":[0,0,0,0,0,0,0,0,0,0,0,0,0,0,0],"sum_hessian":[3.0643192E2,1.2235931E1,2.9419598E2,5.239799E0,6.996133E0,1.776953E2,1.1650069E2,1.7116681E2,6.528492E0,1.0900308E2,7.4976053E0,1.1008818E2,6.1078625E1,1.1002833E1,9.800025E1],"tree_param":{"num_deleted":"0","num_feature":"37","num_nodes":"15","size_leaf_vector":"1"}},{"base_weights":[-9.294038E-3,1.701977E-1,-9.4117366E-2,3.525693E-2,7.752709E-1,-5.7084864E-1,-5.49416E-2,4.7629794E-1,-9.613661E-2,6.150688E-2,1.003769E-2,8.834335E-3,-6.599441E-2,-1.01711685E-2,-5.656444E-1,-6.4995857E-3,3.890958E-2,-4.9069453E-2,9.196618E-4,3.752339E-2,-2.1267005E-3,-0E0,-5.2045047E-2],"categories":[],"categories_nodes":[],"categories_segments":[],"categories_sizes":[],"default_left":[0,0,1,1,0,0,0,0,0,0,0,0,0,0,0,0,0,0,0,0,0,0,0],"id":44,"left_children":[1,3,5,7,9,11,13,15,17,-1,-1,-1,-1,19,21,-1,-1,-1,-1,-1,-1,-1,-1],"loss_changes":[4.6343355E0,7.851083E0,3.7786238E0,4.771413E0,4.207593E0,8.995742E0,4.3473577E0,3.6271396E0,6.499835E0,0E0,0E0,0E0,0E0,4.3565636E0,4.056172E0,0E0,0E0,0E0,0E0,0E0,0E0,0E0,0E0],"parents":[2147483647,0,0,1,1,2,2,3,3,4,4,5,5,6,6,7,7,8,8,13,13,14,14],"right_children":[2,4,6,8,10,12,14,16,18,-1,-1,-1,-1,20,22,-1,-1,-1,-1,-1,-1,-1,-1],"split_conditions":[8.929071E-3,8.2650725E-3,1.051709E0,-1.7339049E-3,9.796389E-1,5.359695E-1,1.419831E0,-6.79322E-1,2.7595678E-1,6.150688E-2,1.003769E-2,8.834335E-3,-6.599441E-2,-2.151336E0,6.666667E-1,-6.4995857E-3,3.890958E-2,-4.9069453E-2,9.196618E-4,3.752339E-2,-2.1267005E-3,-0E0,-5.2045047E-2],"split_indices":[6,6,31,17,14,31,14,28,30,0,0,0,0,7,32,0,0,0,0,0,0,0,0],"split_type":[0,0,0,0,0,0,0,0,0,0,0,0,0,0,0,0,0,0,0,0,0,0,0],"sum_hessian":[3.028357E2,9.648393E1,2.0635175E2,7.989062E1,1.6593317E1,1.4445075E1,1.9190668E2,1.7909832E1,6.1980785E1,8.526969E0,8.066348E0,7.545419E0,6.8996553E0,1.7755698E2,1.4349693E1,6.032666E0,1.1877166E1,6.3331695E0,5.5647617E1,6.2145424E0,1.7134244E2,7.0732107E0,7.2764826E0],"tree_param":{"num_deleted":"0","num_feature":"37","num_nodes":"23","size_leaf_vector":"1"}},{"base_weights":[-2.4956664E-2,-2.496637E-1,3.2705974E-2,3.0636493E-2,-3.3974236E-1,-4.9391732E-1,6.6692404E-2,1.7684422E-2,-4.9293318E-1,-4.804532E-2,1.3463338E-2,1.0672858E-2,4.4566357E-1,2.0694572E-2,-3.236199E-2,3.8711948E-3,-3.0073998E-2,3.3821736E-2,-2.439208E-2],"categories":[],"categories_nodes":[],"categories_segments":[],"categories_sizes":[],"default_left":[0,0,0,0,0,0,0,0,1,0,0,0,1,0,0,0,0,0,0],"id":45,"left_children":[1,3,5,-1,7,9,11,-1,13,-1,-1,15,17,-1,-1,-1,-1,-1,-1],"loss_changes":[3.9562495E0,5.0245113E0,4.3157525E0,0E0,6.2647514E0,5.528467E0,4.791794E0,0E0,6.9221907E0,0E0,0E0,8.165114E0,6.621852E0,0E0,0E0,0E0,0E0,0E0,0E0],"parents":[2147483647,0,0,1,1,2,2,4,4,5,5,6,6,8,8,11,11,12,12],"right_children":[2,4,6,-1,8,10,12,-1,14,-1,-1,16,18,-1,-1,-1,-1,-1,-1],"split_conditions":[2.2736418E-1,2.8571429E-2,5.393474E0,3.0636493E-2,1.7406741E-3,2.285273E1,6.6959653E-3,1.7684422E-2,1E0,-4.804532E-2,1.3463338E-2,9.1581196E-1,1.7880953E1,2.0694572E-2,-3.236199E-2,3.8711948E-3,-3.0073998E-2,3.3821736E-2,-2.439208E-2],"split_indices":[21,21,12,0,20,31,19,0,36,0,0,26,31,0,0,0,0,0,0],"split_type":[0,0,0,0,0,0,0,0,0,0,0,0,0,0,0,0,0,0,0],"sum_hessian":[3.020275E2,6.1351143E1,2.4067636E2,5.1484723E0,5.620267E1,1.3591987E1,2.2708438E2,9.814581E0,4.638809E1,8.352861E0,5.2391253E0,1.9896533E2,2.8119038E1,6.4067516E0,3.998134E1,1.8033765E2,1.8627693E1,2.2852253E1,5.2667847E0],"tree_param":{"num_deleted":"0","num_feature":"37","num_nodes":"19","size_leaf_vector":"1"}},{"base_weights":[-0E0,1.6110841E-2,-3.3952825E-2,-2.8464593E-2,4.18295E-1,-6.798765E-2,4.4612378E-1,8.539162E-1,1.1764689E-1,2.2900905E-2,-4.705118E-3,4.452848E-2,-1.614791E-2,5.8716185E-2,1.7620528E-2,-1.9845018E-2,3.3368323E-2],"categories":[],"categories_nodes":[],"categories_segments":[],"categories_sizes":[],"default_left":[0,0,0,0,0,0,0,0,0,0,0,0,0,0,0,0,0],"id":46,"left_children":[1,3,-1,5,7,9,11,13,15,-1,-1,-1,-1,-1,-1,-1,-1],"loss_changes":[3.3673363E0,5.46557E0,0E0,5.1058903E0,3.7868094E0,3.47811E0,7.4865823E0,1.3821564E0,5.749794E0,0E0,0E0,0E0,0E0,0E0,0E0,0E0,0E0],"parents":[2147483647,0,0,1,1,3,3,4,4,5,5,6,6,7,7,8,8],"right_children":[2,4,-1,6,8,10,12,14,16,-1,-1,-1,-1,-1,-1,-1,-1],"split_conditions":[8.577561E1,2.4189496E-1,-3.3952825E-2,5.699985E-3,1.4427974E-2,1.4395018E1,1.7948367E-2,3.3208885E1,3.5526112E-1,2.2900905E-2,-4.705118E-3,4.452848E-2,-1.614791E-2,5.8716185E-2,1.7620528E-2,-1.9845018E-2,3.3368323E-2],"split_indices":[2,4,0,20,27,10,4,11,4,0,0,0,0,0,0,0,0],"split_type":[0,0,0,0,0,0,0,0,0,0,0,0,0,0,0,0,0],"sum_hessian":[3.0716406E2,3.0103152E2,6.132541E0,2.716088E2,2.9422739E1,2.5171385E2,1.9894926E1,1.1127209E1,1.829553E1,1.0942414E1,2.4077144E2,1.2590846E1,7.3040805E0,5.8492074E0,5.278002E0,9.499714E0,8.795816E0],"tree_param":{"num_deleted":"0","num_feature":"37","num_nodes":"17","size_leaf_vector":"1"}},{"base_weights":[2.2215806E-2,-2.9391449E-2,1.8472096E-1,2.0130062E-2,-4.599093E-1,5.384028E-1,5.3711165E-2,1.919064E-1,-9.20757E-2,9.415614E-3,-7.2062945E-1,7.924738E-1,-5.1718177E-3,1.8649507E-1,-2.6667152E-2,1.6987476E-2,-9.473785E-3,8.386412E-3,-1.3705625E-2,-5.0384022E-2,-8.715036E-3,2.2240972E-2,5.318283E-2,-2.3246494E-3,2.957274E-2],"categories":[],"categories_nodes":[],"categories_segments":[],"categories_sizes":[],"default_left":[1,1,0,0,0,0,0,1,1,0,0,0,0,0,0,0,0,0,0,0,0,0,0,0,0],"id":47,"left_children":[1,3,5,7,9,11,13,15,17,-1,19,21,-1,23,-1,-1,-1,-1,-1,-1,-1,-1,-1,-1,-1],"loss_changes":[2.6700308E0,5.172905E0,3.4676461E0,4.193074E0,4.417929E0,3.4816546E0,4.5324974E0,4.9322023E0,6.2543287E0,0E0,2.5544977E0,7.769728E-1,0E0,4.575133E0,0E0,0E0,0E0,0E0,0E0,0E0,0E0,0E0,0E0,0E0,0E0],"parents":[2147483647,0,0,1,1,2,2,3,3,4,4,5,5,6,6,7,7,8,8,10,10,11,11,13,13],"right_children":[2,4,6,8,10,12,14,16,18,-1,20,22,-1,24,-1,-1,-1,-1,-1,-1,-1,-1,-1,-1,-1],"split_conditions":[4.3057675E0,3.761272E0,2.2E1,2.4035E-3,3.583647E1,1.2121758E0,4.7025853E-1,2.4580504E-3,1.8140646E1,9.415614E-3,6.6E-1,8.5883987E-1,-5.1718177E-3,1.0350174E0,-2.6667152E-2,1.6987476E-2,-9.473785E-3,8.386412E-3,-1.3705625E-2,-5.0384022E-2,-8.715036E-3,2.2240972E-2,5.318283E-2,-2.3246494E-3,2.957274E-2],"split_indices":[30,30,36,20,10,14,0,17,11,0,32,14,0,15,0,0,0,0,0,0,0,0,0,0,0],"split_type":[0,0,0,0,0,0,0,0,0,0,0,0,0,0,0,0,0,0,0,0,0,0,0,0,0],"sum_hessian":[3.1487503E2,2.3913573E2,7.573929E1,2.1511276E2,2.4022978E1,1.9425125E1,5.6314167E1,8.506589E1,1.3004686E2,6.860377E0,1.7162601E1,1.385984E1,5.5652847E0,4.662163E1,9.692535E0,6.1569706E1,2.3496185E1,5.33849E1,7.6661964E1,1.05774975E1,6.585104E0,7.392174E0,6.467666E0,2.999987E1,1.6621763E1],"tree_param":{"num_deleted":"0","num_feature":"37","num_nodes":"25","size_leaf_vector":"1"}},{"base_weights":[1.1367945E-2,4.9344507E-1,-1.47424005E-2,-1.9989496E-2,4.8115425E-2,7.0027985E-2,-1.4856857E-1,2.516786E-2,6.3812636E-2,-4.6333572E-1,8.066947E-2,-6.171338E-3,1.4651142E-2,-5.363359E-2,-1.4550342E-2,1.06590325E-2,-1.9392626E-2],"categories":[],"categories_nodes":[],"categories_segments":[],"categories_sizes":[],"default_left":[0,0,1,0,0,0,0,0,0,0,0,0,0,0,0,0,0],"id":48,"left_children":[1,3,5,-1,-1,7,9,11,-1,13,15,-1,-1,-1,-1,-1,-1],"loss_changes":[3.9995837E0,7.278591E0,3.3994007E0,0E0,0E0,9.723113E0,8.47156E0,7.107408E0,0E0,4.734969E0,4.286533E0,0E0,0E0,0E0,0E0,0E0,0E0],"parents":[2147483647,0,0,1,1,2,2,5,5,6,6,7,7,9,9,10,10],"right_children":[2,4,6,-1,-1,8,10,12,-1,14,16,-1,-1,-1,-1,-1,-1],"split_conditions":[4E-2,4.323981E-4,4.9036136E-4,-1.9989496E-2,4.8115425E-2,4.1450656E-4,9.733869E-1,2.6451012E-2,6.3812636E-2,7.3581547E-1,2.6651037E0,-6.171338E-3,1.4651142E-2,-5.363359E-2,-1.4550342E-2,1.06590325E-2,-1.9392626E-2],"split_indices":[32,18,16,0,0,16,15,3,0,14,8,0,0,0,0,0,0],"split_type":[0,0,0,0,0,0,0,0,0,0,0,0,0,0,0,0,0],"sum_hessian":[3.1236905E2,1.5326488E1,2.9704254E2,5.253E0,1.0073487E1,1.816857E2,1.1535686E2,1.7623518E2,5.4505095E0,4.8363663E1,6.69932E1,1.1345887E2,6.2776314E1,9.382682E0,3.898098E1,5.281427E1,1.4178929E1],"tree_param":{"num_deleted":"0","num_feature":"37","num_nodes":"17","size_leaf_vector":"1"}},{"base_weights":[1.3844167E-2,-9.01639E-3,4.70794E-1,-4.1751653E-2,4.0760195E-1,1.2705702E-3,5.4169655E-2,1.0596034E-1,-1.7290534E-1,8.175003E-1,-1.1318576E-2,9.355403E-3,-1.3325288E-2,1.0908025E-2,-1.2607505E-2,7.0223264E-2,-4.8758066E-3],"categories":[],"categories_nodes":[],"categories_segments":[],"categories_sizes":[],"default_left":[0,0,0,1,0,0,0,0,0,0,0,0,0,0,0,0,0],"id":49,"left_children":[1,3,5,7,9,-1,-1,11,13,15,-1,-1,-1,-1,-1,-1,-1],"loss_changes":[3.2706902E0,3.9949322E0,3.9309871E0,5.3340735E0,5.7830105E0,0E0,0E0,3.945385E0,4.579739E0,7.3880033E0,0E0,0E0,0E0,0E0,0E0,0E0,0E0],"parents":[2147483647,0,0,1,1,2,2,3,3,4,4,7,7,8,8,9,9],"right_children":[2,4,6,8,10,-1,-1,12,14,16,-1,-1,-1,-1,-1,-1,-1],"split_conditions":[2.5443587E-2,5.699985E-3,1.0576745E0,1.1989588E-2,1.8519528E-2,1.2705702E-3,5.4169655E-2,2E1,8.9762753E-1,1.2213664E0,-1.1318576E-2,9.355403E-3,-1.3325288E-2,1.0908025E-2,-1.2607505E-2,7.0223264E-2,-4.8758066E-3],"split_indices":[6,20,34,27,3,0,0,22,34,14,0,0,0,0,0,0,0],"split_type":[0,0,0,0,0,0,0,0,0,0,0,0,0,0,0,0,0],"sum_hessian":[3.0727377E2,2.933589E2,1.39149065E1,2.7304456E2,2.0314322E1,8.75466E0,5.1602464E0,1.2814769E2,1.4489687E2,1.2257458E1,8.056865E0,1.0585222E2,2.2295475E1,2.3906326E1,1.2099054E2,7.2080293E0,5.049428E0],"tree_param":{"num_deleted":"0","num_feature":"37","num_nodes":"17","size_leaf_vector":"1"}},{"base_weights":[-3.7009355E-2,5.4062694E-2,-1.850775E-1,4.1904966E-3,6.3480574E-1,-2.4929124E-1,3.8483813E-1,1.2636627E-1,-1.9476254E-1,9.235956E-3,5.086437E-2,-4.7260884E-2,-1.8239264E-1,4.6037816E-2,-9.471151E-3,-9.546602E-3,1.4461202E-2,-5.4917403E-2,-2.8518545E-3,3.9360914E-2,-1.2746845E-2],"categories":[],"categories_nodes":[],"categories_segments":[],"categories_sizes":[],"default_left":[0,0,0,1,0,0,0,0,0,0,0,0,0,0,0,0,0,0,0,0,0],"id":50,"left_children":[1,3,5,7,9,11,13,15,17,-1,-1,-1,19,-1,-1,-1,-1,-1,-1,-1,-1],"loss_changes":[4.1843524E0,5.477604E0,4.4067416E0,4.331074E0,2.2695642E0,4.6946387E0,4.0024877E0,5.793443E0,8.233664E0,0E0,0E0,0E0,7.1077356E0,0E0,0E0,0E0,0E0,0E0,0E0,0E0,0E0],"parents":[2147483647,0,0,1,1,2,2,3,3,4,4,5,5,6,6,7,7,8,8,12,12],"right_children":[2,4,6,8,10,12,14,16,18,-1,-1,-1,20,-1,-1,-1,-1,-1,-1,-1,-1],"split_conditions":[1.0067407E0,9.9783254E-1,2.420192E-2,4.9036136E-4,2.7951878E-3,-2.4424957E1,6.960508E1,2.5438598E-1,1.4945543E-3,9.235956E-3,5.086437E-2,-4.7260884E-2,-8.806498E-3,4.6037816E-2,-9.471151E-3,-9.546602E-3,1.4461202E-2,-5.4917403E-2,-2.8518545E-3,3.9360914E-2,-1.2746845E-2],"split_indices":[34,34,6,16,20,13,2,21,20,0,0,0,18,0,0,0,0,0,0,0,0],"split_type":[0,0,0,0,0,0,0,0,0,0,0,0,0,0,0,0,0,0,0,0,0],"sum_hessian":[3.075862E2,1.9042273E2,1.171635E2,1.7644928E2,1.3973443E1,1.059625E2,1.1200997E1,1.09855316E2,6.659396E1,7.2207727E0,6.7526703E0,8.010257E0,9.795225E1,5.571895E0,5.629102E0,3.6993633E1,7.286169E1,7.7892785E0,5.8804688E1,6.036721E0,9.191553E1],"tree_param":{"num_deleted":"0","num_feature":"37","num_nodes":"21","size_leaf_vector":"1"}},{"base_weights":[4.0625617E-2,5.0191486E-1,2.1102544E-2,4.5976136E-2,2.4916857E-4,-1.6569768E-1,7.272578E-2,2.2628896E-2,-4.8896906E-1,3.135162E-1,-4.5816027E-2,3.9017312E-2,-6.4166747E-3,-4.3416735E-2,-5.619301E-3,1.0151035E-2,4.0820584E-2,2.768275E-2,-4.994053E-3],"categories":[],"categories_nodes":[],"categories_segments":[],"categories_sizes":[],"default_left":[0,0,0,0,0,1,0,1,0,0,0,0,0,0,0,0,0,0,0],"id":51,"left_children":[1,3,5,-1,-1,7,9,11,13,15,17,-1,-1,-1,-1,-1,-1,-1,-1],"loss_changes":[2.7312462E0,2.4650521E0,2.8852553E0,0E0,0E0,3.9909697E0,6.7577085E0,4.922019E0,3.236216E0,4.0684066E0,5.1396956E0,0E0,0E0,0E0,0E0,0E0,0E0,0E0,0E0],"parents":[2147483647,0,0,1,1,2,2,5,5,6,6,7,7,8,8,9,9,10,10],"right_children":[2,4,6,-1,-1,8,10,12,14,16,18,-1,-1,-1,-1,-1,-1,-1,-1],"split_conditions":[1.4395018E1,6.3197213E-1,2.5438598E-1,4.5976136E-2,2.4916857E-4,1.5514064E-2,5.359116E-1,-1.3740466E0,6.666667E-1,5.5081295E1,-8.621389E-3,3.9017312E-2,-6.4166747E-3,-4.3416735E-2,-5.619301E-3,1.0151035E-2,4.0820584E-2,2.768275E-2,-4.994053E-3],"split_indices":[10,5,21,0,0,27,21,28,32,10,18,0,0,0,0,0,0,0,0],"split_type":[0,0,0,0,0,0,0,0,0,0,0,0,0,0,0,0,0,0,0],"sum_hessian":[3.092606E2,1.1346058E1,2.9791452E2,5.59366E0,5.7523975E0,6.3606316E1,2.343082E2,4.0584103E1,2.3022213E1,7.703274E1,1.5727547E2,6.1598043E0,3.4424297E1,1.0685943E1,1.2336271E1,6.4470024E1,1.2562712E1,1.2093461E1,1.45182E2],"tree_param":{"num_deleted":"0","num_feature":"37","num_nodes":"19","size_leaf_vector":"1"}},{"base_weights":[-3.4982722E-2,-5.6574073E-2,4.4745743E-1,-3.3769226E-1,-1.9321056E-2,4.6616722E-2,-5.9082443E-3,3.057337E-1,-7.6281863E-1,-5.2528374E-2,3.220454E-1,-8.838788E-3,4.810652E-2,-5.1317662E-2,-6.407767E-3,1.6389554E-3,-1.3263809E-2,-6.706752E-3,3.5910543E-2],"categories":[],"categories_nodes":[],"categories_segments":[],"categories_sizes":[],"default_left":[0,0,1,0,0,0,0,0,0,1,0,0,0,0,0,0,0,0,0],"id":52,"left_children":[1,3,5,7,9,-1,-1,11,13,15,17,-1,-1,-1,-1,-1,-1,-1,-1],"loss_changes":[3.1753695E0,3.0380788E0,3.7648792E0,9.590698E0,2.9496522E0,0E0,0E0,4.7346096E0,3.2449875E0,4.370834E0,4.314967E0,0E0,0E0,0E0,0E0,0E0,0E0,0E0,0E0],"parents":[2147483647,0,0,1,1,2,2,3,3,4,4,7,7,8,8,9,9,10,10],"right_children":[2,4,6,8,10,-1,-1,12,14,16,18,-1,-1,-1,-1,-1,-1,-1,-1],"split_conditions":[4.1821297E1,9.305605E0,3.9400845E1,3.8681793E-1,2.7543256E0,4.6616722E-2,-5.9082443E-3,1.8260847E-1,5.2399546E-1,1.1010299E1,2.8248932E1,-8.838788E-3,4.810652E-2,-5.1317662E-2,-6.407767E-3,1.6389554E-3,-1.3263809E-2,-6.706752E-3,3.5910543E-2],"split_indices":[11,12,13,0,8,0,0,4,0,31,11,0,0,0,0,0,0,0,0],"split_type":[0,0,0,0,0,0,0,0,0,0,0,0,0,0,0,0,0,0,0],"sum_hessian":[3.0516165E2,2.9313266E2,1.2028982E1,3.3042046E1,2.600906E2,6.2228966E0,5.8060856E0,1.3164014E1,1.9878033E1,2.3807072E2,2.2019892E1,7.9202633E0,5.243751E0,1.3498326E1,6.379707E0,1.7019994E2,6.787079E1,1.0424819E1,1.1595073E1],"tree_param":{"num_deleted":"0","num_feature":"37","num_nodes":"19","size_leaf_vector":"1"}},{"base_weights":[3.8513378E-3,8.493407E-2,-1.16971895E-1,4.926411E-2,4.9756944E-2,-4.1221365E-1,1.0422959E-1,-4.8525203E-2,3.63974E-1,-2.335721E-1,-8.372126E-1,5.0842583E-1,-8.062805E-2,2.4203055E-4,-3.0727783E-2,-2.225498E-2,2.898551E-2,-2.2358121E-2,1.2486967E-2,-5.7942834E-2,-1.6640158E-2,5.2546617E-2,3.6049678E-3,-1.4666475E-2,2.4447702E-2],"categories":[],"categories_nodes":[],"categories_segments":[],"categories_sizes":[],"default_left":[1,0,0,0,0,0,0,0,0,0,0,0,0,0,0,0,0,0,0,0,0,0,0,0,0],"id":53,"left_children":[1,3,5,7,-1,9,11,13,15,17,19,21,23,-1,-1,-1,-1,-1,-1,-1,-1,-1,-1,-1,-1],"loss_changes":[3.0355358E0,5.8881183E0,8.177334E0,5.5956593E0,0E0,3.7624216E0,5.429183E0,4.236677E0,7.7918305E0,4.1831627E0,1.9462509E0,5.198861E0,6.155102E0,0E0,0E0,0E0,0E0,0E0,0E0,0E0,0E0,0E0,0E0,0E0,0E0],"parents":[2147483647,0,0,1,1,2,2,3,3,5,5,6,6,7,7,8,8,9,9,10,10,11,11,12,12],"right_children":[2,4,6,8,-1,10,12,14,16,18,20,22,24,-1,-1,-1,-1,-1,-1,-1,-1,-1,-1,-1,-1],"split_conditions":[4.9036136E-4,4.1450656E-4,9.728279E-1,7.783626E-1,4.9756944E-2,9.4317085E-1,9.6994376E-1,1.1346158E0,1.3498683E-3,1.9484876E-3,2.2432997E1,3.2325857E0,1.3033072E0,2.4203055E-4,-3.0727783E-2,-2.225498E-2,2.898551E-2,-2.2358121E-2,1.2486967E-2,-5.7942834E-2,-1.6640158E-2,5.2546617E-2,3.6049678E-3,-1.4666475E-2,2.4447702E-2],"split_indices":[16,16,15,26,0,15,34,34,20,16,11,30,14,0,0,0,0,0,0,0,0,0,0,0,0],"split_type":[0,0,0,0,0,0,0,0,0,0,0,0,0,0,0,0,0,0,0,0,0,0,0,0,0],"sum_hessian":[3.081665E2,1.85084E2,1.2308251E2,1.7922437E2,5.859623E0,5.2542118E1,7.054039E1,1.3713933E2,4.2085037E1,3.8249447E1,1.429267E1,2.1757538E1,4.8782852E1,1.2606829E2,1.1071042E1,8.5380745E0,3.3546963E1,2.6721909E1,1.152754E1,7.814156E0,6.478514E0,8.968623E0,1.2788915E1,3.599985E1,1.2783001E1],"tree_param":{"num_deleted":"0","num_feature":"37","num_nodes":"25","size_leaf_vector":"1"}},{"base_weights":[-1.1222668E-2,-4.146962E-1,2.7055329E-2,7.0079467E-3,-6.8104255E-1,4.4413558E-1,-6.9612674E-3,-2.5463274E-1,-6.219042E-2,-1.5671795E-2,9.285934E-1,2.614179E-1,-6.593829E-2,6.2446627E-3,-3.104635E-2,1.5217766E-2,6.4264596E-2,4.0262412E-2,-2.6092762E-3,-2.777556E-2,-1.6268177E-3],"categories":[],"categories_nodes":[],"categories_segments":[],"categories_sizes":[],"default_left":[0,0,0,0,0,1,0,0,0,0,0,0,0,0,0,0,0,0,0,0,0],"id":54,"left_children":[1,3,5,-1,7,9,11,13,-1,-1,15,17,19,-1,-1,-1,-1,-1,-1,-1,-1],"loss_changes":[4.8254094E0,4.1515937E0,4.063694E0,0E0,3.9943933E0,8.275326E0,4.153198E0,1.7862859E0,0E0,0E0,2.4558067E0,8.166342E0,3.4609084E0,0E0,0E0,0E0,0E0,0E0,0E0,0E0,0E0],"parents":[2147483647,0,0,1,1,2,2,4,4,5,5,6,6,7,7,10,10,11,11,12,12],"right_children":[2,4,6,-1,8,10,12,14,-1,-1,16,18,20,-1,-1,-1,-1,-1,-1,-1,-1],"split_conditions":[-2.85796E-1,2.5711935E-3,1.3641171E-1,7.0079467E-3,5E0,-2.3106323E1,3.83194E-1,-8.297941E-3,-6.219042E-2,-1.5671795E-2,3.68891E-3,3.3E1,2.309165E-3,6.2446627E-3,-3.104635E-2,1.5217766E-2,6.4264596E-2,4.0262412E-2,-2.6092762E-3,-2.777556E-2,-1.6268177E-3],"split_indices":[4,1,5,0,36,13,0,19,0,0,20,36,1,0,0,0,0,0,0,0,0],"split_type":[0,0,0,0,0,0,0,0,0,0,0,0,0,0,0,0,0,0,0,0,0],"sum_hessian":[3.0820593E2,2.6080471E1,2.821255E2,8.490762E0,1.758971E1,2.058722E1,2.6153827E2,1.0934647E1,6.6550627E0,8.087298E0,1.2499921E1,4.6195263E1,2.1534299E2,5.559918E0,5.374729E0,5.3211975E0,7.178723E0,1.6438993E1,2.975627E1,1.2564204E1,2.027788E2],"tree_param":{"num_deleted":"0","num_feature":"37","num_nodes":"21","size_leaf_vector":"1"}},{"base_weights":[2.099364E-2,-1.5495128E-2,3.7965894E-1,-3.816944E-2,6.9667553E-3,9.832302E-1,-2.152289E-1,2.900342E-2,-1.2297224E-2,6.1435677E-2,2.2243602E-2,-2.7886389E-2,1.895776E-2,-1.9986466E-2,1.9727766E-3],"categories":[],"categories_nodes":[],"categories_segments":[],"categories_sizes":[],"default_left":[0,0,1,0,0,1,0,0,0,0,0,0,0,0,0],"id":55,"left_children":[1,3,5,-1,7,9,11,-1,13,-1,-1,-1,-1,-1,-1],"loss_changes":[4.076607E0,4.793191E0,1.0613976E1,0E0,3.0799563E0,1.2072763E0,3.327719E0,0E0,5.3675027E0,0E0,0E0,0E0,0E0,0E0,0E0],"parents":[2147483647,0,0,1,1,2,2,4,4,5,5,6,6,8,8],"right_children":[2,4,6,-1,8,10,12,-1,14,-1,-1,-1,-1,-1,-1],"split_conditions":[6.111823E1,-1.3689536E-2,-1.9312836E-4,-3.816944E-2,1.1049231E-2,3.288057E1,1.1553583E0,2.900342E-2,-4.102795E-3,6.1435677E-2,2.2243602E-2,-2.7886389E-2,1.895776E-2,-1.9986466E-2,1.9727766E-3],"split_indices":[10,18,19,0,5,12,14,0,17,0,0,0,0,0,0],"split_type":[0,0,0,0,0,0,0,0,0,0,0,0,0,0,0],"sum_hessian":[3.0726236E2,2.7950494E2,2.7757414E1,7.317765E0,2.721872E2,1.3537555E1,1.4219859E1,8.073736E0,2.6411343E2,8.289556E0,5.247999E0,9.167329E0,5.0525303E0,3.0558025E1,2.3355542E2],"tree_param":{"num_deleted":"0","num_feature":"37","num_nodes":"15","size_leaf_vector":"1"}},{"base_weights":[7.732046E-3,7.25633E-2,-1.258934E-1,2.7434304E-1,-5.5674918E-2,5.111048E-1,-2.3252283E-1,3.5826588E-1,-2.202631E-2,-7.2299564E-1,1.5051866E-2,4.6723824E-2,-8.970297E-3,-4.7530685E-2,-1.4162727E-1,1.0600086E-2,3.8584366E-2,-6.0163062E-2,-4.6978197E-3,1.18928235E-2,-8.0377E-3,-2.7884785E-2,-2.5559842E-4],"categories":[],"categories_nodes":[],"categories_segments":[],"categories_sizes":[],"default_left":[1,0,0,0,0,0,0,1,0,0,1,0,0,0,0,0,0,0,0,0,0,0,0],"id":56,"left_children":[1,3,5,7,9,11,13,15,-1,17,19,-1,-1,-1,21,-1,-1,-1,-1,-1,-1,-1,-1],"loss_changes":[2.7017603E0,5.492598E0,6.991874E0,5.092889E0,6.1906857E0,4.5542164E0,5.4903855E0,4.2379055E0,0E0,3.5515532E0,4.6631737E0,0E0,0E0,0E0,4.443965E0,0E0,0E0,0E0,0E0,0E0,0E0,0E0,0E0],"parents":[2147483647,0,0,1,1,2,2,3,3,4,4,5,5,6,6,7,7,9,9,10,10,14,14],"right_children":[2,4,6,8,10,12,14,16,-1,18,20,-1,-1,-1,22,-1,-1,-1,-1,-1,-1,-1,-1],"split_conditions":[3.761272E0,2.4035E-3,8E-2,4.7903266E-3,2.5992657E-3,-3.236722E-1,4.0043645E0,6.61373E1,-2.202631E-2,5.7831323E-1,-3.5478128E-4,4.6723824E-2,-8.970297E-3,-4.7530685E-2,9.4062567E-1,1.0600086E-2,3.8584366E-2,-6.0163062E-2,-4.6978197E-3,1.18928235E-2,-8.0377E-3,-2.7884785E-2,-2.5559842E-4],"split_indices":[30,20,32,17,20,13,30,2,0,21,16,0,0,0,34,0,0,0,0,0,0,0,0],"split_type":[0,0,0,0,0,0,0,0,0,0,0,0,0,0,0,0,0,0,0,0,0,0,0],"sum_hessian":[3.1043085E2,2.0983177E2,1.0059906E2,8.139662E1,1.2843515E2,1.3746592E1,8.685247E1,7.3416534E1,7.9800887E0,1.1559603E1,1.1687554E2,8.39245E0,5.3541408E0,8.572191E0,7.828028E1,5.5526524E1,1.7890015E1,5.9471684E0,5.612435E0,5.164279E1,6.523276E1,1.83959E1,5.9884377E1],"tree_param":{"num_deleted":"0","num_feature":"37","num_nodes":"23","size_leaf_vector":"1"}},{"base_weights":[1.08729545E-2,1.2866886E-1,-1.1315389E-1,1.6062576E-1,-2.3970054E-2,-2.0352557E-1,1.0936168E-1,1.177551E-1,5.2777003E-2,1.3150401E-1,-3.547581E-1,6.923366E-1,-1.6128118E-1,7.730869E-3,-2.8974677E-2,-1.8191527E-3,3.8975842E-2,-3.9359543E-2,-9.365045E-3,5.2045626E-3,5.2232306E-2,-2.1574646E-2,1.6748443E-2],"categories":[],"categories_nodes":[],"categories_segments":[],"categories_sizes":[],"default_left":[0,0,0,0,0,0,0,0,0,0,0,0,0,0,0,0,0,0,0,0,0,0,0],"id":57,"left_children":[1,3,5,7,-1,9,11,13,-1,15,17,19,21,-1,-1,-1,-1,-1,-1,-1,-1,-1,-1],"loss_changes":[4.388986E0,3.0452864E0,2.9659438E0,5.420706E0,0E0,5.3607306E0,6.8666115E0,3.6987252E0,0E0,3.6935112E0,5.0004063E0,2.630849E0,4.1371446E0,0E0,0E0,0E0,0E0,0E0,0E0,0E0,0E0,0E0,0E0],"parents":[2147483647,0,0,1,1,2,2,3,3,5,5,6,6,7,7,9,9,10,10,11,11,12,12],"right_children":[2,4,6,8,-1,10,12,14,-1,16,18,20,22,-1,-1,-1,-1,-1,-1,-1,-1,-1,-1],"split_conditions":[4.7286394E-1,1.6311167E-2,7.4562424E-1,4.6654084E-1,-2.3970054E-2,-1.2255118E1,2.5355022E1,9.7366184E-1,5.2777003E-2,8.3E-1,-2.3411734E-3,2.1E1,2.4725394E-3,7.730869E-3,-2.8974677E-2,-1.8191527E-3,3.8975842E-2,-3.9359543E-2,-9.365045E-3,5.2045626E-3,5.2232306E-2,-2.1574646E-2,1.6748443E-2],"split_indices":[0,27,21,0,0,13,10,26,0,32,19,36,16,0,0,0,0,0,0,0,0,0,0],"split_type":[0,0,0,0,0,0,0,0,0,0,0,0,0,0,0,0,0,0,0,0,0,0,0],"sum_hessian":[2.9830997E2,1.5339253E2,1.4491745E2,1.465889E2,6.803628E0,1.03441025E2,4.1476425E1,1.4107411E2,5.5147953E0,3.2006145E1,7.1434875E1,1.2773403E1,2.870302E1,1.3486566E2,6.208437E0,2.6047338E1,5.958805E0,1.8741024E1,5.2693855E1,5.376179E0,7.3972235E0,1.8798891E1,9.904129E0],"tree_param":{"num_deleted":"0","num_feature":"37","num_nodes":"23","size_leaf_vector":"1"}},{"base_weights":[-1.0418752E-2,6.1216637E-2,-1.7979218E-1,2.3658125E-1,-7.633716E-2,-4.8995942E-1,-3.8678028E-2,1.5251648E-1,5.0797917E-2,-1.2825023E-1,